digraph Tree {
node [shape=box, style="filled, rounded", color="black", fontname=helvetica] ;
edge [fontname=helvetica] ;
0 [label="Fst 0.4-0.45; MSE 0.0-0.1 <= 21.5\ngini = 0.5\nsamples = 6358\nvalue = [4929, 5071]\nclass = Neutral", fillcolor="#f9fcfe"] ;
1 [label="Fst 0.25-0.3; MSE 0.0-0.1 <= 36.5\ngini = 0.5\nsamples = 6351\nvalue = [4916, 5071]\nclass = Neutral", fillcolor="#f9fcfe"] ;
0 -> 1 [labeldistance=2.5, labelangle=45, headlabel="True"] ;
2 [label="Fst 0.3-0.35; MSE 0.2-0.3 <= 0.5\ngini = 0.5\nsamples = 6129\nvalue = [4705, 4944]\nclass = Neutral", fillcolor="#f5fafe"] ;
1 -> 2 ;
3 [label="Fst 0.5-0.55; MSE 0.3-0.4 <= 11.5\ngini = 0.5\nsamples = 4044\nvalue = [3039, 3335]\nclass = Neutral", fillcolor="#edf6fd"] ;
2 -> 3 ;
4 [label="Fst 0.4-0.45; MSE 0.0-0.1 <= 3.5\ngini = 0.5\nsamples = 3956\nvalue = [2954, 3282]\nclass = Neutral", fillcolor="#ebf5fc"] ;
3 -> 4 ;
5 [label="Fst 0.35-0.4; MSE 0.2-0.3 <= 5.5\ngini = 0.5\nsamples = 3909\nvalue = [2906, 3258]\nclass = Neutral", fillcolor="#eaf4fc"] ;
4 -> 5 ;
6 [label="Fst 0.45-0.5; MSE 0.3-0.4 <= 15.5\ngini = 0.5\nsamples = 3608\nvalue = [2712, 2968]\nclass = Neutral", fillcolor="#eef7fd"] ;
5 -> 6 ;
7 [label="Fst 0.5-0.55; MSE 0.3-0.4 <= 7.5\ngini = 0.5\nsamples = 3601\nvalue = [2702, 2968]\nclass = Neutral", fillcolor="#edf6fd"] ;
6 -> 7 ;
8 [label="Fst 0.35-0.4; MSE 0.3-0.4 <= 1.5\ngini = 0.5\nsamples = 3530\nvalue = [2655, 2886]\nclass = Neutral", fillcolor="#eff7fd"] ;
7 -> 8 ;
9 [label="Fst 0.85-0.9; MSE 0.4-3.6 <= 1.5\ngini = 0.5\nsamples = 3479\nvalue = [2607, 2864]\nclass = Neutral", fillcolor="#edf6fd"] ;
8 -> 9 ;
10 [label="Fst 0.25-0.3; MSE 0.1-0.2 <= 34.5\ngini = 0.5\nsamples = 3101\nvalue = [2275, 2599]\nclass = Neutral", fillcolor="#e6f3fc"] ;
9 -> 10 ;
11 [label="Fst 0.1-0.15; MSE 0.0-0.1 <= 65.5\ngini = 0.5\nsamples = 3090\nvalue = [2262, 2597]\nclass = Neutral", fillcolor="#e5f2fc"] ;
10 -> 11 ;
12 [label="Fst 0.2-0.25; MSE 0.1-0.2 <= 2.5\ngini = 0.5\nsamples = 2413\nvalue = [1821, 1959]\nclass = Neutral", fillcolor="#f1f8fd"] ;
11 -> 12 ;
13 [label="Fst 0.55-0.6; MSE 0.4-3.6 <= 7.5\ngini = 0.5\nsamples = 2262\nvalue = [1724, 1814]\nclass = Neutral", fillcolor="#f5fafe"] ;
12 -> 13 ;
14 [label="Fst 0.1-0.15; MSE 0.0-0.1 <= 63.5\ngini = 0.5\nsamples = 2253\nvalue = [1713, 1812]\nclass = Neutral", fillcolor="#f4fafe"] ;
13 -> 14 ;
15 [label="Fst 0.25-0.3; MSE 0.1-0.2 <= 10.5\ngini = 0.5\nsamples = 2191\nvalue = [1654, 1774]\nclass = Neutral", fillcolor="#f2f8fd"] ;
14 -> 15 ;
16 [label="Fst 0.65-0.7; MSE 0.4-3.6 <= 9.5\ngini = 0.5\nsamples = 1944\nvalue = [1510, 1546]\nclass = Neutral", fillcolor="#fafdfe"] ;
15 -> 16 ;
17 [label="Fst 0.4-0.45; MSE 0.2-0.3 <= 0.5\ngini = 0.5\nsamples = 1933\nvalue = [1493, 1542]\nclass = Neutral", fillcolor="#f9fcfe"] ;
16 -> 17 ;
18 [label="Fst 0.35-0.4; MSE 0.1-0.2 <= 0.5\ngini = 0.49\nsamples = 406\nvalue = [274, 356]\nclass = Neutral", fillcolor="#d1e8f9"] ;
17 -> 18 ;
19 [label="Fst 0.05-0.1; MSE 0.0-0.1 <= 11.5\ngini = 0.5\nsamples = 130\nvalue = [100, 107]\nclass = Neutral", fillcolor="#f2f9fd"] ;
18 -> 19 ;
20 [label="Fst 0.6-0.65; MSE 0.4-3.6 <= 2.5\ngini = 0.5\nsamples = 124\nvalue = [100, 96]\nclass = SAS", fillcolor="#fefaf7"] ;
19 -> 20 ;
21 [label="Fst 0.75-0.8; MSE 0.4-3.6 <= 0.5\ngini = 0.5\nsamples = 115\nvalue = [87, 93]\nclass = Neutral", fillcolor="#f2f9fd"] ;
20 -> 21 ;
22 [label="Fst 0.4-0.45; MSE 0.0-0.1 <= 1.5\ngini = 0.5\nsamples = 114\nvalue = [87, 92]\nclass = Neutral", fillcolor="#f4fafe"] ;
21 -> 22 ;
23 [label="Fst 0.2-0.25; MSE 0.0-0.1 <= 18.5\ngini = 0.5\nsamples = 107\nvalue = [85, 83]\nclass = SAS", fillcolor="#fefcfa"] ;
22 -> 23 ;
24 [label="Fst 0.2-0.25; MSE 0.0-0.1 <= 7.5\ngini = 0.36\nsamples = 11\nvalue = [10, 3]\nclass = SAS", fillcolor="#eda774"] ;
23 -> 24 ;
25 [label="gini = 0.0\nsamples = 1\nvalue = [2, 0]\nclass = SAS", fillcolor="#e58139"] ;
24 -> 25 ;
26 [label="Fst 0.35-0.4; MSE 0.0-0.1 <= 0.5\ngini = 0.4\nsamples = 10\nvalue = [8, 3]\nclass = SAS", fillcolor="#efb083"] ;
24 -> 26 ;
27 [label="Fst 0.7-0.75; MSE 0.4-3.6 <= 1.0\ngini = 0.32\nsamples = 9\nvalue = [8, 2]\nclass = SAS", fillcolor="#eca06a"] ;
26 -> 27 ;
28 [label="Fst 0.4-0.45; MSE 0.0-0.1 <= 0.5\ngini = 0.38\nsamples = 8\nvalue = [6, 2]\nclass = SAS", fillcolor="#eeab7b"] ;
27 -> 28 ;
29 [label="Fst 0.25-0.3; MSE 0.0-0.1 <= 19.0\ngini = 0.41\nsamples = 7\nvalue = [5, 2]\nclass = SAS", fillcolor="#efb388"] ;
28 -> 29 ;
30 [label="Fst 0.4-0.45; MSE 0.1-0.2 <= 1.5\ngini = 0.28\nsamples = 6\nvalue = [5, 1]\nclass = SAS", fillcolor="#ea9a61"] ;
29 -> 30 ;
31 [label="gini = 0.0\nsamples = 5\nvalue = [5, 0]\nclass = SAS", fillcolor="#e58139"] ;
30 -> 31 ;
32 [label="gini = 0.0\nsamples = 1\nvalue = [0, 1]\nclass = Neutral", fillcolor="#399de5"] ;
30 -> 32 ;
33 [label="gini = 0.0\nsamples = 1\nvalue = [0, 1]\nclass = Neutral", fillcolor="#399de5"] ;
29 -> 33 ;
34 [label="gini = 0.0\nsamples = 1\nvalue = [1, 0]\nclass = SAS", fillcolor="#e58139"] ;
28 -> 34 ;
35 [label="gini = 0.0\nsamples = 1\nvalue = [2, 0]\nclass = SAS", fillcolor="#e58139"] ;
27 -> 35 ;
36 [label="gini = 0.0\nsamples = 1\nvalue = [0, 1]\nclass = Neutral", fillcolor="#399de5"] ;
26 -> 36 ;
37 [label="Fst 0.15-0.2; MSE 0.0-0.1 <= 68.0\ngini = 0.5\nsamples = 96\nvalue = [75, 80]\nclass = Neutral", fillcolor="#f3f9fd"] ;
23 -> 37 ;
38 [label="Fst 0.5-0.55; MSE 0.3-0.4 <= 0.5\ngini = 0.49\nsamples = 73\nvalue = [64, 49]\nclass = SAS", fillcolor="#f9e1d1"] ;
37 -> 38 ;
39 [label="Fst 0.4-0.45; MSE 0.4-3.6 <= 1.5\ngini = 0.48\nsamples = 67\nvalue = [61, 40]\nclass = SAS", fillcolor="#f6d4bb"] ;
38 -> 39 ;
40 [label="Fst 0.45-0.5; MSE 0.3-0.4 <= 5.0\ngini = 0.47\nsamples = 66\nvalue = [61, 38]\nclass = SAS", fillcolor="#f5cfb4"] ;
39 -> 40 ;
41 [label="Fst 0.3-0.35; MSE 0.1-0.2 <= 12.5\ngini = 0.48\nsamples = 64\nvalue = [57, 38]\nclass = SAS", fillcolor="#f6d5bd"] ;
40 -> 41 ;
42 [label="Fst 0.7-0.75; MSE 0.4-3.6 <= 0.5\ngini = 0.49\nsamples = 61\nvalue = [51, 38]\nclass = SAS", fillcolor="#f8dfcd"] ;
41 -> 42 ;
43 [label="Fst 0.35-0.4; MSE 0.3-0.4 <= 0.5\ngini = 0.49\nsamples = 59\nvalue = [47, 38]\nclass = SAS", fillcolor="#fae7d9"] ;
42 -> 43 ;
44 [label="Fst 0.25-0.3; MSE 0.0-0.1 <= 13.5\ngini = 0.5\nsamples = 58\nvalue = [46, 38]\nclass = SAS", fillcolor="#fae9dd"] ;
43 -> 44 ;
45 [label="Fst 0.25-0.3; MSE 0.1-0.2 <= 6.5\ngini = 0.42\nsamples = 30\nvalue = [32, 14]\nclass = SAS", fillcolor="#f0b890"] ;
44 -> 45 ;
46 [label="Fst 0.2-0.25; MSE 0.0-0.1 <= 29.5\ngini = 0.38\nsamples = 25\nvalue = [30, 10]\nclass = SAS", fillcolor="#eeab7b"] ;
45 -> 46 ;
47 [label="Fst 0.25-0.3; MSE 0.1-0.2 <= 2.5\ngini = 0.41\nsamples = 6\nvalue = [2, 5]\nclass = Neutral", fillcolor="#88c4ef"] ;
46 -> 47 ;
48 [label="Fst 0.3-0.35; MSE 0.1-0.2 <= 4.5\ngini = 0.32\nsamples = 4\nvalue = [1, 4]\nclass = Neutral", fillcolor="#6ab6ec"] ;
47 -> 48 ;
49 [label="gini = 0.0\nsamples = 1\nvalue = [1, 0]\nclass = SAS", fillcolor="#e58139"] ;
48 -> 49 ;
50 [label="gini = 0.0\nsamples = 3\nvalue = [0, 4]\nclass = Neutral", fillcolor="#399de5"] ;
48 -> 50 ;
51 [label="Fst 0.15-0.2; MSE 0.0-0.1 <= 59.0\ngini = 0.5\nsamples = 2\nvalue = [1, 1]\nclass = SAS", fillcolor="#ffffff"] ;
47 -> 51 ;
52 [label="gini = 0.0\nsamples = 1\nvalue = [0, 1]\nclass = Neutral", fillcolor="#399de5"] ;
51 -> 52 ;
53 [label="gini = 0.0\nsamples = 1\nvalue = [1, 0]\nclass = SAS", fillcolor="#e58139"] ;
51 -> 53 ;
54 [label="Fst 0.3-0.35; MSE 0.0-0.1 <= 11.0\ngini = 0.26\nsamples = 19\nvalue = [28, 5]\nclass = SAS", fillcolor="#ea985c"] ;
46 -> 54 ;
55 [label="Fst 0.45-0.5; MSE 0.3-0.4 <= 1.0\ngini = 0.2\nsamples = 17\nvalue = [23, 3]\nclass = SAS", fillcolor="#e89153"] ;
54 -> 55 ;
56 [label="Fst 0.15-0.2; MSE 0.0-0.1 <= 32.0\ngini = 0.15\nsamples = 16\nvalue = [23, 2]\nclass = SAS", fillcolor="#e78c4a"] ;
55 -> 56 ;
57 [label="Fst 0.05-0.1; MSE 0.0-0.1 <= 0.5\ngini = 0.38\nsamples = 2\nvalue = [3, 1]\nclass = SAS", fillcolor="#eeab7b"] ;
56 -> 57 ;
58 [label="gini = 0.0\nsamples = 1\nvalue = [3, 0]\nclass = SAS", fillcolor="#e58139"] ;
57 -> 58 ;
59 [label="gini = 0.0\nsamples = 1\nvalue = [0, 1]\nclass = Neutral", fillcolor="#399de5"] ;
57 -> 59 ;
60 [label="Fst 0.35-0.4; MSE 0.2-0.3 <= 0.5\ngini = 0.09\nsamples = 14\nvalue = [20, 1]\nclass = SAS", fillcolor="#e68743"] ;
56 -> 60 ;
61 [label="Fst 0.05-0.1; MSE 0.0-0.1 <= 1.5\ngini = 0.09\nsamples = 13\nvalue = [19, 1]\nclass = SAS", fillcolor="#e68843"] ;
60 -> 61 ;
62 [label="Fst 0.05-0.1; MSE 0.0-0.1 <= 0.5\ngini = 0.22\nsamples = 5\nvalue = [7, 1]\nclass = SAS", fillcolor="#e99355"] ;
61 -> 62 ;
63 [label="gini = 0.0\nsamples = 2\nvalue = [2, 0]\nclass = SAS", fillcolor="#e58139"] ;
62 -> 63 ;
64 [label="Fst 0.25-0.3; MSE 0.0-0.1 <= 10.5\ngini = 0.28\nsamples = 3\nvalue = [5, 1]\nclass = SAS", fillcolor="#ea9a61"] ;
62 -> 64 ;
65 [label="gini = 0.0\nsamples = 2\nvalue = [5, 0]\nclass = SAS", fillcolor="#e58139"] ;
64 -> 65 ;
66 [label="gini = 0.0\nsamples = 1\nvalue = [0, 1]\nclass = Neutral", fillcolor="#399de5"] ;
64 -> 66 ;
67 [label="gini = 0.0\nsamples = 8\nvalue = [12, 0]\nclass = SAS", fillcolor="#e58139"] ;
61 -> 67 ;
68 [label="gini = 0.0\nsamples = 1\nvalue = [1, 0]\nclass = SAS", fillcolor="#e58139"] ;
60 -> 68 ;
69 [label="gini = 0.0\nsamples = 1\nvalue = [0, 1]\nclass = Neutral", fillcolor="#399de5"] ;
55 -> 69 ;
70 [label="Fst 0.15-0.2; MSE 0.0-0.1 <= 34.0\ngini = 0.41\nsamples = 2\nvalue = [5, 2]\nclass = SAS", fillcolor="#efb388"] ;
54 -> 70 ;
71 [label="gini = 0.0\nsamples = 1\nvalue = [0, 2]\nclass = Neutral", fillcolor="#399de5"] ;
70 -> 71 ;
72 [label="gini = 0.0\nsamples = 1\nvalue = [5, 0]\nclass = SAS", fillcolor="#e58139"] ;
70 -> 72 ;
73 [label="Fst 0.45-0.5; MSE 0.4-3.6 <= 0.5\ngini = 0.44\nsamples = 5\nvalue = [2, 4]\nclass = Neutral", fillcolor="#9ccef2"] ;
45 -> 73 ;
74 [label="Fst 0.2-0.25; MSE 0.0-0.1 <= 30.0\ngini = 0.44\nsamples = 3\nvalue = [2, 1]\nclass = SAS", fillcolor="#f2c09c"] ;
73 -> 74 ;
75 [label="gini = 0.0\nsamples = 2\nvalue = [2, 0]\nclass = SAS", fillcolor="#e58139"] ;
74 -> 75 ;
76 [label="gini = 0.0\nsamples = 1\nvalue = [0, 1]\nclass = Neutral", fillcolor="#399de5"] ;
74 -> 76 ;
77 [label="gini = 0.0\nsamples = 2\nvalue = [0, 3]\nclass = Neutral", fillcolor="#399de5"] ;
73 -> 77 ;
78 [label="Fst 0.2-0.25; MSE 0.0-0.1 <= 33.5\ngini = 0.47\nsamples = 28\nvalue = [14, 24]\nclass = Neutral", fillcolor="#acd6f4"] ;
44 -> 78 ;
79 [label="Fst 0.4-0.45; MSE 0.0-0.1 <= 0.5\ngini = 0.48\nsamples = 11\nvalue = [10, 7]\nclass = SAS", fillcolor="#f7d9c4"] ;
78 -> 79 ;
80 [label="Fst 0.25-0.3; MSE 0.1-0.2 <= 6.5\ngini = 0.5\nsamples = 10\nvalue = [7, 7]\nclass = SAS", fillcolor="#ffffff"] ;
79 -> 80 ;
81 [label="Fst 0.1-0.15; MSE 0.0-0.1 <= 45.0\ngini = 0.49\nsamples = 9\nvalue = [7, 5]\nclass = SAS", fillcolor="#f8dbc6"] ;
80 -> 81 ;
82 [label="Fst 0.55-0.6; MSE 0.2-0.3 <= 2.0\ngini = 0.44\nsamples = 5\nvalue = [2, 4]\nclass = Neutral", fillcolor="#9ccef2"] ;
81 -> 82 ;
83 [label="Fst 0.35-0.4; MSE 0.0-0.1 <= 0.5\ngini = 0.5\nsamples = 4\nvalue = [2, 2]\nclass = SAS", fillcolor="#ffffff"] ;
82 -> 83 ;
84 [label="Fst 0.2-0.25; MSE 0.0-0.1 <= 31.0\ngini = 0.44\nsamples = 3\nvalue = [2, 1]\nclass = SAS", fillcolor="#f2c09c"] ;
83 -> 84 ;
85 [label="Fst 0.45-0.5; MSE 0.4-3.6 <= 1.0\ngini = 0.5\nsamples = 2\nvalue = [1, 1]\nclass = SAS", fillcolor="#ffffff"] ;
84 -> 85 ;
86 [label="gini = 0.0\nsamples = 1\nvalue = [1, 0]\nclass = SAS", fillcolor="#e58139"] ;
85 -> 86 ;
87 [label="gini = 0.0\nsamples = 1\nvalue = [0, 1]\nclass = Neutral", fillcolor="#399de5"] ;
85 -> 87 ;
88 [label="gini = 0.0\nsamples = 1\nvalue = [1, 0]\nclass = SAS", fillcolor="#e58139"] ;
84 -> 88 ;
89 [label="gini = 0.0\nsamples = 1\nvalue = [0, 1]\nclass = Neutral", fillcolor="#399de5"] ;
83 -> 89 ;
90 [label="gini = 0.0\nsamples = 1\nvalue = [0, 2]\nclass = Neutral", fillcolor="#399de5"] ;
82 -> 90 ;
91 [label="Fst 0.3-0.35; MSE 0.0-0.1 <= 3.5\ngini = 0.28\nsamples = 4\nvalue = [5, 1]\nclass = SAS", fillcolor="#ea9a61"] ;
81 -> 91 ;
92 [label="gini = 0.0\nsamples = 1\nvalue = [0, 1]\nclass = Neutral", fillcolor="#399de5"] ;
91 -> 92 ;
93 [label="gini = 0.0\nsamples = 3\nvalue = [5, 0]\nclass = SAS", fillcolor="#e58139"] ;
91 -> 93 ;
94 [label="gini = 0.0\nsamples = 1\nvalue = [0, 2]\nclass = Neutral", fillcolor="#399de5"] ;
80 -> 94 ;
95 [label="gini = 0.0\nsamples = 1\nvalue = [3, 0]\nclass = SAS", fillcolor="#e58139"] ;
79 -> 95 ;
96 [label="Fst 0.5-0.55; MSE 0.1-0.2 <= 0.5\ngini = 0.31\nsamples = 17\nvalue = [4, 17]\nclass = Neutral", fillcolor="#68b4eb"] ;
78 -> 96 ;
97 [label="Fst 0.25-0.3; MSE 0.0-0.1 <= 17.5\ngini = 0.35\nsamples = 15\nvalue = [4, 14]\nclass = Neutral", fillcolor="#72b9ec"] ;
96 -> 97 ;
98 [label="gini = 0.0\nsamples = 5\nvalue = [0, 8]\nclass = Neutral", fillcolor="#399de5"] ;
97 -> 98 ;
99 [label="Fst 0.4-0.45; MSE 0.1-0.2 <= 1.5\ngini = 0.48\nsamples = 10\nvalue = [4, 6]\nclass = Neutral", fillcolor="#bddef6"] ;
97 -> 99 ;
100 [label="Fst 0.1-0.15; MSE 0.0-0.1 <= 34.0\ngini = 0.32\nsamples = 5\nvalue = [4, 1]\nclass = SAS", fillcolor="#eca06a"] ;
99 -> 100 ;
101 [label="Fst 0.15-0.2; MSE 0.0-0.1 <= 36.5\ngini = 0.5\nsamples = 2\nvalue = [1, 1]\nclass = SAS", fillcolor="#ffffff"] ;
100 -> 101 ;
102 [label="gini = 0.0\nsamples = 1\nvalue = [1, 0]\nclass = SAS", fillcolor="#e58139"] ;
101 -> 102 ;
103 [label="gini = 0.0\nsamples = 1\nvalue = [0, 1]\nclass = Neutral", fillcolor="#399de5"] ;
101 -> 103 ;
104 [label="gini = 0.0\nsamples = 3\nvalue = [3, 0]\nclass = SAS", fillcolor="#e58139"] ;
100 -> 104 ;
105 [label="gini = 0.0\nsamples = 5\nvalue = [0, 5]\nclass = Neutral", fillcolor="#399de5"] ;
99 -> 105 ;
106 [label="gini = 0.0\nsamples = 2\nvalue = [0, 3]\nclass = Neutral", fillcolor="#399de5"] ;
96 -> 106 ;
107 [label="gini = 0.0\nsamples = 1\nvalue = [1, 0]\nclass = SAS", fillcolor="#e58139"] ;
43 -> 107 ;
108 [label="gini = 0.0\nsamples = 2\nvalue = [4, 0]\nclass = SAS", fillcolor="#e58139"] ;
42 -> 108 ;
109 [label="gini = 0.0\nsamples = 3\nvalue = [6, 0]\nclass = SAS", fillcolor="#e58139"] ;
41 -> 109 ;
110 [label="gini = 0.0\nsamples = 2\nvalue = [4, 0]\nclass = SAS", fillcolor="#e58139"] ;
40 -> 110 ;
111 [label="gini = 0.0\nsamples = 1\nvalue = [0, 2]\nclass = Neutral", fillcolor="#399de5"] ;
39 -> 111 ;
112 [label="Fst 0.2-0.25; MSE 0.1-0.2 <= 1.5\ngini = 0.38\nsamples = 6\nvalue = [3, 9]\nclass = Neutral", fillcolor="#7bbeee"] ;
38 -> 112 ;
113 [label="Fst 0.3-0.35; MSE 0.0-0.1 <= 0.5\ngini = 0.3\nsamples = 5\nvalue = [2, 9]\nclass = Neutral", fillcolor="#65b3eb"] ;
112 -> 113 ;
114 [label="gini = 0.0\nsamples = 2\nvalue = [0, 5]\nclass = Neutral", fillcolor="#399de5"] ;
113 -> 114 ;
115 [label="Fst 0.6-0.65; MSE 0.4-3.6 <= 0.5\ngini = 0.44\nsamples = 3\nvalue = [2, 4]\nclass = Neutral", fillcolor="#9ccef2"] ;
113 -> 115 ;
116 [label="gini = 0.0\nsamples = 1\nvalue = [0, 4]\nclass = Neutral", fillcolor="#399de5"] ;
115 -> 116 ;
117 [label="gini = 0.0\nsamples = 2\nvalue = [2, 0]\nclass = SAS", fillcolor="#e58139"] ;
115 -> 117 ;
118 [label="gini = 0.0\nsamples = 1\nvalue = [1, 0]\nclass = SAS", fillcolor="#e58139"] ;
112 -> 118 ;
119 [label="Fst 0.4-0.45; MSE 0.1-0.2 <= 0.5\ngini = 0.39\nsamples = 23\nvalue = [11, 31]\nclass = Neutral", fillcolor="#7fc0ee"] ;
37 -> 119 ;
120 [label="Fst 0.45-0.5; MSE 0.4-3.6 <= 0.5\ngini = 0.45\nsamples = 17\nvalue = [11, 21]\nclass = Neutral", fillcolor="#a1d0f3"] ;
119 -> 120 ;
121 [label="Fst 0.05-0.1; MSE 0.0-0.1 <= 1.5\ngini = 0.4\nsamples = 15\nvalue = [8, 21]\nclass = Neutral", fillcolor="#84c2ef"] ;
120 -> 121 ;
122 [label="Fst 0.35-0.4; MSE 0.2-0.3 <= 1.5\ngini = 0.49\nsamples = 11\nvalue = [8, 11]\nclass = Neutral", fillcolor="#c9e4f8"] ;
121 -> 122 ;
123 [label="Fst 0.25-0.3; MSE 0.0-0.1 <= 0.5\ngini = 0.49\nsamples = 10\nvalue = [8, 10]\nclass = Neutral", fillcolor="#d7ebfa"] ;
122 -> 123 ;
124 [label="gini = 0.0\nsamples = 1\nvalue = [0, 2]\nclass = Neutral", fillcolor="#399de5"] ;
123 -> 124 ;
125 [label="Fst 0.25-0.3; MSE 0.0-0.1 <= 2.5\ngini = 0.5\nsamples = 9\nvalue = [8, 8]\nclass = SAS", fillcolor="#ffffff"] ;
123 -> 125 ;
126 [label="gini = 0.0\nsamples = 2\nvalue = [3, 0]\nclass = SAS", fillcolor="#e58139"] ;
125 -> 126 ;
127 [label="Fst 0.05-0.1; MSE 0.0-0.1 <= 0.5\ngini = 0.47\nsamples = 7\nvalue = [5, 8]\nclass = Neutral", fillcolor="#b5daf5"] ;
125 -> 127 ;
128 [label="Fst 0.3-0.35; MSE 0.1-0.2 <= 4.5\ngini = 0.49\nsamples = 5\nvalue = [4, 5]\nclass = Neutral", fillcolor="#d7ebfa"] ;
127 -> 128 ;
129 [label="gini = 0.0\nsamples = 2\nvalue = [0, 4]\nclass = Neutral", fillcolor="#399de5"] ;
128 -> 129 ;
130 [label="Fst 0.25-0.3; MSE 0.1-0.2 <= 0.5\ngini = 0.32\nsamples = 3\nvalue = [4, 1]\nclass = SAS", fillcolor="#eca06a"] ;
128 -> 130 ;
131 [label="gini = 0.0\nsamples = 1\nvalue = [0, 1]\nclass = Neutral", fillcolor="#399de5"] ;
130 -> 131 ;
132 [label="gini = 0.0\nsamples = 2\nvalue = [4, 0]\nclass = SAS", fillcolor="#e58139"] ;
130 -> 132 ;
133 [label="Fst 0.3-0.35; MSE 0.1-0.2 <= 1.5\ngini = 0.38\nsamples = 2\nvalue = [1, 3]\nclass = Neutral", fillcolor="#7bbeee"] ;
127 -> 133 ;
134 [label="gini = 0.0\nsamples = 1\nvalue = [0, 3]\nclass = Neutral", fillcolor="#399de5"] ;
133 -> 134 ;
135 [label="gini = 0.0\nsamples = 1\nvalue = [1, 0]\nclass = SAS", fillcolor="#e58139"] ;
133 -> 135 ;
136 [label="gini = 0.0\nsamples = 1\nvalue = [0, 1]\nclass = Neutral", fillcolor="#399de5"] ;
122 -> 136 ;
137 [label="gini = 0.0\nsamples = 4\nvalue = [0, 10]\nclass = Neutral", fillcolor="#399de5"] ;
121 -> 137 ;
138 [label="gini = 0.0\nsamples = 2\nvalue = [3, 0]\nclass = SAS", fillcolor="#e58139"] ;
120 -> 138 ;
139 [label="gini = 0.0\nsamples = 6\nvalue = [0, 10]\nclass = Neutral", fillcolor="#399de5"] ;
119 -> 139 ;
140 [label="Fst 0.35-0.4; MSE 0.0-0.1 <= 10.5\ngini = 0.3\nsamples = 7\nvalue = [2, 9]\nclass = Neutral", fillcolor="#65b3eb"] ;
22 -> 140 ;
141 [label="Fst 0.5-0.55; MSE 0.1-0.2 <= 1.5\ngini = 0.2\nsamples = 5\nvalue = [1, 8]\nclass = Neutral", fillcolor="#52a9e8"] ;
140 -> 141 ;
142 [label="gini = 0.0\nsamples = 3\nvalue = [0, 7]\nclass = Neutral", fillcolor="#399de5"] ;
141 -> 142 ;
143 [label="Fst 0.4-0.45; MSE 0.0-0.1 <= 2.5\ngini = 0.5\nsamples = 2\nvalue = [1, 1]\nclass = SAS", fillcolor="#ffffff"] ;
141 -> 143 ;
144 [label="gini = 0.0\nsamples = 1\nvalue = [0, 1]\nclass = Neutral", fillcolor="#399de5"] ;
143 -> 144 ;
145 [label="gini = 0.0\nsamples = 1\nvalue = [1, 0]\nclass = SAS", fillcolor="#e58139"] ;
143 -> 145 ;
146 [label="Fst 0.6-0.65; MSE 0.3-0.4 <= 1.0\ngini = 0.5\nsamples = 2\nvalue = [1, 1]\nclass = SAS", fillcolor="#ffffff"] ;
140 -> 146 ;
147 [label="gini = 0.0\nsamples = 1\nvalue = [0, 1]\nclass = Neutral", fillcolor="#399de5"] ;
146 -> 147 ;
148 [label="gini = 0.0\nsamples = 1\nvalue = [1, 0]\nclass = SAS", fillcolor="#e58139"] ;
146 -> 148 ;
149 [label="gini = 0.0\nsamples = 1\nvalue = [0, 1]\nclass = Neutral", fillcolor="#399de5"] ;
21 -> 149 ;
150 [label="Fst 0.05-0.1; MSE 0.0-0.1 <= 0.5\ngini = 0.3\nsamples = 9\nvalue = [13, 3]\nclass = SAS", fillcolor="#eb9e67"] ;
20 -> 150 ;
151 [label="Fst 0.3-0.35; MSE 0.0-0.1 <= 2.5\ngini = 0.38\nsamples = 7\nvalue = [9, 3]\nclass = SAS", fillcolor="#eeab7b"] ;
150 -> 151 ;
152 [label="Fst 0.75-0.8; MSE 0.4-3.6 <= 1.5\ngini = 0.48\nsamples = 3\nvalue = [2, 3]\nclass = Neutral", fillcolor="#bddef6"] ;
151 -> 152 ;
153 [label="gini = 0.0\nsamples = 2\nvalue = [0, 3]\nclass = Neutral", fillcolor="#399de5"] ;
152 -> 153 ;
154 [label="gini = 0.0\nsamples = 1\nvalue = [2, 0]\nclass = SAS", fillcolor="#e58139"] ;
152 -> 154 ;
155 [label="gini = 0.0\nsamples = 4\nvalue = [7, 0]\nclass = SAS", fillcolor="#e58139"] ;
151 -> 155 ;
156 [label="gini = 0.0\nsamples = 2\nvalue = [4, 0]\nclass = SAS", fillcolor="#e58139"] ;
150 -> 156 ;
157 [label="gini = 0.0\nsamples = 6\nvalue = [0, 11]\nclass = Neutral", fillcolor="#399de5"] ;
19 -> 157 ;
158 [label="Fst 0.45-0.5; MSE 0.1-0.2 <= 2.5\ngini = 0.48\nsamples = 276\nvalue = [174, 249]\nclass = Neutral", fillcolor="#c3e1f7"] ;
18 -> 158 ;
159 [label="Fst 0.45-0.5; MSE 0.4-3.6 <= 1.5\ngini = 0.49\nsamples = 266\nvalue = [173, 232]\nclass = Neutral", fillcolor="#cde6f8"] ;
158 -> 159 ;
160 [label="Fst 0.75-0.8; MSE 0.4-3.6 <= 1.5\ngini = 0.49\nsamples = 254\nvalue = [158, 224]\nclass = Neutral", fillcolor="#c5e2f7"] ;
159 -> 160 ;
161 [label="Fst 0.05-0.1; MSE 0.0-0.1 <= 3.5\ngini = 0.48\nsamples = 242\nvalue = [144, 219]\nclass = Neutral", fillcolor="#bbddf6"] ;
160 -> 161 ;
162 [label="Fst 0.6-0.65; MSE 0.2-0.3 <= 0.5\ngini = 0.47\nsamples = 203\nvalue = [115, 193]\nclass = Neutral", fillcolor="#afd7f4"] ;
161 -> 162 ;
163 [label="Fst 0.35-0.4; MSE 0.2-0.3 <= 1.5\ngini = 0.47\nsamples = 201\nvalue = [115, 190]\nclass = Neutral", fillcolor="#b1d8f5"] ;
162 -> 163 ;
164 [label="Fst 0.5-0.55; MSE 0.3-0.4 <= 2.5\ngini = 0.48\nsamples = 183\nvalue = [110, 163]\nclass = Neutral", fillcolor="#bfdff7"] ;
163 -> 164 ;
165 [label="Fst 0.1-0.15; MSE 0.0-0.1 <= 43.5\ngini = 0.47\nsamples = 166\nvalue = [94, 152]\nclass = Neutral", fillcolor="#b3daf5"] ;
164 -> 165 ;
166 [label="Fst 0.35-0.4; MSE 0.1-0.2 <= 1.5\ngini = 0.44\nsamples = 108\nvalue = [52, 109]\nclass = Neutral", fillcolor="#97ccf1"] ;
165 -> 166 ;
167 [label="Fst 0.15-0.2; MSE 0.0-0.1 <= 53.0\ngini = 0.26\nsamples = 22\nvalue = [6, 33]\nclass = Neutral", fillcolor="#5dafea"] ;
166 -> 167 ;
168 [label="Fst 0.45-0.5; MSE 0.3-0.4 <= 0.5\ngini = 0.07\nsamples = 13\nvalue = [1, 27]\nclass = Neutral", fillcolor="#40a1e6"] ;
167 -> 168 ;
169 [label="gini = 0.0\nsamples = 9\nvalue = [0, 22]\nclass = Neutral", fillcolor="#399de5"] ;
168 -> 169 ;
170 [label="Fst 0.45-0.5; MSE 0.3-0.4 <= 1.5\ngini = 0.28\nsamples = 4\nvalue = [1, 5]\nclass = Neutral", fillcolor="#61b1ea"] ;
168 -> 170 ;
171 [label="Fst 0.6-0.65; MSE 0.4-3.6 <= 1.0\ngini = 0.32\nsamples = 3\nvalue = [1, 4]\nclass = Neutral", fillcolor="#6ab6ec"] ;
170 -> 171 ;
172 [label="Fst 0.15-0.2; MSE 0.0-0.1 <= 32.0\ngini = 0.5\nsamples = 2\nvalue = [1, 1]\nclass = SAS", fillcolor="#ffffff"] ;
171 -> 172 ;
173 [label="gini = 0.0\nsamples = 1\nvalue = [1, 0]\nclass = SAS", fillcolor="#e58139"] ;
172 -> 173 ;
174 [label="gini = 0.0\nsamples = 1\nvalue = [0, 1]\nclass = Neutral", fillcolor="#399de5"] ;
172 -> 174 ;
175 [label="gini = 0.0\nsamples = 1\nvalue = [0, 3]\nclass = Neutral", fillcolor="#399de5"] ;
171 -> 175 ;
176 [label="gini = 0.0\nsamples = 1\nvalue = [0, 1]\nclass = Neutral", fillcolor="#399de5"] ;
170 -> 176 ;
177 [label="Fst 0.2-0.25; MSE 0.0-0.1 <= 38.0\ngini = 0.5\nsamples = 9\nvalue = [5, 6]\nclass = Neutral", fillcolor="#deeffb"] ;
167 -> 177 ;
178 [label="Fst 0.2-0.25; MSE 0.0-0.1 <= 17.5\ngini = 0.44\nsamples = 7\nvalue = [3, 6]\nclass = Neutral", fillcolor="#9ccef2"] ;
177 -> 178 ;
179 [label="gini = 0.0\nsamples = 1\nvalue = [1, 0]\nclass = SAS", fillcolor="#e58139"] ;
178 -> 179 ;
180 [label="Fst 0.3-0.35; MSE 0.1-0.2 <= 5.5\ngini = 0.38\nsamples = 6\nvalue = [2, 6]\nclass = Neutral", fillcolor="#7bbeee"] ;
178 -> 180 ;
181 [label="Fst 0.35-0.4; MSE 0.0-0.1 <= 0.5\ngini = 0.5\nsamples = 3\nvalue = [2, 2]\nclass = SAS", fillcolor="#ffffff"] ;
180 -> 181 ;
182 [label="Fst 0.2-0.25; MSE 0.0-0.1 <= 25.5\ngini = 0.44\nsamples = 2\nvalue = [1, 2]\nclass = Neutral", fillcolor="#9ccef2"] ;
181 -> 182 ;
183 [label="gini = 0.0\nsamples = 1\nvalue = [1, 0]\nclass = SAS", fillcolor="#e58139"] ;
182 -> 183 ;
184 [label="gini = 0.0\nsamples = 1\nvalue = [0, 2]\nclass = Neutral", fillcolor="#399de5"] ;
182 -> 184 ;
185 [label="gini = 0.0\nsamples = 1\nvalue = [1, 0]\nclass = SAS", fillcolor="#e58139"] ;
181 -> 185 ;
186 [label="gini = 0.0\nsamples = 3\nvalue = [0, 4]\nclass = Neutral", fillcolor="#399de5"] ;
180 -> 186 ;
187 [label="gini = 0.0\nsamples = 2\nvalue = [2, 0]\nclass = SAS", fillcolor="#e58139"] ;
177 -> 187 ;
188 [label="Fst 0.4-0.45; MSE 0.1-0.2 <= 12.5\ngini = 0.47\nsamples = 86\nvalue = [46, 76]\nclass = Neutral", fillcolor="#b1d8f5"] ;
166 -> 188 ;
189 [label="Fst 0.55-0.6; MSE 0.4-3.6 <= 0.5\ngini = 0.45\nsamples = 80\nvalue = [39, 73]\nclass = Neutral", fillcolor="#a3d1f3"] ;
188 -> 189 ;
190 [label="Fst 0.45-0.5; MSE 0.4-3.6 <= 0.5\ngini = 0.44\nsamples = 75\nvalue = [35, 71]\nclass = Neutral", fillcolor="#9bcdf2"] ;
189 -> 190 ;
191 [label="Fst 0.3-0.35; MSE 0.0-0.1 <= 17.5\ngini = 0.45\nsamples = 73\nvalue = [35, 66]\nclass = Neutral", fillcolor="#a2d1f3"] ;
190 -> 191 ;
192 [label="Fst 0.55-0.6; MSE 0.3-0.4 <= 3.5\ngini = 0.47\nsamples = 69\nvalue = [35, 59]\nclass = Neutral", fillcolor="#aed7f4"] ;
191 -> 192 ;
193 [label="Fst 0.45-0.5; MSE 0.1-0.2 <= 0.5\ngini = 0.46\nsamples = 68\nvalue = [34, 59]\nclass = Neutral", fillcolor="#abd5f4"] ;
192 -> 193 ;
194 [label="Fst 0.45-0.5; MSE 0.3-0.4 <= 0.5\ngini = 0.46\nsamples = 63\nvalue = [32, 56]\nclass = Neutral", fillcolor="#aad5f4"] ;
193 -> 194 ;
195 [label="Fst 0.15-0.2; MSE 0.0-0.1 <= 40.0\ngini = 0.39\nsamples = 46\nvalue = [17, 47]\nclass = Neutral", fillcolor="#81c0ee"] ;
194 -> 195 ;
196 [label="Fst 0.3-0.35; MSE 0.0-0.1 <= 3.0\ngini = 0.5\nsamples = 12\nvalue = [8, 9]\nclass = Neutral", fillcolor="#e9f4fc"] ;
195 -> 196 ;
197 [label="Fst 0.2-0.25; MSE 0.0-0.1 <= 50.0\ngini = 0.35\nsamples = 6\nvalue = [2, 7]\nclass = Neutral", fillcolor="#72b9ec"] ;
196 -> 197 ;
198 [label="gini = 0.0\nsamples = 1\nvalue = [0, 3]\nclass = Neutral", fillcolor="#399de5"] ;
197 -> 198 ;
199 [label="Fst 0.15-0.2; MSE 0.0-0.1 <= 26.5\ngini = 0.44\nsamples = 5\nvalue = [2, 4]\nclass = Neutral", fillcolor="#9ccef2"] ;
197 -> 199 ;
200 [label="gini = 0.0\nsamples = 3\nvalue = [0, 4]\nclass = Neutral", fillcolor="#399de5"] ;
199 -> 200 ;
201 [label="gini = 0.0\nsamples = 2\nvalue = [2, 0]\nclass = SAS", fillcolor="#e58139"] ;
199 -> 201 ;
202 [label="Fst 0.35-0.4; MSE 0.0-0.1 <= 0.5\ngini = 0.38\nsamples = 6\nvalue = [6, 2]\nclass = SAS", fillcolor="#eeab7b"] ;
196 -> 202 ;
203 [label="gini = 0.0\nsamples = 2\nvalue = [3, 0]\nclass = SAS", fillcolor="#e58139"] ;
202 -> 203 ;
204 [label="Fst 0.3-0.35; MSE 0.0-0.1 <= 10.5\ngini = 0.48\nsamples = 4\nvalue = [3, 2]\nclass = SAS", fillcolor="#f6d5bd"] ;
202 -> 204 ;
205 [label="Fst 0.55-0.6; MSE 0.3-0.4 <= 2.0\ngini = 0.44\nsamples = 2\nvalue = [1, 2]\nclass = Neutral", fillcolor="#9ccef2"] ;
204 -> 205 ;
206 [label="gini = 0.0\nsamples = 1\nvalue = [1, 0]\nclass = SAS", fillcolor="#e58139"] ;
205 -> 206 ;
207 [label="gini = 0.0\nsamples = 1\nvalue = [0, 2]\nclass = Neutral", fillcolor="#399de5"] ;
205 -> 207 ;
208 [label="gini = 0.0\nsamples = 2\nvalue = [2, 0]\nclass = SAS", fillcolor="#e58139"] ;
204 -> 208 ;
209 [label="Fst 0.5-0.55; MSE 0.3-0.4 <= 0.5\ngini = 0.31\nsamples = 34\nvalue = [9, 38]\nclass = Neutral", fillcolor="#68b4eb"] ;
195 -> 209 ;
210 [label="Fst 0.75-0.8; MSE 0.4-3.6 <= 0.5\ngini = 0.4\nsamples = 23\nvalue = [9, 24]\nclass = Neutral", fillcolor="#83c2ef"] ;
209 -> 210 ;
211 [label="Fst 0.4-0.45; MSE 0.3-0.4 <= 0.5\ngini = 0.38\nsamples = 22\nvalue = [8, 24]\nclass = Neutral", fillcolor="#7bbeee"] ;
210 -> 211 ;
212 [label="Fst 0.25-0.3; MSE 0.0-0.1 <= 5.5\ngini = 0.32\nsamples = 21\nvalue = [6, 24]\nclass = Neutral", fillcolor="#6ab6ec"] ;
211 -> 212 ;
213 [label="Fst 0.05-0.1; MSE 0.0-0.1 <= 0.5\ngini = 0.5\nsamples = 4\nvalue = [2, 2]\nclass = SAS", fillcolor="#ffffff"] ;
212 -> 213 ;
214 [label="Fst 0.3-0.35; MSE 0.0-0.1 <= 2.5\ngini = 0.44\nsamples = 3\nvalue = [1, 2]\nclass = Neutral", fillcolor="#9ccef2"] ;
213 -> 214 ;
215 [label="Fst 0.2-0.25; MSE 0.0-0.1 <= 41.5\ngini = 0.5\nsamples = 2\nvalue = [1, 1]\nclass = SAS", fillcolor="#ffffff"] ;
214 -> 215 ;
216 [label="gini = 0.0\nsamples = 1\nvalue = [0, 1]\nclass = Neutral", fillcolor="#399de5"] ;
215 -> 216 ;
217 [label="gini = 0.0\nsamples = 1\nvalue = [1, 0]\nclass = SAS", fillcolor="#e58139"] ;
215 -> 217 ;
218 [label="gini = 0.0\nsamples = 1\nvalue = [0, 1]\nclass = Neutral", fillcolor="#399de5"] ;
214 -> 218 ;
219 [label="gini = 0.0\nsamples = 1\nvalue = [1, 0]\nclass = SAS", fillcolor="#e58139"] ;
213 -> 219 ;
220 [label="Fst 0.4-0.45; MSE 0.1-0.2 <= 0.5\ngini = 0.26\nsamples = 17\nvalue = [4, 22]\nclass = Neutral", fillcolor="#5dafea"] ;
212 -> 220 ;
221 [label="Fst 0.35-0.4; MSE 0.1-0.2 <= 4.0\ngini = 0.44\nsamples = 3\nvalue = [2, 1]\nclass = SAS", fillcolor="#f2c09c"] ;
220 -> 221 ;
222 [label="gini = 0.0\nsamples = 2\nvalue = [2, 0]\nclass = SAS", fillcolor="#e58139"] ;
221 -> 222 ;
223 [label="gini = 0.0\nsamples = 1\nvalue = [0, 1]\nclass = Neutral", fillcolor="#399de5"] ;
221 -> 223 ;
224 [label="Fst 0.15-0.2; MSE 0.0-0.1 <= 47.0\ngini = 0.16\nsamples = 14\nvalue = [2, 21]\nclass = Neutral", fillcolor="#4ca6e7"] ;
220 -> 224 ;
225 [label="Fst 0.05-0.1; MSE 0.0-0.1 <= 2.0\ngini = 0.32\nsamples = 3\nvalue = [1, 4]\nclass = Neutral", fillcolor="#6ab6ec"] ;
224 -> 225 ;
226 [label="gini = 0.0\nsamples = 2\nvalue = [0, 4]\nclass = Neutral", fillcolor="#399de5"] ;
225 -> 226 ;
227 [label="gini = 0.0\nsamples = 1\nvalue = [1, 0]\nclass = SAS", fillcolor="#e58139"] ;
225 -> 227 ;
228 [label="Fst 0.4-0.45; MSE 0.0-0.1 <= 0.5\ngini = 0.1\nsamples = 11\nvalue = [1, 17]\nclass = Neutral", fillcolor="#45a3e7"] ;
224 -> 228 ;
229 [label="gini = 0.0\nsamples = 10\nvalue = [0, 17]\nclass = Neutral", fillcolor="#399de5"] ;
228 -> 229 ;
230 [label="gini = 0.0\nsamples = 1\nvalue = [1, 0]\nclass = SAS", fillcolor="#e58139"] ;
228 -> 230 ;
231 [label="gini = 0.0\nsamples = 1\nvalue = [2, 0]\nclass = SAS", fillcolor="#e58139"] ;
211 -> 231 ;
232 [label="gini = 0.0\nsamples = 1\nvalue = [1, 0]\nclass = SAS", fillcolor="#e58139"] ;
210 -> 232 ;
233 [label="gini = 0.0\nsamples = 11\nvalue = [0, 14]\nclass = Neutral", fillcolor="#399de5"] ;
209 -> 233 ;
234 [label="Fst 0.5-0.55; MSE 0.3-0.4 <= 1.5\ngini = 0.47\nsamples = 17\nvalue = [15, 9]\nclass = SAS", fillcolor="#f5cdb0"] ;
194 -> 234 ;
235 [label="Fst 0.5-0.55; MSE 0.2-0.3 <= 0.5\ngini = 0.49\nsamples = 15\nvalue = [12, 9]\nclass = SAS", fillcolor="#f8e0ce"] ;
234 -> 235 ;
236 [label="Fst 0.45-0.5; MSE 0.2-0.3 <= 1.5\ngini = 0.42\nsamples = 12\nvalue = [12, 5]\nclass = SAS", fillcolor="#f0b58b"] ;
235 -> 236 ;
237 [label="Fst 0.25-0.3; MSE 0.0-0.1 <= 13.0\ngini = 0.17\nsamples = 7\nvalue = [10, 1]\nclass = SAS", fillcolor="#e88e4d"] ;
236 -> 237 ;
238 [label="gini = 0.0\nsamples = 4\nvalue = [7, 0]\nclass = SAS", fillcolor="#e58139"] ;
237 -> 238 ;
239 [label="Fst 0.3-0.35; MSE 0.0-0.1 <= 1.5\ngini = 0.38\nsamples = 3\nvalue = [3, 1]\nclass = SAS", fillcolor="#eeab7b"] ;
237 -> 239 ;
240 [label="gini = 0.0\nsamples = 1\nvalue = [0, 1]\nclass = Neutral", fillcolor="#399de5"] ;
239 -> 240 ;
241 [label="gini = 0.0\nsamples = 2\nvalue = [3, 0]\nclass = SAS", fillcolor="#e58139"] ;
239 -> 241 ;
242 [label="Fst 0.3-0.35; MSE 0.0-0.1 <= 6.0\ngini = 0.44\nsamples = 5\nvalue = [2, 4]\nclass = Neutral", fillcolor="#9ccef2"] ;
236 -> 242 ;
243 [label="gini = 0.0\nsamples = 3\nvalue = [0, 3]\nclass = Neutral", fillcolor="#399de5"] ;
242 -> 243 ;
244 [label="Fst 0.35-0.4; MSE 0.1-0.2 <= 8.0\ngini = 0.44\nsamples = 2\nvalue = [2, 1]\nclass = SAS", fillcolor="#f2c09c"] ;
242 -> 244 ;
245 [label="gini = 0.0\nsamples = 1\nvalue = [0, 1]\nclass = Neutral", fillcolor="#399de5"] ;
244 -> 245 ;
246 [label="gini = 0.0\nsamples = 1\nvalue = [2, 0]\nclass = SAS", fillcolor="#e58139"] ;
244 -> 246 ;
247 [label="gini = 0.0\nsamples = 3\nvalue = [0, 4]\nclass = Neutral", fillcolor="#399de5"] ;
235 -> 247 ;
248 [label="gini = 0.0\nsamples = 2\nvalue = [3, 0]\nclass = SAS", fillcolor="#e58139"] ;
234 -> 248 ;
249 [label="Fst 0.15-0.2; MSE 0.0-0.1 <= 50.5\ngini = 0.48\nsamples = 5\nvalue = [2, 3]\nclass = Neutral", fillcolor="#bddef6"] ;
193 -> 249 ;
250 [label="Fst 0.45-0.5; MSE 0.2-0.3 <= 3.5\ngini = 0.38\nsamples = 4\nvalue = [1, 3]\nclass = Neutral", fillcolor="#7bbeee"] ;
249 -> 250 ;
251 [label="gini = 0.0\nsamples = 2\nvalue = [0, 2]\nclass = Neutral", fillcolor="#399de5"] ;
250 -> 251 ;
252 [label="Fst 0.3-0.35; MSE 0.0-0.1 <= 7.5\ngini = 0.5\nsamples = 2\nvalue = [1, 1]\nclass = SAS", fillcolor="#ffffff"] ;
250 -> 252 ;
253 [label="gini = 0.0\nsamples = 1\nvalue = [0, 1]\nclass = Neutral", fillcolor="#399de5"] ;
252 -> 253 ;
254 [label="gini = 0.0\nsamples = 1\nvalue = [1, 0]\nclass = SAS", fillcolor="#e58139"] ;
252 -> 254 ;
255 [label="gini = 0.0\nsamples = 1\nvalue = [1, 0]\nclass = SAS", fillcolor="#e58139"] ;
249 -> 255 ;
256 [label="gini = 0.0\nsamples = 1\nvalue = [1, 0]\nclass = SAS", fillcolor="#e58139"] ;
192 -> 256 ;
257 [label="gini = 0.0\nsamples = 4\nvalue = [0, 7]\nclass = Neutral", fillcolor="#399de5"] ;
191 -> 257 ;
258 [label="gini = 0.0\nsamples = 2\nvalue = [0, 5]\nclass = Neutral", fillcolor="#399de5"] ;
190 -> 258 ;
259 [label="Fst 0.3-0.35; MSE 0.1-0.2 <= 4.0\ngini = 0.44\nsamples = 5\nvalue = [4, 2]\nclass = SAS", fillcolor="#f2c09c"] ;
189 -> 259 ;
260 [label="gini = 0.0\nsamples = 2\nvalue = [3, 0]\nclass = SAS", fillcolor="#e58139"] ;
259 -> 260 ;
261 [label="Fst 0.35-0.4; MSE 0.2-0.3 <= 0.5\ngini = 0.44\nsamples = 3\nvalue = [1, 2]\nclass = Neutral", fillcolor="#9ccef2"] ;
259 -> 261 ;
262 [label="gini = 0.0\nsamples = 2\nvalue = [0, 2]\nclass = Neutral", fillcolor="#399de5"] ;
261 -> 262 ;
263 [label="gini = 0.0\nsamples = 1\nvalue = [1, 0]\nclass = SAS", fillcolor="#e58139"] ;
261 -> 263 ;
264 [label="Fst 0.2-0.25; MSE 0.0-0.1 <= 39.5\ngini = 0.42\nsamples = 6\nvalue = [7, 3]\nclass = SAS", fillcolor="#f0b78e"] ;
188 -> 264 ;
265 [label="Fst 0.5-0.55; MSE 0.4-3.6 <= 0.5\ngini = 0.48\nsamples = 3\nvalue = [2, 3]\nclass = Neutral", fillcolor="#bddef6"] ;
264 -> 265 ;
266 [label="Fst 0.35-0.4; MSE 0.0-0.1 <= 0.5\ngini = 0.44\nsamples = 2\nvalue = [2, 1]\nclass = SAS", fillcolor="#f2c09c"] ;
265 -> 266 ;
267 [label="gini = 0.0\nsamples = 1\nvalue = [0, 1]\nclass = Neutral", fillcolor="#399de5"] ;
266 -> 267 ;
268 [label="gini = 0.0\nsamples = 1\nvalue = [2, 0]\nclass = SAS", fillcolor="#e58139"] ;
266 -> 268 ;
269 [label="gini = 0.0\nsamples = 1\nvalue = [0, 2]\nclass = Neutral", fillcolor="#399de5"] ;
265 -> 269 ;
270 [label="gini = 0.0\nsamples = 3\nvalue = [5, 0]\nclass = SAS", fillcolor="#e58139"] ;
264 -> 270 ;
271 [label="Fst 0.45-0.5; MSE 0.1-0.2 <= 0.5\ngini = 0.5\nsamples = 58\nvalue = [42, 43]\nclass = Neutral", fillcolor="#fafdfe"] ;
165 -> 271 ;
272 [label="Fst 0.35-0.4; MSE 0.0-0.1 <= 6.5\ngini = 0.5\nsamples = 55\nvalue = [39, 43]\nclass = Neutral", fillcolor="#edf6fd"] ;
271 -> 272 ;
273 [label="Fst 0.15-0.2; MSE 0.0-0.1 <= 54.5\ngini = 0.5\nsamples = 53\nvalue = [39, 41]\nclass = Neutral", fillcolor="#f5fafe"] ;
272 -> 273 ;
274 [label="Fst 0.5-0.55; MSE 0.2-0.3 <= 2.5\ngini = 0.47\nsamples = 34\nvalue = [20, 32]\nclass = Neutral", fillcolor="#b5daf5"] ;
273 -> 274 ;
275 [label="Fst 0.2-0.25; MSE 0.0-0.1 <= 42.5\ngini = 0.45\nsamples = 32\nvalue = [17, 32]\nclass = Neutral", fillcolor="#a2d1f3"] ;
274 -> 275 ;
276 [label="Fst 0.25-0.3; MSE 0.0-0.1 <= 25.0\ngini = 0.29\nsamples = 21\nvalue = [6, 28]\nclass = Neutral", fillcolor="#63b2eb"] ;
275 -> 276 ;
277 [label="Fst 0.1-0.15; MSE 0.0-0.1 <= 50.5\ngini = 0.22\nsamples = 19\nvalue = [4, 28]\nclass = Neutral", fillcolor="#55abe9"] ;
276 -> 277 ;
278 [label="Fst 0.35-0.4; MSE 0.2-0.3 <= 0.5\ngini = 0.5\nsamples = 3\nvalue = [2, 2]\nclass = SAS", fillcolor="#ffffff"] ;
277 -> 278 ;
279 [label="Fst 0.2-0.25; MSE 0.0-0.1 <= 37.0\ngini = 0.44\nsamples = 2\nvalue = [2, 1]\nclass = SAS", fillcolor="#f2c09c"] ;
278 -> 279 ;
280 [label="gini = 0.0\nsamples = 1\nvalue = [0, 1]\nclass = Neutral", fillcolor="#399de5"] ;
279 -> 280 ;
281 [label="gini = 0.0\nsamples = 1\nvalue = [2, 0]\nclass = SAS", fillcolor="#e58139"] ;
279 -> 281 ;
282 [label="gini = 0.0\nsamples = 1\nvalue = [0, 1]\nclass = Neutral", fillcolor="#399de5"] ;
278 -> 282 ;
283 [label="Fst 0.05-0.1; MSE 0.0-0.1 <= 0.5\ngini = 0.13\nsamples = 16\nvalue = [2, 26]\nclass = Neutral", fillcolor="#48a5e7"] ;
277 -> 283 ;
284 [label="Fst 0.3-0.35; MSE 0.0-0.1 <= 7.0\ngini = 0.35\nsamples = 6\nvalue = [2, 7]\nclass = Neutral", fillcolor="#72b9ec"] ;
283 -> 284 ;
285 [label="Fst 0.5-0.55; MSE 0.3-0.4 <= 0.5\ngini = 0.48\nsamples = 4\nvalue = [2, 3]\nclass = Neutral", fillcolor="#bddef6"] ;
284 -> 285 ;
286 [label="gini = 0.0\nsamples = 2\nvalue = [0, 3]\nclass = Neutral", fillcolor="#399de5"] ;
285 -> 286 ;
287 [label="gini = 0.0\nsamples = 2\nvalue = [2, 0]\nclass = SAS", fillcolor="#e58139"] ;
285 -> 287 ;
288 [label="gini = 0.0\nsamples = 2\nvalue = [0, 4]\nclass = Neutral", fillcolor="#399de5"] ;
284 -> 288 ;
289 [label="gini = 0.0\nsamples = 10\nvalue = [0, 19]\nclass = Neutral", fillcolor="#399de5"] ;
283 -> 289 ;
290 [label="gini = 0.0\nsamples = 2\nvalue = [2, 0]\nclass = SAS", fillcolor="#e58139"] ;
276 -> 290 ;
291 [label="Fst 0.5-0.55; MSE 0.3-0.4 <= 0.5\ngini = 0.39\nsamples = 11\nvalue = [11, 4]\nclass = SAS", fillcolor="#eeaf81"] ;
275 -> 291 ;
292 [label="Fst 0.15-0.2; MSE 0.0-0.1 <= 33.0\ngini = 0.34\nsamples = 10\nvalue = [11, 3]\nclass = SAS", fillcolor="#eca36f"] ;
291 -> 292 ;
293 [label="gini = 0.0\nsamples = 2\nvalue = [4, 0]\nclass = SAS", fillcolor="#e58139"] ;
292 -> 293 ;
294 [label="Fst 0.4-0.45; MSE 0.1-0.2 <= 0.5\ngini = 0.42\nsamples = 8\nvalue = [7, 3]\nclass = SAS", fillcolor="#f0b78e"] ;
292 -> 294 ;
295 [label="Fst 0.15-0.2; MSE 0.0-0.1 <= 39.0\ngini = 0.49\nsamples = 5\nvalue = [4, 3]\nclass = SAS", fillcolor="#f8e0ce"] ;
294 -> 295 ;
296 [label="Fst 0.25-0.3; MSE 0.0-0.1 <= 7.5\ngini = 0.38\nsamples = 3\nvalue = [1, 3]\nclass = Neutral", fillcolor="#7bbeee"] ;
295 -> 296 ;
297 [label="gini = 0.0\nsamples = 2\nvalue = [0, 3]\nclass = Neutral", fillcolor="#399de5"] ;
296 -> 297 ;
298 [label="gini = 0.0\nsamples = 1\nvalue = [1, 0]\nclass = SAS", fillcolor="#e58139"] ;
296 -> 298 ;
299 [label="gini = 0.0\nsamples = 2\nvalue = [3, 0]\nclass = SAS", fillcolor="#e58139"] ;
295 -> 299 ;
300 [label="gini = 0.0\nsamples = 3\nvalue = [3, 0]\nclass = SAS", fillcolor="#e58139"] ;
294 -> 300 ;
301 [label="gini = 0.0\nsamples = 1\nvalue = [0, 1]\nclass = Neutral", fillcolor="#399de5"] ;
291 -> 301 ;
302 [label="gini = 0.0\nsamples = 2\nvalue = [3, 0]\nclass = SAS", fillcolor="#e58139"] ;
274 -> 302 ;
303 [label="Fst 0.2-0.25; MSE 0.0-0.1 <= 13.5\ngini = 0.44\nsamples = 19\nvalue = [19, 9]\nclass = SAS", fillcolor="#f1bd97"] ;
273 -> 303 ;
304 [label="gini = 0.0\nsamples = 2\nvalue = [3, 0]\nclass = SAS", fillcolor="#e58139"] ;
303 -> 304 ;
305 [label="Fst 0.45-0.5; MSE 0.2-0.3 <= 1.5\ngini = 0.46\nsamples = 17\nvalue = [16, 9]\nclass = SAS", fillcolor="#f4c8a8"] ;
303 -> 305 ;
306 [label="Fst 0.45-0.5; MSE 0.4-3.6 <= 0.5\ngini = 0.47\nsamples = 16\nvalue = [15, 9]\nclass = SAS", fillcolor="#f5cdb0"] ;
305 -> 306 ;
307 [label="Fst 0.25-0.3; MSE 0.0-0.1 <= 11.0\ngini = 0.43\nsamples = 15\nvalue = [15, 7]\nclass = SAS", fillcolor="#f1bc95"] ;
306 -> 307 ;
308 [label="Fst 0.05-0.1; MSE 0.0-0.1 <= 0.5\ngini = 0.36\nsamples = 12\nvalue = [13, 4]\nclass = SAS", fillcolor="#eda876"] ;
307 -> 308 ;
309 [label="Fst 0.1-0.15; MSE 0.0-0.1 <= 47.0\ngini = 0.5\nsamples = 4\nvalue = [2, 2]\nclass = SAS", fillcolor="#ffffff"] ;
308 -> 309 ;
310 [label="gini = 0.0\nsamples = 1\nvalue = [0, 1]\nclass = Neutral", fillcolor="#399de5"] ;
309 -> 310 ;
311 [label="Fst 0.4-0.45; MSE 0.1-0.2 <= 0.5\ngini = 0.44\nsamples = 3\nvalue = [2, 1]\nclass = SAS", fillcolor="#f2c09c"] ;
309 -> 311 ;
312 [label="Fst 0.15-0.2; MSE 0.0-0.1 <= 63.5\ngini = 0.5\nsamples = 2\nvalue = [1, 1]\nclass = SAS", fillcolor="#ffffff"] ;
311 -> 312 ;
313 [label="gini = 0.0\nsamples = 1\nvalue = [1, 0]\nclass = SAS", fillcolor="#e58139"] ;
312 -> 313 ;
314 [label="gini = 0.0\nsamples = 1\nvalue = [0, 1]\nclass = Neutral", fillcolor="#399de5"] ;
312 -> 314 ;
315 [label="gini = 0.0\nsamples = 1\nvalue = [1, 0]\nclass = SAS", fillcolor="#e58139"] ;
311 -> 315 ;
316 [label="Fst 0.35-0.4; MSE 0.1-0.2 <= 3.0\ngini = 0.26\nsamples = 8\nvalue = [11, 2]\nclass = SAS", fillcolor="#ea985d"] ;
308 -> 316 ;
317 [label="gini = 0.0\nsamples = 3\nvalue = [7, 0]\nclass = SAS", fillcolor="#e58139"] ;
316 -> 317 ;
318 [label="Fst 0.3-0.35; MSE 0.0-0.1 <= 2.5\ngini = 0.44\nsamples = 5\nvalue = [4, 2]\nclass = SAS", fillcolor="#f2c09c"] ;
316 -> 318 ;
319 [label="gini = 0.0\nsamples = 4\nvalue = [4, 0]\nclass = SAS", fillcolor="#e58139"] ;
318 -> 319 ;
320 [label="gini = 0.0\nsamples = 1\nvalue = [0, 2]\nclass = Neutral", fillcolor="#399de5"] ;
318 -> 320 ;
321 [label="Fst 0.05-0.1; MSE 0.0-0.1 <= 2.0\ngini = 0.48\nsamples = 3\nvalue = [2, 3]\nclass = Neutral", fillcolor="#bddef6"] ;
307 -> 321 ;
322 [label="Fst 0.3-0.35; MSE 0.0-0.1 <= 0.5\ngini = 0.44\nsamples = 2\nvalue = [2, 1]\nclass = SAS", fillcolor="#f2c09c"] ;
321 -> 322 ;
323 [label="gini = 0.0\nsamples = 1\nvalue = [2, 0]\nclass = SAS", fillcolor="#e58139"] ;
322 -> 323 ;
324 [label="gini = 0.0\nsamples = 1\nvalue = [0, 1]\nclass = Neutral", fillcolor="#399de5"] ;
322 -> 324 ;
325 [label="gini = 0.0\nsamples = 1\nvalue = [0, 2]\nclass = Neutral", fillcolor="#399de5"] ;
321 -> 325 ;
326 [label="gini = 0.0\nsamples = 1\nvalue = [0, 2]\nclass = Neutral", fillcolor="#399de5"] ;
306 -> 326 ;
327 [label="gini = 0.0\nsamples = 1\nvalue = [1, 0]\nclass = SAS", fillcolor="#e58139"] ;
305 -> 327 ;
328 [label="gini = 0.0\nsamples = 2\nvalue = [0, 2]\nclass = Neutral", fillcolor="#399de5"] ;
272 -> 328 ;
329 [label="gini = 0.0\nsamples = 3\nvalue = [3, 0]\nclass = SAS", fillcolor="#e58139"] ;
271 -> 329 ;
330 [label="Fst 0.3-0.35; MSE 0.1-0.2 <= 6.5\ngini = 0.48\nsamples = 17\nvalue = [16, 11]\nclass = SAS", fillcolor="#f7d8c1"] ;
164 -> 330 ;
331 [label="Fst 0.15-0.2; MSE 0.0-0.1 <= 53.5\ngini = 0.44\nsamples = 13\nvalue = [14, 7]\nclass = SAS", fillcolor="#f2c09c"] ;
330 -> 331 ;
332 [label="Fst 0.5-0.55; MSE 0.2-0.3 <= 1.5\ngini = 0.49\nsamples = 9\nvalue = [9, 7]\nclass = SAS", fillcolor="#f9e3d3"] ;
331 -> 332 ;
333 [label="Fst 0.35-0.4; MSE 0.1-0.2 <= 4.5\ngini = 0.28\nsamples = 5\nvalue = [1, 5]\nclass = Neutral", fillcolor="#61b1ea"] ;
332 -> 333 ;
334 [label="gini = 0.0\nsamples = 1\nvalue = [1, 0]\nclass = SAS", fillcolor="#e58139"] ;
333 -> 334 ;
335 [label="gini = 0.0\nsamples = 4\nvalue = [0, 5]\nclass = Neutral", fillcolor="#399de5"] ;
333 -> 335 ;
336 [label="Fst 0.65-0.7; MSE 0.4-3.6 <= 0.5\ngini = 0.32\nsamples = 4\nvalue = [8, 2]\nclass = SAS", fillcolor="#eca06a"] ;
332 -> 336 ;
337 [label="gini = 0.0\nsamples = 3\nvalue = [8, 0]\nclass = SAS", fillcolor="#e58139"] ;
336 -> 337 ;
338 [label="gini = 0.0\nsamples = 1\nvalue = [0, 2]\nclass = Neutral", fillcolor="#399de5"] ;
336 -> 338 ;
339 [label="gini = 0.0\nsamples = 4\nvalue = [5, 0]\nclass = SAS", fillcolor="#e58139"] ;
331 -> 339 ;
340 [label="Fst 0.15-0.2; MSE 0.0-0.1 <= 50.0\ngini = 0.44\nsamples = 4\nvalue = [2, 4]\nclass = Neutral", fillcolor="#9ccef2"] ;
330 -> 340 ;
341 [label="gini = 0.0\nsamples = 3\nvalue = [0, 4]\nclass = Neutral", fillcolor="#399de5"] ;
340 -> 341 ;
342 [label="gini = 0.0\nsamples = 1\nvalue = [2, 0]\nclass = SAS", fillcolor="#e58139"] ;
340 -> 342 ;
343 [label="Fst 0.55-0.6; MSE 0.4-3.6 <= 0.5\ngini = 0.26\nsamples = 18\nvalue = [5, 27]\nclass = Neutral", fillcolor="#5eafea"] ;
163 -> 343 ;
344 [label="Fst 0.25-0.3; MSE 0.1-0.2 <= 2.5\ngini = 0.29\nsamples = 15\nvalue = [5, 23]\nclass = Neutral", fillcolor="#64b2eb"] ;
343 -> 344 ;
345 [label="Fst 0.45-0.5; MSE 0.4-3.6 <= 0.5\ngini = 0.5\nsamples = 4\nvalue = [4, 4]\nclass = SAS", fillcolor="#ffffff"] ;
344 -> 345 ;
346 [label="Fst 0.35-0.4; MSE 0.1-0.2 <= 4.0\ngini = 0.44\nsamples = 3\nvalue = [4, 2]\nclass = SAS", fillcolor="#f2c09c"] ;
345 -> 346 ;
347 [label="gini = 0.0\nsamples = 1\nvalue = [0, 2]\nclass = Neutral", fillcolor="#399de5"] ;
346 -> 347 ;
348 [label="gini = 0.0\nsamples = 2\nvalue = [4, 0]\nclass = SAS", fillcolor="#e58139"] ;
346 -> 348 ;
349 [label="gini = 0.0\nsamples = 1\nvalue = [0, 2]\nclass = Neutral", fillcolor="#399de5"] ;
345 -> 349 ;
350 [label="Fst 0.25-0.3; MSE 0.0-0.1 <= 3.0\ngini = 0.09\nsamples = 11\nvalue = [1, 19]\nclass = Neutral", fillcolor="#43a2e6"] ;
344 -> 350 ;
351 [label="Fst 0.4-0.45; MSE 0.1-0.2 <= 0.5\ngini = 0.32\nsamples = 4\nvalue = [1, 4]\nclass = Neutral", fillcolor="#6ab6ec"] ;
350 -> 351 ;
352 [label="gini = 0.0\nsamples = 3\nvalue = [0, 4]\nclass = Neutral", fillcolor="#399de5"] ;
351 -> 352 ;
353 [label="gini = 0.0\nsamples = 1\nvalue = [1, 0]\nclass = SAS", fillcolor="#e58139"] ;
351 -> 353 ;
354 [label="gini = 0.0\nsamples = 7\nvalue = [0, 15]\nclass = Neutral", fillcolor="#399de5"] ;
350 -> 354 ;
355 [label="gini = 0.0\nsamples = 3\nvalue = [0, 4]\nclass = Neutral", fillcolor="#399de5"] ;
343 -> 355 ;
356 [label="gini = 0.0\nsamples = 2\nvalue = [0, 3]\nclass = Neutral", fillcolor="#399de5"] ;
162 -> 356 ;
357 [label="Fst 0.15-0.2; MSE 0.0-0.1 <= 60.5\ngini = 0.5\nsamples = 39\nvalue = [29, 26]\nclass = SAS", fillcolor="#fcf2eb"] ;
161 -> 357 ;
358 [label="Fst 0.75-0.8; MSE 0.4-3.6 <= 0.5\ngini = 0.48\nsamples = 32\nvalue = [27, 19]\nclass = SAS", fillcolor="#f7dac4"] ;
357 -> 358 ;
359 [label="Fst 0.45-0.5; MSE 0.3-0.4 <= 3.5\ngini = 0.47\nsamples = 30\nvalue = [27, 17]\nclass = SAS", fillcolor="#f5d0b6"] ;
358 -> 359 ;
360 [label="Fst 0.35-0.4; MSE 0.1-0.2 <= 3.5\ngini = 0.47\nsamples = 29\nvalue = [27, 16]\nclass = SAS", fillcolor="#f4ccae"] ;
359 -> 360 ;
361 [label="Fst 0.65-0.7; MSE 0.4-3.6 <= 1.5\ngini = 0.5\nsamples = 19\nvalue = [12, 14]\nclass = Neutral", fillcolor="#e3f1fb"] ;
360 -> 361 ;
362 [label="Fst 0.05-0.1; MSE 0.0-0.1 <= 5.5\ngini = 0.48\nsamples = 18\nvalue = [9, 14]\nclass = Neutral", fillcolor="#b8dcf6"] ;
361 -> 362 ;
363 [label="Fst 0.35-0.4; MSE 0.2-0.3 <= 0.5\ngini = 0.3\nsamples = 7\nvalue = [2, 9]\nclass = Neutral", fillcolor="#65b3eb"] ;
362 -> 363 ;
364 [label="Fst 0.15-0.2; MSE 0.0-0.1 <= 39.5\ngini = 0.38\nsamples = 5\nvalue = [2, 6]\nclass = Neutral", fillcolor="#7bbeee"] ;
363 -> 364 ;
365 [label="gini = 0.0\nsamples = 2\nvalue = [0, 4]\nclass = Neutral", fillcolor="#399de5"] ;
364 -> 365 ;
366 [label="Fst 0.1-0.15; MSE 0.0-0.1 <= 57.5\ngini = 0.5\nsamples = 3\nvalue = [2, 2]\nclass = SAS", fillcolor="#ffffff"] ;
364 -> 366 ;
367 [label="gini = 0.0\nsamples = 1\nvalue = [0, 2]\nclass = Neutral", fillcolor="#399de5"] ;
366 -> 367 ;
368 [label="gini = 0.0\nsamples = 2\nvalue = [2, 0]\nclass = SAS", fillcolor="#e58139"] ;
366 -> 368 ;
369 [label="gini = 0.0\nsamples = 2\nvalue = [0, 3]\nclass = Neutral", fillcolor="#399de5"] ;
363 -> 369 ;
370 [label="Fst 0.35-0.4; MSE 0.1-0.2 <= 1.5\ngini = 0.49\nsamples = 11\nvalue = [7, 5]\nclass = SAS", fillcolor="#f8dbc6"] ;
362 -> 370 ;
371 [label="Fst 0.2-0.25; MSE 0.0-0.1 <= 33.5\ngini = 0.48\nsamples = 5\nvalue = [2, 3]\nclass = Neutral", fillcolor="#bddef6"] ;
370 -> 371 ;
372 [label="Fst 0.4-0.45; MSE 0.1-0.2 <= 1.5\ngini = 0.44\nsamples = 3\nvalue = [2, 1]\nclass = SAS", fillcolor="#f2c09c"] ;
371 -> 372 ;
373 [label="gini = 0.0\nsamples = 1\nvalue = [1, 0]\nclass = SAS", fillcolor="#e58139"] ;
372 -> 373 ;
374 [label="Fst 0.45-0.5; MSE 0.2-0.3 <= 2.5\ngini = 0.5\nsamples = 2\nvalue = [1, 1]\nclass = SAS", fillcolor="#ffffff"] ;
372 -> 374 ;
375 [label="gini = 0.0\nsamples = 1\nvalue = [0, 1]\nclass = Neutral", fillcolor="#399de5"] ;
374 -> 375 ;
376 [label="gini = 0.0\nsamples = 1\nvalue = [1, 0]\nclass = SAS", fillcolor="#e58139"] ;
374 -> 376 ;
377 [label="gini = 0.0\nsamples = 2\nvalue = [0, 2]\nclass = Neutral", fillcolor="#399de5"] ;
371 -> 377 ;
378 [label="Fst 0.15-0.2; MSE 0.0-0.1 <= 48.0\ngini = 0.41\nsamples = 6\nvalue = [5, 2]\nclass = SAS", fillcolor="#efb388"] ;
370 -> 378 ;
379 [label="Fst 0.35-0.4; MSE 0.1-0.2 <= 2.5\ngini = 0.44\nsamples = 3\nvalue = [1, 2]\nclass = Neutral", fillcolor="#9ccef2"] ;
378 -> 379 ;
380 [label="Fst 0.35-0.4; MSE 0.0-0.1 <= 1.5\ngini = 0.5\nsamples = 2\nvalue = [1, 1]\nclass = SAS", fillcolor="#ffffff"] ;
379 -> 380 ;
381 [label="gini = 0.0\nsamples = 1\nvalue = [1, 0]\nclass = SAS", fillcolor="#e58139"] ;
380 -> 381 ;
382 [label="gini = 0.0\nsamples = 1\nvalue = [0, 1]\nclass = Neutral", fillcolor="#399de5"] ;
380 -> 382 ;
383 [label="gini = 0.0\nsamples = 1\nvalue = [0, 1]\nclass = Neutral", fillcolor="#399de5"] ;
379 -> 383 ;
384 [label="gini = 0.0\nsamples = 3\nvalue = [4, 0]\nclass = SAS", fillcolor="#e58139"] ;
378 -> 384 ;
385 [label="gini = 0.0\nsamples = 1\nvalue = [3, 0]\nclass = SAS", fillcolor="#e58139"] ;
361 -> 385 ;
386 [label="Fst 0.6-0.65; MSE 0.4-3.6 <= 8.5\ngini = 0.21\nsamples = 10\nvalue = [15, 2]\nclass = SAS", fillcolor="#e89253"] ;
360 -> 386 ;
387 [label="Fst 0.45-0.5; MSE 0.1-0.2 <= 0.5\ngini = 0.12\nsamples = 9\nvalue = [15, 1]\nclass = SAS", fillcolor="#e78946"] ;
386 -> 387 ;
388 [label="gini = 0.0\nsamples = 8\nvalue = [15, 0]\nclass = SAS", fillcolor="#e58139"] ;
387 -> 388 ;
389 [label="gini = 0.0\nsamples = 1\nvalue = [0, 1]\nclass = Neutral", fillcolor="#399de5"] ;
387 -> 389 ;
390 [label="gini = 0.0\nsamples = 1\nvalue = [0, 1]\nclass = Neutral", fillcolor="#399de5"] ;
386 -> 390 ;
391 [label="gini = 0.0\nsamples = 1\nvalue = [0, 1]\nclass = Neutral", fillcolor="#399de5"] ;
359 -> 391 ;
392 [label="gini = 0.0\nsamples = 2\nvalue = [0, 2]\nclass = Neutral", fillcolor="#399de5"] ;
358 -> 392 ;
393 [label="Fst 0.4-0.45; MSE 0.3-0.4 <= 1.0\ngini = 0.35\nsamples = 7\nvalue = [2, 7]\nclass = Neutral", fillcolor="#72b9ec"] ;
357 -> 393 ;
394 [label="Fst 0.5-0.55; MSE 0.1-0.2 <= 0.5\ngini = 0.22\nsamples = 6\nvalue = [1, 7]\nclass = Neutral", fillcolor="#55abe9"] ;
393 -> 394 ;
395 [label="gini = 0.0\nsamples = 5\nvalue = [0, 7]\nclass = Neutral", fillcolor="#399de5"] ;
394 -> 395 ;
396 [label="gini = 0.0\nsamples = 1\nvalue = [1, 0]\nclass = SAS", fillcolor="#e58139"] ;
394 -> 396 ;
397 [label="gini = 0.0\nsamples = 1\nvalue = [1, 0]\nclass = SAS", fillcolor="#e58139"] ;
393 -> 397 ;
398 [label="Fst 0.7-0.75; MSE 0.4-3.6 <= 1.0\ngini = 0.39\nsamples = 12\nvalue = [14, 5]\nclass = SAS", fillcolor="#eeae80"] ;
160 -> 398 ;
399 [label="Fst 0.6-0.65; MSE 0.3-0.4 <= 1.0\ngini = 0.22\nsamples = 11\nvalue = [14, 2]\nclass = SAS", fillcolor="#e99355"] ;
398 -> 399 ;
400 [label="Fst 0.2-0.25; MSE 0.1-0.2 <= 0.5\ngini = 0.28\nsamples = 9\nvalue = [10, 2]\nclass = SAS", fillcolor="#ea9a61"] ;
399 -> 400 ;
401 [label="gini = 0.0\nsamples = 8\nvalue = [10, 0]\nclass = SAS", fillcolor="#e58139"] ;
400 -> 401 ;
402 [label="gini = 0.0\nsamples = 1\nvalue = [0, 2]\nclass = Neutral", fillcolor="#399de5"] ;
400 -> 402 ;
403 [label="gini = 0.0\nsamples = 2\nvalue = [4, 0]\nclass = SAS", fillcolor="#e58139"] ;
399 -> 403 ;
404 [label="gini = 0.0\nsamples = 1\nvalue = [0, 3]\nclass = Neutral", fillcolor="#399de5"] ;
398 -> 404 ;
405 [label="Fst 0.4-0.45; MSE 0.1-0.2 <= 1.5\ngini = 0.45\nsamples = 12\nvalue = [15, 8]\nclass = SAS", fillcolor="#f3c4a3"] ;
159 -> 405 ;
406 [label="Fst 0.7-0.75; MSE 0.4-3.6 <= 2.5\ngini = 0.5\nsamples = 10\nvalue = [9, 8]\nclass = SAS", fillcolor="#fcf1e9"] ;
405 -> 406 ;
407 [label="Fst 0.45-0.5; MSE 0.2-0.3 <= 1.5\ngini = 0.49\nsamples = 7\nvalue = [6, 8]\nclass = Neutral", fillcolor="#cee6f8"] ;
406 -> 407 ;
408 [label="Fst 0.15-0.2; MSE 0.0-0.1 <= 24.5\ngini = 0.4\nsamples = 6\nvalue = [3, 8]\nclass = Neutral", fillcolor="#83c2ef"] ;
407 -> 408 ;
409 [label="gini = 0.0\nsamples = 1\nvalue = [2, 0]\nclass = SAS", fillcolor="#e58139"] ;
408 -> 409 ;
410 [label="Fst 0.1-0.15; MSE 0.0-0.1 <= 31.5\ngini = 0.2\nsamples = 5\nvalue = [1, 8]\nclass = Neutral", fillcolor="#52a9e8"] ;
408 -> 410 ;
411 [label="gini = 0.0\nsamples = 2\nvalue = [0, 5]\nclass = Neutral", fillcolor="#399de5"] ;
410 -> 411 ;
412 [label="Fst 0.35-0.4; MSE 0.2-0.3 <= 0.5\ngini = 0.38\nsamples = 3\nvalue = [1, 3]\nclass = Neutral", fillcolor="#7bbeee"] ;
410 -> 412 ;
413 [label="gini = 0.0\nsamples = 1\nvalue = [0, 2]\nclass = Neutral", fillcolor="#399de5"] ;
412 -> 413 ;
414 [label="Fst 0.55-0.6; MSE 0.4-3.6 <= 1.5\ngini = 0.5\nsamples = 2\nvalue = [1, 1]\nclass = SAS", fillcolor="#ffffff"] ;
412 -> 414 ;
415 [label="gini = 0.0\nsamples = 1\nvalue = [1, 0]\nclass = SAS", fillcolor="#e58139"] ;
414 -> 415 ;
416 [label="gini = 0.0\nsamples = 1\nvalue = [0, 1]\nclass = Neutral", fillcolor="#399de5"] ;
414 -> 416 ;
417 [label="gini = 0.0\nsamples = 1\nvalue = [3, 0]\nclass = SAS", fillcolor="#e58139"] ;
407 -> 417 ;
418 [label="gini = 0.0\nsamples = 3\nvalue = [3, 0]\nclass = SAS", fillcolor="#e58139"] ;
406 -> 418 ;
419 [label="gini = 0.0\nsamples = 2\nvalue = [6, 0]\nclass = SAS", fillcolor="#e58139"] ;
405 -> 419 ;
420 [label="Fst 0.5-0.55; MSE 0.2-0.3 <= 3.5\ngini = 0.1\nsamples = 10\nvalue = [1, 17]\nclass = Neutral", fillcolor="#45a3e7"] ;
158 -> 420 ;
421 [label="gini = 0.0\nsamples = 7\nvalue = [0, 14]\nclass = Neutral", fillcolor="#399de5"] ;
420 -> 421 ;
422 [label="Fst 0.65-0.7; MSE 0.4-3.6 <= 2.5\ngini = 0.38\nsamples = 3\nvalue = [1, 3]\nclass = Neutral", fillcolor="#7bbeee"] ;
420 -> 422 ;
423 [label="gini = 0.0\nsamples = 2\nvalue = [0, 3]\nclass = Neutral", fillcolor="#399de5"] ;
422 -> 423 ;
424 [label="gini = 0.0\nsamples = 1\nvalue = [1, 0]\nclass = SAS", fillcolor="#e58139"] ;
422 -> 424 ;
425 [label="Fst 0.4-0.45; MSE 0.4-3.6 <= 4.5\ngini = 0.5\nsamples = 1527\nvalue = [1219, 1186]\nclass = SAS", fillcolor="#fefcfa"] ;
17 -> 425 ;
426 [label="Fst 0.45-0.5; MSE 0.1-0.2 <= 1.5\ngini = 0.5\nsamples = 1521\nvalue = [1219, 1174]\nclass = SAS", fillcolor="#fefaf8"] ;
425 -> 426 ;
427 [label="Fst 0.2-0.25; MSE 0.1-0.2 <= 0.5\ngini = 0.5\nsamples = 1500\nvalue = [1194, 1163]\nclass = SAS", fillcolor="#fefcfa"] ;
426 -> 427 ;
428 [label="Fst 0.35-0.4; MSE 0.1-0.2 <= 29.5\ngini = 0.5\nsamples = 1300\nvalue = [1010, 1050]\nclass = Neutral", fillcolor="#f7fbfe"] ;
427 -> 428 ;
429 [label="Fst 0.4-0.45; MSE 0.1-0.2 <= 59.0\ngini = 0.5\nsamples = 1257\nvalue = [964, 1025]\nclass = Neutral", fillcolor="#f3f9fd"] ;
428 -> 429 ;
430 [label="Fst 0.4-0.45; MSE 0.4-3.6 <= 3.5\ngini = 0.5\nsamples = 1253\nvalue = [964, 1020]\nclass = Neutral", fillcolor="#f4fafe"] ;
429 -> 430 ;
431 [label="Fst 0.65-0.7; MSE 0.4-3.6 <= 4.5\ngini = 0.5\nsamples = 1251\nvalue = [961, 1020]\nclass = Neutral", fillcolor="#f4f9fd"] ;
430 -> 431 ;
432 [label="Fst 0.15-0.2; MSE 0.1-0.2 <= 0.5\ngini = 0.5\nsamples = 1219\nvalue = [943, 975]\nclass = Neutral", fillcolor="#f9fcfe"] ;
431 -> 432 ;
433 [label="Fst 0.15-0.2; MSE 0.0-0.1 <= 4.5\ngini = 0.5\nsamples = 1218\nvalue = [942, 975]\nclass = Neutral", fillcolor="#f8fcfe"] ;
432 -> 433 ;
434 [label="Fst 0.65-0.7; MSE 0.3-0.4 <= 0.5\ngini = 0.26\nsamples = 13\nvalue = [3, 17]\nclass = Neutral", fillcolor="#5caeea"] ;
433 -> 434 ;
435 [label="Fst 0.4-0.45; MSE 0.1-0.2 <= 17.5\ngini = 0.27\nsamples = 12\nvalue = [3, 16]\nclass = Neutral", fillcolor="#5eafea"] ;
434 -> 435 ;
436 [label="Fst 0.3-0.35; MSE 0.0-0.1 <= 0.5\ngini = 0.12\nsamples = 10\nvalue = [1, 15]\nclass = Neutral", fillcolor="#46a4e7"] ;
435 -> 436 ;
437 [label="Fst 0.1-0.15; MSE 0.0-0.1 <= 1.5\ngini = 0.44\nsamples = 3\nvalue = [1, 2]\nclass = Neutral", fillcolor="#9ccef2"] ;
436 -> 437 ;
438 [label="gini = 0.0\nsamples = 1\nvalue = [1, 0]\nclass = SAS", fillcolor="#e58139"] ;
437 -> 438 ;
439 [label="gini = 0.0\nsamples = 2\nvalue = [0, 2]\nclass = Neutral", fillcolor="#399de5"] ;
437 -> 439 ;
440 [label="gini = 0.0\nsamples = 7\nvalue = [0, 13]\nclass = Neutral", fillcolor="#399de5"] ;
436 -> 440 ;
441 [label="Fst 0.5-0.55; MSE 0.1-0.2 <= 0.5\ngini = 0.44\nsamples = 2\nvalue = [2, 1]\nclass = SAS", fillcolor="#f2c09c"] ;
435 -> 441 ;
442 [label="gini = 0.0\nsamples = 1\nvalue = [0, 1]\nclass = Neutral", fillcolor="#399de5"] ;
441 -> 442 ;
443 [label="gini = 0.0\nsamples = 1\nvalue = [2, 0]\nclass = SAS", fillcolor="#e58139"] ;
441 -> 443 ;
444 [label="gini = 0.0\nsamples = 1\nvalue = [0, 1]\nclass = Neutral", fillcolor="#399de5"] ;
434 -> 444 ;
445 [label="Fst 0.5-0.55; MSE 0.3-0.4 <= 0.5\ngini = 0.5\nsamples = 1205\nvalue = [939, 958]\nclass = Neutral", fillcolor="#fbfdfe"] ;
433 -> 445 ;
446 [label="Fst 0.4-0.45; MSE 0.1-0.2 <= 39.5\ngini = 0.5\nsamples = 756\nvalue = [632, 566]\nclass = SAS", fillcolor="#fcf2ea"] ;
445 -> 446 ;
447 [label="Fst 0.6-0.65; MSE 0.4-3.6 <= 2.5\ngini = 0.5\nsamples = 754\nvalue = [628, 566]\nclass = SAS", fillcolor="#fcf3eb"] ;
446 -> 447 ;
448 [label="Fst 0.15-0.2; MSE 0.0-0.1 <= 12.5\ngini = 0.5\nsamples = 589\nvalue = [478, 468]\nclass = SAS", fillcolor="#fefcfb"] ;
447 -> 448 ;
449 [label="Fst 0.45-0.5; MSE 0.3-0.4 <= 0.5\ngini = 0.36\nsamples = 22\nvalue = [26, 8]\nclass = SAS", fillcolor="#eda876"] ;
448 -> 449 ;
450 [label="Fst 0.35-0.4; MSE 0.0-0.1 <= 0.5\ngini = 0.5\nsamples = 9\nvalue = [6, 6]\nclass = SAS", fillcolor="#ffffff"] ;
449 -> 450 ;
451 [label="Fst 0.4-0.45; MSE 0.3-0.4 <= 0.5\ngini = 0.28\nsamples = 5\nvalue = [5, 1]\nclass = SAS", fillcolor="#ea9a61"] ;
450 -> 451 ;
452 [label="Fst 0.05-0.1; MSE 0.0-0.1 <= 0.5\ngini = 0.32\nsamples = 4\nvalue = [4, 1]\nclass = SAS", fillcolor="#eca06a"] ;
451 -> 452 ;
453 [label="gini = 0.0\nsamples = 1\nvalue = [0, 1]\nclass = Neutral", fillcolor="#399de5"] ;
452 -> 453 ;
454 [label="gini = 0.0\nsamples = 3\nvalue = [4, 0]\nclass = SAS", fillcolor="#e58139"] ;
452 -> 454 ;
455 [label="gini = 0.0\nsamples = 1\nvalue = [1, 0]\nclass = SAS", fillcolor="#e58139"] ;
451 -> 455 ;
456 [label="Fst 0.6-0.65; MSE 0.4-3.6 <= 0.5\ngini = 0.28\nsamples = 4\nvalue = [1, 5]\nclass = Neutral", fillcolor="#61b1ea"] ;
450 -> 456 ;
457 [label="gini = 0.0\nsamples = 3\nvalue = [0, 5]\nclass = Neutral", fillcolor="#399de5"] ;
456 -> 457 ;
458 [label="gini = 0.0\nsamples = 1\nvalue = [1, 0]\nclass = SAS", fillcolor="#e58139"] ;
456 -> 458 ;
459 [label="Fst 0.2-0.25; MSE 0.0-0.1 <= 60.5\ngini = 0.17\nsamples = 13\nvalue = [20, 2]\nclass = SAS", fillcolor="#e88e4d"] ;
449 -> 459 ;
460 [label="gini = 0.0\nsamples = 7\nvalue = [14, 0]\nclass = SAS", fillcolor="#e58139"] ;
459 -> 460 ;
461 [label="Fst 0.35-0.4; MSE 0.2-0.3 <= 3.5\ngini = 0.38\nsamples = 6\nvalue = [6, 2]\nclass = SAS", fillcolor="#eeab7b"] ;
459 -> 461 ;
462 [label="Fst 0.4-0.45; MSE 0.2-0.3 <= 3.5\ngini = 0.24\nsamples = 5\nvalue = [6, 1]\nclass = SAS", fillcolor="#e9965a"] ;
461 -> 462 ;
463 [label="Fst 0.15-0.2; MSE 0.0-0.1 <= 9.0\ngini = 0.44\nsamples = 2\nvalue = [2, 1]\nclass = SAS", fillcolor="#f2c09c"] ;
462 -> 463 ;
464 [label="gini = 0.0\nsamples = 1\nvalue = [0, 1]\nclass = Neutral", fillcolor="#399de5"] ;
463 -> 464 ;
465 [label="gini = 0.0\nsamples = 1\nvalue = [2, 0]\nclass = SAS", fillcolor="#e58139"] ;
463 -> 465 ;
466 [label="gini = 0.0\nsamples = 3\nvalue = [4, 0]\nclass = SAS", fillcolor="#e58139"] ;
462 -> 466 ;
467 [label="gini = 0.0\nsamples = 1\nvalue = [0, 1]\nclass = Neutral", fillcolor="#399de5"] ;
461 -> 467 ;
468 [label="Fst 0.4-0.45; MSE 0.4-3.6 <= 1.5\ngini = 0.5\nsamples = 567\nvalue = [452, 460]\nclass = Neutral", fillcolor="#fcfdff"] ;
448 -> 468 ;
469 [label="Fst 0.7-0.75; MSE 0.4-3.6 <= 5.5\ngini = 0.5\nsamples = 559\nvalue = [450, 450]\nclass = SAS", fillcolor="#ffffff"] ;
468 -> 469 ;
470 [label="Fst 0.35-0.4; MSE 0.1-0.2 <= 5.5\ngini = 0.5\nsamples = 549\nvalue = [438, 449]\nclass = Neutral", fillcolor="#fafdfe"] ;
469 -> 470 ;
471 [label="Fst 0.2-0.25; MSE 0.0-0.1 <= 43.5\ngini = 0.5\nsamples = 387\nvalue = [334, 295]\nclass = SAS", fillcolor="#fcf0e8"] ;
470 -> 471 ;
472 [label="Fst 0.25-0.3; MSE 0.0-0.1 <= 0.5\ngini = 0.49\nsamples = 301\nvalue = [279, 219]\nclass = SAS", fillcolor="#f9e4d4"] ;
471 -> 472 ;
473 [label="gini = 0.0\nsamples = 4\nvalue = [0, 8]\nclass = Neutral", fillcolor="#399de5"] ;
472 -> 473 ;
474 [label="Fst 0.35-0.4; MSE 0.3-0.4 <= 0.5\ngini = 0.49\nsamples = 297\nvalue = [279, 211]\nclass = SAS", fillcolor="#f9e0cf"] ;
472 -> 474 ;
475 [label="Fst 0.45-0.5; MSE 0.2-0.3 <= 6.5\ngini = 0.49\nsamples = 292\nvalue = [271, 210]\nclass = SAS", fillcolor="#f9e3d2"] ;
474 -> 475 ;
476 [label="Fst 0.45-0.5; MSE 0.3-0.4 <= 4.5\ngini = 0.49\nsamples = 287\nvalue = [271, 203]\nclass = SAS", fillcolor="#f8dfcd"] ;
475 -> 476 ;
477 [label="Fst 0.2-0.25; MSE 0.0-0.1 <= 32.5\ngini = 0.49\nsamples = 269\nvalue = [244, 197]\nclass = SAS", fillcolor="#fae7d9"] ;
476 -> 477 ;
478 [label="Fst 0.55-0.6; MSE 0.3-0.4 <= 0.5\ngini = 0.49\nsamples = 189\nvalue = [180, 129]\nclass = SAS", fillcolor="#f8dbc7"] ;
477 -> 478 ;
479 [label="Fst 0.65-0.7; MSE 0.4-3.6 <= 3.5\ngini = 0.48\nsamples = 168\nvalue = [163, 109]\nclass = SAS", fillcolor="#f6d5bd"] ;
478 -> 479 ;
480 [label="Fst 0.3-0.35; MSE 0.0-0.1 <= 1.5\ngini = 0.48\nsamples = 164\nvalue = [162, 106]\nclass = SAS", fillcolor="#f6d3bb"] ;
479 -> 480 ;
481 [label="Fst 0.25-0.3; MSE 0.0-0.1 <= 25.5\ngini = 0.5\nsamples = 99\nvalue = [82, 76]\nclass = SAS", fillcolor="#fdf6f1"] ;
480 -> 481 ;
482 [label="Fst 0.4-0.45; MSE 0.2-0.3 <= 1.5\ngini = 0.5\nsamples = 93\nvalue = [71, 76]\nclass = Neutral", fillcolor="#f2f9fd"] ;
481 -> 482 ;
483 [label="Fst 0.2-0.25; MSE 0.0-0.1 <= 14.5\ngini = 0.38\nsamples = 22\nvalue = [27, 9]\nclass = SAS", fillcolor="#eeab7b"] ;
482 -> 483 ;
484 [label="gini = 0.0\nsamples = 2\nvalue = [0, 3]\nclass = Neutral", fillcolor="#399de5"] ;
483 -> 484 ;
485 [label="Fst 0.6-0.65; MSE 0.4-3.6 <= 0.5\ngini = 0.3\nsamples = 20\nvalue = [27, 6]\nclass = SAS", fillcolor="#eb9d65"] ;
483 -> 485 ;
486 [label="Fst 0.35-0.4; MSE 0.0-0.1 <= 1.0\ngini = 0.34\nsamples = 17\nvalue = [22, 6]\nclass = SAS", fillcolor="#eca36f"] ;
485 -> 486 ;
487 [label="Fst 0.25-0.3; MSE 0.1-0.2 <= 5.0\ngini = 0.31\nsamples = 15\nvalue = [21, 5]\nclass = SAS", fillcolor="#eb9f68"] ;
486 -> 487 ;
488 [label="Fst 0.4-0.45; MSE 0.3-0.4 <= 3.0\ngini = 0.17\nsamples = 12\nvalue = [20, 2]\nclass = SAS", fillcolor="#e88e4d"] ;
487 -> 488 ;
489 [label="Fst 0.35-0.4; MSE 0.1-0.2 <= 2.5\ngini = 0.17\nsamples = 11\nvalue = [19, 2]\nclass = SAS", fillcolor="#e88e4e"] ;
488 -> 489 ;
490 [label="Fst 0.35-0.4; MSE 0.1-0.2 <= 1.5\ngini = 0.35\nsamples = 6\nvalue = [7, 2]\nclass = SAS", fillcolor="#eca572"] ;
489 -> 490 ;
491 [label="Fst 0.1-0.15; MSE 0.0-0.1 <= 54.5\ngini = 0.22\nsamples = 5\nvalue = [7, 1]\nclass = SAS", fillcolor="#e99355"] ;
490 -> 491 ;
492 [label="gini = 0.0\nsamples = 4\nvalue = [7, 0]\nclass = SAS", fillcolor="#e58139"] ;
491 -> 492 ;
493 [label="gini = 0.0\nsamples = 1\nvalue = [0, 1]\nclass = Neutral", fillcolor="#399de5"] ;
491 -> 493 ;
494 [label="gini = 0.0\nsamples = 1\nvalue = [0, 1]\nclass = Neutral", fillcolor="#399de5"] ;
490 -> 494 ;
495 [label="gini = 0.0\nsamples = 5\nvalue = [12, 0]\nclass = SAS", fillcolor="#e58139"] ;
489 -> 495 ;
496 [label="gini = 0.0\nsamples = 1\nvalue = [1, 0]\nclass = SAS", fillcolor="#e58139"] ;
488 -> 496 ;
497 [label="Fst 0.2-0.25; MSE 0.0-0.1 <= 23.0\ngini = 0.38\nsamples = 3\nvalue = [1, 3]\nclass = Neutral", fillcolor="#7bbeee"] ;
487 -> 497 ;
498 [label="gini = 0.0\nsamples = 2\nvalue = [0, 3]\nclass = Neutral", fillcolor="#399de5"] ;
497 -> 498 ;
499 [label="gini = 0.0\nsamples = 1\nvalue = [1, 0]\nclass = SAS", fillcolor="#e58139"] ;
497 -> 499 ;
500 [label="Fst 0.2-0.25; MSE 0.0-0.1 <= 28.0\ngini = 0.5\nsamples = 2\nvalue = [1, 1]\nclass = SAS", fillcolor="#ffffff"] ;
486 -> 500 ;
501 [label="gini = 0.0\nsamples = 1\nvalue = [1, 0]\nclass = SAS", fillcolor="#e58139"] ;
500 -> 501 ;
502 [label="gini = 0.0\nsamples = 1\nvalue = [0, 1]\nclass = Neutral", fillcolor="#399de5"] ;
500 -> 502 ;
503 [label="gini = 0.0\nsamples = 3\nvalue = [5, 0]\nclass = SAS", fillcolor="#e58139"] ;
485 -> 503 ;
504 [label="Fst 0.05-0.1; MSE 0.0-0.1 <= 0.5\ngini = 0.48\nsamples = 71\nvalue = [44, 67]\nclass = Neutral", fillcolor="#bbddf6"] ;
482 -> 504 ;
505 [label="Fst 0.35-0.4; MSE 0.1-0.2 <= 2.5\ngini = 0.48\nsamples = 25\nvalue = [22, 15]\nclass = SAS", fillcolor="#f7d7c0"] ;
504 -> 505 ;
506 [label="Fst 0.35-0.4; MSE 0.2-0.3 <= 2.0\ngini = 0.39\nsamples = 18\nvalue = [19, 7]\nclass = SAS", fillcolor="#efaf82"] ;
505 -> 506 ;
507 [label="Fst 0.4-0.45; MSE 0.1-0.2 <= 0.5\ngini = 0.4\nsamples = 17\nvalue = [18, 7]\nclass = SAS", fillcolor="#efb286"] ;
506 -> 507 ;
508 [label="gini = 0.0\nsamples = 3\nvalue = [5, 0]\nclass = SAS", fillcolor="#e58139"] ;
507 -> 508 ;
509 [label="Fst 0.3-0.35; MSE 0.1-0.2 <= 4.5\ngini = 0.45\nsamples = 14\nvalue = [13, 7]\nclass = SAS", fillcolor="#f3c5a4"] ;
507 -> 509 ;
510 [label="Fst 0.35-0.4; MSE 0.1-0.2 <= 1.5\ngini = 0.22\nsamples = 5\nvalue = [7, 1]\nclass = SAS", fillcolor="#e99355"] ;
509 -> 510 ;
511 [label="gini = 0.0\nsamples = 3\nvalue = [6, 0]\nclass = SAS", fillcolor="#e58139"] ;
510 -> 511 ;
512 [label="Fst 0.15-0.2; MSE 0.0-0.1 <= 52.5\ngini = 0.5\nsamples = 2\nvalue = [1, 1]\nclass = SAS", fillcolor="#ffffff"] ;
510 -> 512 ;
513 [label="gini = 0.0\nsamples = 1\nvalue = [0, 1]\nclass = Neutral", fillcolor="#399de5"] ;
512 -> 513 ;
514 [label="gini = 0.0\nsamples = 1\nvalue = [1, 0]\nclass = SAS", fillcolor="#e58139"] ;
512 -> 514 ;
515 [label="Fst 0.25-0.3; MSE 0.0-0.1 <= 4.0\ngini = 0.5\nsamples = 9\nvalue = [6, 6]\nclass = SAS", fillcolor="#ffffff"] ;
509 -> 515 ;
516 [label="gini = 0.0\nsamples = 3\nvalue = [0, 4]\nclass = Neutral", fillcolor="#399de5"] ;
515 -> 516 ;
517 [label="Fst 0.25-0.3; MSE 0.0-0.1 <= 8.5\ngini = 0.38\nsamples = 6\nvalue = [6, 2]\nclass = SAS", fillcolor="#eeab7b"] ;
515 -> 517 ;
518 [label="gini = 0.0\nsamples = 3\nvalue = [5, 0]\nclass = SAS", fillcolor="#e58139"] ;
517 -> 518 ;
519 [label="Fst 0.1-0.15; MSE 0.0-0.1 <= 26.0\ngini = 0.44\nsamples = 3\nvalue = [1, 2]\nclass = Neutral", fillcolor="#9ccef2"] ;
517 -> 519 ;
520 [label="gini = 0.0\nsamples = 1\nvalue = [0, 1]\nclass = Neutral", fillcolor="#399de5"] ;
519 -> 520 ;
521 [label="Fst 0.45-0.5; MSE 0.4-3.6 <= 0.5\ngini = 0.5\nsamples = 2\nvalue = [1, 1]\nclass = SAS", fillcolor="#ffffff"] ;
519 -> 521 ;
522 [label="gini = 0.0\nsamples = 1\nvalue = [0, 1]\nclass = Neutral", fillcolor="#399de5"] ;
521 -> 522 ;
523 [label="gini = 0.0\nsamples = 1\nvalue = [1, 0]\nclass = SAS", fillcolor="#e58139"] ;
521 -> 523 ;
524 [label="gini = 0.0\nsamples = 1\nvalue = [1, 0]\nclass = SAS", fillcolor="#e58139"] ;
506 -> 524 ;
525 [label="Fst 0.3-0.35; MSE 0.0-0.1 <= 0.5\ngini = 0.4\nsamples = 7\nvalue = [3, 8]\nclass = Neutral", fillcolor="#83c2ef"] ;
505 -> 525 ;
526 [label="gini = 0.0\nsamples = 4\nvalue = [0, 7]\nclass = Neutral", fillcolor="#399de5"] ;
525 -> 526 ;
527 [label="Fst 0.25-0.3; MSE 0.0-0.1 <= 12.0\ngini = 0.38\nsamples = 3\nvalue = [3, 1]\nclass = SAS", fillcolor="#eeab7b"] ;
525 -> 527 ;
528 [label="gini = 0.0\nsamples = 2\nvalue = [3, 0]\nclass = SAS", fillcolor="#e58139"] ;
527 -> 528 ;
529 [label="gini = 0.0\nsamples = 1\nvalue = [0, 1]\nclass = Neutral", fillcolor="#399de5"] ;
527 -> 529 ;
530 [label="Fst 0.25-0.3; MSE 0.0-0.1 <= 19.5\ngini = 0.42\nsamples = 46\nvalue = [22, 52]\nclass = Neutral", fillcolor="#8dc6f0"] ;
504 -> 530 ;
531 [label="Fst 0.35-0.4; MSE 0.1-0.2 <= 0.5\ngini = 0.39\nsamples = 45\nvalue = [19, 52]\nclass = Neutral", fillcolor="#81c1ee"] ;
530 -> 531 ;
532 [label="Fst 0.25-0.3; MSE 0.0-0.1 <= 10.5\ngini = 0.46\nsamples = 23\nvalue = [12, 22]\nclass = Neutral", fillcolor="#a5d2f3"] ;
531 -> 532 ;
533 [label="Fst 0.5-0.55; MSE 0.4-3.6 <= 1.5\ngini = 0.49\nsamples = 20\nvalue = [12, 16]\nclass = Neutral", fillcolor="#cee6f8"] ;
532 -> 533 ;
534 [label="Fst 0.7-0.75; MSE 0.4-3.6 <= 2.5\ngini = 0.5\nsamples = 17\nvalue = [12, 11]\nclass = SAS", fillcolor="#fdf5ef"] ;
533 -> 534 ;
535 [label="Fst 0.75-0.8; MSE 0.4-3.6 <= 1.0\ngini = 0.5\nsamples = 16\nvalue = [12, 10]\nclass = SAS", fillcolor="#fbeade"] ;
534 -> 535 ;
536 [label="Fst 0.15-0.2; MSE 0.0-0.1 <= 73.5\ngini = 0.48\nsamples = 14\nvalue = [12, 8]\nclass = SAS", fillcolor="#f6d5bd"] ;
535 -> 536 ;
537 [label="Fst 0.4-0.45; MSE 0.1-0.2 <= 2.5\ngini = 0.42\nsamples = 11\nvalue = [12, 5]\nclass = SAS", fillcolor="#f0b58b"] ;
536 -> 537 ;
538 [label="Fst 0.15-0.2; MSE 0.0-0.1 <= 65.5\ngini = 0.36\nsamples = 8\nvalue = [10, 3]\nclass = SAS", fillcolor="#eda774"] ;
537 -> 538 ;
539 [label="Fst 0.5-0.55; MSE 0.4-3.6 <= 0.5\ngini = 0.47\nsamples = 5\nvalue = [5, 3]\nclass = SAS", fillcolor="#f5cdb0"] ;
538 -> 539 ;
540 [label="Fst 0.05-0.1; MSE 0.0-0.1 <= 10.0\ngini = 0.49\nsamples = 4\nvalue = [4, 3]\nclass = SAS", fillcolor="#f8e0ce"] ;
539 -> 540 ;
541 [label="Fst 0.4-0.45; MSE 0.1-0.2 <= 0.5\ngini = 0.32\nsamples = 3\nvalue = [4, 1]\nclass = SAS", fillcolor="#eca06a"] ;
540 -> 541 ;
542 [label="gini = 0.0\nsamples = 2\nvalue = [4, 0]\nclass = SAS", fillcolor="#e58139"] ;
541 -> 542 ;
543 [label="gini = 0.0\nsamples = 1\nvalue = [0, 1]\nclass = Neutral", fillcolor="#399de5"] ;
541 -> 543 ;
544 [label="gini = 0.0\nsamples = 1\nvalue = [0, 2]\nclass = Neutral", fillcolor="#399de5"] ;
540 -> 544 ;
545 [label="gini = 0.0\nsamples = 1\nvalue = [1, 0]\nclass = SAS", fillcolor="#e58139"] ;
539 -> 545 ;
546 [label="gini = 0.0\nsamples = 3\nvalue = [5, 0]\nclass = SAS", fillcolor="#e58139"] ;
538 -> 546 ;
547 [label="Fst 0.4-0.45; MSE 0.1-0.2 <= 4.0\ngini = 0.5\nsamples = 3\nvalue = [2, 2]\nclass = SAS", fillcolor="#ffffff"] ;
537 -> 547 ;
548 [label="gini = 0.0\nsamples = 1\nvalue = [0, 2]\nclass = Neutral", fillcolor="#399de5"] ;
547 -> 548 ;
549 [label="gini = 0.0\nsamples = 2\nvalue = [2, 0]\nclass = SAS", fillcolor="#e58139"] ;
547 -> 549 ;
550 [label="gini = 0.0\nsamples = 3\nvalue = [0, 3]\nclass = Neutral", fillcolor="#399de5"] ;
536 -> 550 ;
551 [label="gini = 0.0\nsamples = 2\nvalue = [0, 2]\nclass = Neutral", fillcolor="#399de5"] ;
535 -> 551 ;
552 [label="gini = 0.0\nsamples = 1\nvalue = [0, 1]\nclass = Neutral", fillcolor="#399de5"] ;
534 -> 552 ;
553 [label="gini = 0.0\nsamples = 3\nvalue = [0, 5]\nclass = Neutral", fillcolor="#399de5"] ;
533 -> 553 ;
554 [label="gini = 0.0\nsamples = 3\nvalue = [0, 6]\nclass = Neutral", fillcolor="#399de5"] ;
532 -> 554 ;
555 [label="Fst 0.7-0.75; MSE 0.4-3.6 <= 0.5\ngini = 0.31\nsamples = 22\nvalue = [7, 30]\nclass = Neutral", fillcolor="#67b4eb"] ;
531 -> 555 ;
556 [label="Fst 0.15-0.2; MSE 0.0-0.1 <= 57.5\ngini = 0.28\nsamples = 21\nvalue = [6, 30]\nclass = Neutral", fillcolor="#61b1ea"] ;
555 -> 556 ;
557 [label="Fst 0.05-0.1; MSE 0.0-0.1 <= 1.5\ngini = 0.08\nsamples = 13\nvalue = [1, 22]\nclass = Neutral", fillcolor="#42a1e6"] ;
556 -> 557 ;
558 [label="Fst 0.45-0.5; MSE 0.4-3.6 <= 2.5\ngini = 0.28\nsamples = 3\nvalue = [1, 5]\nclass = Neutral", fillcolor="#61b1ea"] ;
557 -> 558 ;
559 [label="gini = 0.0\nsamples = 2\nvalue = [0, 5]\nclass = Neutral", fillcolor="#399de5"] ;
558 -> 559 ;
560 [label="gini = 0.0\nsamples = 1\nvalue = [1, 0]\nclass = SAS", fillcolor="#e58139"] ;
558 -> 560 ;
561 [label="gini = 0.0\nsamples = 10\nvalue = [0, 17]\nclass = Neutral", fillcolor="#399de5"] ;
557 -> 561 ;
562 [label="Fst 0.3-0.35; MSE 0.1-0.2 <= 11.0\ngini = 0.47\nsamples = 8\nvalue = [5, 8]\nclass = Neutral", fillcolor="#b5daf5"] ;
556 -> 562 ;
563 [label="Fst 0.35-0.4; MSE 0.2-0.3 <= 0.5\ngini = 0.4\nsamples = 7\nvalue = [3, 8]\nclass = Neutral", fillcolor="#83c2ef"] ;
562 -> 563 ;
564 [label="gini = 0.0\nsamples = 1\nvalue = [2, 0]\nclass = SAS", fillcolor="#e58139"] ;
563 -> 564 ;
565 [label="Fst 0.5-0.55; MSE 0.4-3.6 <= 1.5\ngini = 0.2\nsamples = 6\nvalue = [1, 8]\nclass = Neutral", fillcolor="#52a9e8"] ;
563 -> 565 ;
566 [label="gini = 0.0\nsamples = 5\nvalue = [0, 8]\nclass = Neutral", fillcolor="#399de5"] ;
565 -> 566 ;
567 [label="gini = 0.0\nsamples = 1\nvalue = [1, 0]\nclass = SAS", fillcolor="#e58139"] ;
565 -> 567 ;
568 [label="gini = 0.0\nsamples = 1\nvalue = [2, 0]\nclass = SAS", fillcolor="#e58139"] ;
562 -> 568 ;
569 [label="gini = 0.0\nsamples = 1\nvalue = [1, 0]\nclass = SAS", fillcolor="#e58139"] ;
555 -> 569 ;
570 [label="gini = 0.0\nsamples = 1\nvalue = [3, 0]\nclass = SAS", fillcolor="#e58139"] ;
530 -> 570 ;
571 [label="gini = 0.0\nsamples = 6\nvalue = [11, 0]\nclass = SAS", fillcolor="#e58139"] ;
481 -> 571 ;
572 [label="Fst 0.25-0.3; MSE 0.0-0.1 <= 24.5\ngini = 0.4\nsamples = 65\nvalue = [80, 30]\nclass = SAS", fillcolor="#efb083"] ;
480 -> 572 ;
573 [label="Fst 0.15-0.2; MSE 0.0-0.1 <= 88.5\ngini = 0.35\nsamples = 58\nvalue = [77, 23]\nclass = SAS", fillcolor="#eda774"] ;
572 -> 573 ;
574 [label="Fst 0.35-0.4; MSE 0.2-0.3 <= 2.5\ngini = 0.3\nsamples = 56\nvalue = [77, 17]\nclass = SAS", fillcolor="#eb9d65"] ;
573 -> 574 ;
575 [label="Fst 0.45-0.5; MSE 0.2-0.3 <= 5.0\ngini = 0.27\nsamples = 54\nvalue = [77, 15]\nclass = SAS", fillcolor="#ea9a60"] ;
574 -> 575 ;
576 [label="Fst 0.7-0.75; MSE 0.4-3.6 <= 0.5\ngini = 0.26\nsamples = 53\nvalue = [77, 14]\nclass = SAS", fillcolor="#ea985d"] ;
575 -> 576 ;
577 [label="Fst 0.35-0.4; MSE 0.0-0.1 <= 0.5\ngini = 0.24\nsamples = 50\nvalue = [76, 12]\nclass = SAS", fillcolor="#e99558"] ;
576 -> 577 ;
578 [label="Fst 0.65-0.7; MSE 0.4-3.6 <= 0.5\ngini = 0.22\nsamples = 44\nvalue = [70, 10]\nclass = SAS", fillcolor="#e99355"] ;
577 -> 578 ;
579 [label="Fst 0.4-0.45; MSE 0.2-0.3 <= 2.5\ngini = 0.24\nsamples = 40\nvalue = [62, 10]\nclass = SAS", fillcolor="#e99559"] ;
578 -> 579 ;
580 [label="Fst 0.25-0.3; MSE 0.1-0.2 <= 1.5\ngini = 0.04\nsamples = 21\nvalue = [46, 1]\nclass = SAS", fillcolor="#e6843d"] ;
579 -> 580 ;
581 [label="gini = 0.0\nsamples = 13\nvalue = [28, 0]\nclass = SAS", fillcolor="#e58139"] ;
580 -> 581 ;
582 [label="Fst 0.45-0.5; MSE 0.2-0.3 <= 0.5\ngini = 0.1\nsamples = 8\nvalue = [18, 1]\nclass = SAS", fillcolor="#e68844"] ;
580 -> 582 ;
583 [label="Fst 0.55-0.6; MSE 0.4-3.6 <= 3.0\ngini = 0.17\nsamples = 4\nvalue = [10, 1]\nclass = SAS", fillcolor="#e88e4d"] ;
582 -> 583 ;
584 [label="Fst 0.3-0.35; MSE 0.0-0.1 <= 2.5\ngini = 0.18\nsamples = 3\nvalue = [9, 1]\nclass = SAS", fillcolor="#e88f4f"] ;
583 -> 584 ;
585 [label="gini = 0.0\nsamples = 1\nvalue = [0, 1]\nclass = Neutral", fillcolor="#399de5"] ;
584 -> 585 ;
586 [label="gini = 0.0\nsamples = 2\nvalue = [9, 0]\nclass = SAS", fillcolor="#e58139"] ;
584 -> 586 ;
587 [label="gini = 0.0\nsamples = 1\nvalue = [1, 0]\nclass = SAS", fillcolor="#e58139"] ;
583 -> 587 ;
588 [label="gini = 0.0\nsamples = 4\nvalue = [8, 0]\nclass = SAS", fillcolor="#e58139"] ;
582 -> 588 ;
589 [label="Fst 0.5-0.55; MSE 0.4-3.6 <= 0.5\ngini = 0.46\nsamples = 19\nvalue = [16, 9]\nclass = SAS", fillcolor="#f4c8a8"] ;
579 -> 589 ;
590 [label="Fst 0.3-0.35; MSE 0.1-0.2 <= 19.5\ngini = 0.48\nsamples = 16\nvalue = [13, 9]\nclass = SAS", fillcolor="#f7d8c2"] ;
589 -> 590 ;
591 [label="Fst 0.15-0.2; MSE 0.0-0.1 <= 42.5\ngini = 0.43\nsamples = 14\nvalue = [13, 6]\nclass = SAS", fillcolor="#f1bb94"] ;
590 -> 591 ;
592 [label="Fst 0.45-0.5; MSE 0.3-0.4 <= 2.0\ngini = 0.2\nsamples = 5\nvalue = [8, 1]\nclass = SAS", fillcolor="#e89152"] ;
591 -> 592 ;
593 [label="Fst 0.25-0.3; MSE 0.0-0.1 <= 9.5\ngini = 0.24\nsamples = 4\nvalue = [6, 1]\nclass = SAS", fillcolor="#e9965a"] ;
592 -> 593 ;
594 [label="gini = 0.0\nsamples = 1\nvalue = [0, 1]\nclass = Neutral", fillcolor="#399de5"] ;
593 -> 594 ;
595 [label="gini = 0.0\nsamples = 3\nvalue = [6, 0]\nclass = SAS", fillcolor="#e58139"] ;
593 -> 595 ;
596 [label="gini = 0.0\nsamples = 1\nvalue = [2, 0]\nclass = SAS", fillcolor="#e58139"] ;
592 -> 596 ;
597 [label="Fst 0.25-0.3; MSE 0.0-0.1 <= 6.5\ngini = 0.5\nsamples = 9\nvalue = [5, 5]\nclass = SAS", fillcolor="#ffffff"] ;
591 -> 597 ;
598 [label="gini = 0.0\nsamples = 2\nvalue = [2, 0]\nclass = SAS", fillcolor="#e58139"] ;
597 -> 598 ;
599 [label="Fst 0.35-0.4; MSE 0.2-0.3 <= 1.5\ngini = 0.47\nsamples = 7\nvalue = [3, 5]\nclass = Neutral", fillcolor="#b0d8f5"] ;
597 -> 599 ;
600 [label="Fst 0.4-0.45; MSE 0.1-0.2 <= 3.0\ngini = 0.32\nsamples = 5\nvalue = [1, 4]\nclass = Neutral", fillcolor="#6ab6ec"] ;
599 -> 600 ;
601 [label="gini = 0.0\nsamples = 2\nvalue = [0, 2]\nclass = Neutral", fillcolor="#399de5"] ;
600 -> 601 ;
602 [label="Fst 0.05-0.1; MSE 0.0-0.1 <= 3.5\ngini = 0.44\nsamples = 3\nvalue = [1, 2]\nclass = Neutral", fillcolor="#9ccef2"] ;
600 -> 602 ;
603 [label="gini = 0.0\nsamples = 2\nvalue = [0, 2]\nclass = Neutral", fillcolor="#399de5"] ;
602 -> 603 ;
604 [label="gini = 0.0\nsamples = 1\nvalue = [1, 0]\nclass = SAS", fillcolor="#e58139"] ;
602 -> 604 ;
605 [label="Fst 0.35-0.4; MSE 0.1-0.2 <= 2.5\ngini = 0.44\nsamples = 2\nvalue = [2, 1]\nclass = SAS", fillcolor="#f2c09c"] ;
599 -> 605 ;
606 [label="gini = 0.0\nsamples = 1\nvalue = [0, 1]\nclass = Neutral", fillcolor="#399de5"] ;
605 -> 606 ;
607 [label="gini = 0.0\nsamples = 1\nvalue = [2, 0]\nclass = SAS", fillcolor="#e58139"] ;
605 -> 607 ;
608 [label="gini = 0.0\nsamples = 2\nvalue = [0, 3]\nclass = Neutral", fillcolor="#399de5"] ;
590 -> 608 ;
609 [label="gini = 0.0\nsamples = 3\nvalue = [3, 0]\nclass = SAS", fillcolor="#e58139"] ;
589 -> 609 ;
610 [label="gini = 0.0\nsamples = 4\nvalue = [8, 0]\nclass = SAS", fillcolor="#e58139"] ;
578 -> 610 ;
611 [label="Fst 0.2-0.25; MSE 0.0-0.1 <= 21.5\ngini = 0.38\nsamples = 6\nvalue = [6, 2]\nclass = SAS", fillcolor="#eeab7b"] ;
577 -> 611 ;
612 [label="gini = 0.0\nsamples = 4\nvalue = [6, 0]\nclass = SAS", fillcolor="#e58139"] ;
611 -> 612 ;
613 [label="gini = 0.0\nsamples = 2\nvalue = [0, 2]\nclass = Neutral", fillcolor="#399de5"] ;
611 -> 613 ;
614 [label="Fst 0.2-0.25; MSE 0.0-0.1 <= 25.0\ngini = 0.44\nsamples = 3\nvalue = [1, 2]\nclass = Neutral", fillcolor="#9ccef2"] ;
576 -> 614 ;
615 [label="gini = 0.0\nsamples = 2\nvalue = [0, 2]\nclass = Neutral", fillcolor="#399de5"] ;
614 -> 615 ;
616 [label="gini = 0.0\nsamples = 1\nvalue = [1, 0]\nclass = SAS", fillcolor="#e58139"] ;
614 -> 616 ;
617 [label="gini = 0.0\nsamples = 1\nvalue = [0, 1]\nclass = Neutral", fillcolor="#399de5"] ;
575 -> 617 ;
618 [label="gini = 0.0\nsamples = 2\nvalue = [0, 2]\nclass = Neutral", fillcolor="#399de5"] ;
574 -> 618 ;
619 [label="gini = 0.0\nsamples = 2\nvalue = [0, 6]\nclass = Neutral", fillcolor="#399de5"] ;
573 -> 619 ;
620 [label="Fst 0.45-0.5; MSE 0.2-0.3 <= 0.5\ngini = 0.42\nsamples = 7\nvalue = [3, 7]\nclass = Neutral", fillcolor="#8ec7f0"] ;
572 -> 620 ;
621 [label="Fst 0.05-0.1; MSE 0.0-0.1 <= 8.0\ngini = 0.24\nsamples = 4\nvalue = [1, 6]\nclass = Neutral", fillcolor="#5aade9"] ;
620 -> 621 ;
622 [label="gini = 0.0\nsamples = 3\nvalue = [0, 6]\nclass = Neutral", fillcolor="#399de5"] ;
621 -> 622 ;
623 [label="gini = 0.0\nsamples = 1\nvalue = [1, 0]\nclass = SAS", fillcolor="#e58139"] ;
621 -> 623 ;
624 [label="Fst 0.2-0.25; MSE 0.0-0.1 <= 16.5\ngini = 0.44\nsamples = 3\nvalue = [2, 1]\nclass = SAS", fillcolor="#f2c09c"] ;
620 -> 624 ;
625 [label="gini = 0.0\nsamples = 1\nvalue = [1, 0]\nclass = SAS", fillcolor="#e58139"] ;
624 -> 625 ;
626 [label="Fst 0.35-0.4; MSE 0.0-0.1 <= 1.0\ngini = 0.5\nsamples = 2\nvalue = [1, 1]\nclass = SAS", fillcolor="#ffffff"] ;
624 -> 626 ;
627 [label="gini = 0.0\nsamples = 1\nvalue = [1, 0]\nclass = SAS", fillcolor="#e58139"] ;
626 -> 627 ;
628 [label="gini = 0.0\nsamples = 1\nvalue = [0, 1]\nclass = Neutral", fillcolor="#399de5"] ;
626 -> 628 ;
629 [label="Fst 0.4-0.45; MSE 0.3-0.4 <= 4.5\ngini = 0.38\nsamples = 4\nvalue = [1, 3]\nclass = Neutral", fillcolor="#7bbeee"] ;
479 -> 629 ;
630 [label="gini = 0.0\nsamples = 3\nvalue = [0, 3]\nclass = Neutral", fillcolor="#399de5"] ;
629 -> 630 ;
631 [label="gini = 0.0\nsamples = 1\nvalue = [1, 0]\nclass = SAS", fillcolor="#e58139"] ;
629 -> 631 ;
632 [label="Fst 0.25-0.3; MSE 0.0-0.1 <= 8.5\ngini = 0.5\nsamples = 21\nvalue = [17, 20]\nclass = Neutral", fillcolor="#e1f0fb"] ;
478 -> 632 ;
633 [label="Fst 0.45-0.5; MSE 0.3-0.4 <= 2.0\ngini = 0.44\nsamples = 11\nvalue = [14, 7]\nclass = SAS", fillcolor="#f2c09c"] ;
632 -> 633 ;
634 [label="Fst 0.5-0.55; MSE 0.2-0.3 <= 0.5\ngini = 0.13\nsamples = 7\nvalue = [13, 1]\nclass = SAS", fillcolor="#e78b48"] ;
633 -> 634 ;
635 [label="gini = 0.0\nsamples = 6\nvalue = [13, 0]\nclass = SAS", fillcolor="#e58139"] ;
634 -> 635 ;
636 [label="gini = 0.0\nsamples = 1\nvalue = [0, 1]\nclass = Neutral", fillcolor="#399de5"] ;
634 -> 636 ;
637 [label="Fst 0.2-0.25; MSE 0.0-0.1 <= 22.5\ngini = 0.24\nsamples = 4\nvalue = [1, 6]\nclass = Neutral", fillcolor="#5aade9"] ;
633 -> 637 ;
638 [label="Fst 0.45-0.5; MSE 0.4-3.6 <= 0.5\ngini = 0.5\nsamples = 2\nvalue = [1, 1]\nclass = SAS", fillcolor="#ffffff"] ;
637 -> 638 ;
639 [label="gini = 0.0\nsamples = 1\nvalue = [1, 0]\nclass = SAS", fillcolor="#e58139"] ;
638 -> 639 ;
640 [label="gini = 0.0\nsamples = 1\nvalue = [0, 1]\nclass = Neutral", fillcolor="#399de5"] ;
638 -> 640 ;
641 [label="gini = 0.0\nsamples = 2\nvalue = [0, 5]\nclass = Neutral", fillcolor="#399de5"] ;
637 -> 641 ;
642 [label="Fst 0.55-0.6; MSE 0.3-0.4 <= 1.5\ngini = 0.3\nsamples = 10\nvalue = [3, 13]\nclass = Neutral", fillcolor="#67b4eb"] ;
632 -> 642 ;
643 [label="gini = 0.0\nsamples = 6\nvalue = [0, 10]\nclass = Neutral", fillcolor="#399de5"] ;
642 -> 643 ;
644 [label="Fst 0.35-0.4; MSE 0.0-0.1 <= 0.5\ngini = 0.5\nsamples = 4\nvalue = [3, 3]\nclass = SAS", fillcolor="#ffffff"] ;
642 -> 644 ;
645 [label="Fst 0.25-0.3; MSE 0.0-0.1 <= 13.0\ngini = 0.38\nsamples = 2\nvalue = [3, 1]\nclass = SAS", fillcolor="#eeab7b"] ;
644 -> 645 ;
646 [label="gini = 0.0\nsamples = 1\nvalue = [0, 1]\nclass = Neutral", fillcolor="#399de5"] ;
645 -> 646 ;
647 [label="gini = 0.0\nsamples = 1\nvalue = [3, 0]\nclass = SAS", fillcolor="#e58139"] ;
645 -> 647 ;
648 [label="gini = 0.0\nsamples = 2\nvalue = [0, 2]\nclass = Neutral", fillcolor="#399de5"] ;
644 -> 648 ;
649 [label="Fst 0.4-0.45; MSE 0.2-0.3 <= 1.5\ngini = 0.5\nsamples = 80\nvalue = [64, 68]\nclass = Neutral", fillcolor="#f3f9fd"] ;
477 -> 649 ;
650 [label="Fst 0.25-0.3; MSE 0.0-0.1 <= 1.5\ngini = 0.42\nsamples = 16\nvalue = [10, 23]\nclass = Neutral", fillcolor="#8fc8f0"] ;
649 -> 650 ;
651 [label="gini = 0.0\nsamples = 1\nvalue = [3, 0]\nclass = SAS", fillcolor="#e58139"] ;
650 -> 651 ;
652 [label="Fst 0.45-0.5; MSE 0.2-0.3 <= 1.5\ngini = 0.36\nsamples = 15\nvalue = [7, 23]\nclass = Neutral", fillcolor="#75bbed"] ;
650 -> 652 ;
653 [label="Fst 0.25-0.3; MSE 0.1-0.2 <= 2.5\ngini = 0.2\nsamples = 14\nvalue = [3, 23]\nclass = Neutral", fillcolor="#53aae8"] ;
652 -> 653 ;
654 [label="Fst 0.3-0.35; MSE 0.1-0.2 <= 2.5\ngini = 0.29\nsamples = 10\nvalue = [3, 14]\nclass = Neutral", fillcolor="#63b2eb"] ;
653 -> 654 ;
655 [label="gini = 0.0\nsamples = 4\nvalue = [0, 8]\nclass = Neutral", fillcolor="#399de5"] ;
654 -> 655 ;
656 [label="Fst 0.15-0.2; MSE 0.0-0.1 <= 62.5\ngini = 0.44\nsamples = 6\nvalue = [3, 6]\nclass = Neutral", fillcolor="#9ccef2"] ;
654 -> 656 ;
657 [label="Fst 0.4-0.45; MSE 0.1-0.2 <= 0.5\ngini = 0.24\nsamples = 4\nvalue = [1, 6]\nclass = Neutral", fillcolor="#5aade9"] ;
656 -> 657 ;
658 [label="gini = 0.0\nsamples = 1\nvalue = [0, 3]\nclass = Neutral", fillcolor="#399de5"] ;
657 -> 658 ;
659 [label="Fst 0.4-0.45; MSE 0.1-0.2 <= 5.5\ngini = 0.38\nsamples = 3\nvalue = [1, 3]\nclass = Neutral", fillcolor="#7bbeee"] ;
657 -> 659 ;
660 [label="Fst 0.3-0.35; MSE 0.1-0.2 <= 5.0\ngini = 0.44\nsamples = 2\nvalue = [1, 2]\nclass = Neutral", fillcolor="#9ccef2"] ;
659 -> 660 ;
661 [label="gini = 0.0\nsamples = 1\nvalue = [0, 2]\nclass = Neutral", fillcolor="#399de5"] ;
660 -> 661 ;
662 [label="gini = 0.0\nsamples = 1\nvalue = [1, 0]\nclass = SAS", fillcolor="#e58139"] ;
660 -> 662 ;
663 [label="gini = 0.0\nsamples = 1\nvalue = [0, 1]\nclass = Neutral", fillcolor="#399de5"] ;
659 -> 663 ;
664 [label="gini = 0.0\nsamples = 2\nvalue = [2, 0]\nclass = SAS", fillcolor="#e58139"] ;
656 -> 664 ;
665 [label="gini = 0.0\nsamples = 4\nvalue = [0, 9]\nclass = Neutral", fillcolor="#399de5"] ;
653 -> 665 ;
666 [label="gini = 0.0\nsamples = 1\nvalue = [4, 0]\nclass = SAS", fillcolor="#e58139"] ;
652 -> 666 ;
667 [label="Fst 0.55-0.6; MSE 0.4-3.6 <= 1.5\ngini = 0.5\nsamples = 64\nvalue = [54, 45]\nclass = SAS", fillcolor="#fbeade"] ;
649 -> 667 ;
668 [label="Fst 0.25-0.3; MSE 0.1-0.2 <= 2.5\ngini = 0.5\nsamples = 56\nvalue = [45, 43]\nclass = SAS", fillcolor="#fef9f6"] ;
667 -> 668 ;
669 [label="Fst 0.4-0.45; MSE 0.2-0.3 <= 3.5\ngini = 0.45\nsamples = 31\nvalue = [28, 15]\nclass = SAS", fillcolor="#f3c4a3"] ;
668 -> 669 ;
670 [label="Fst 0.1-0.15; MSE 0.0-0.1 <= 23.5\ngini = 0.38\nsamples = 18\nvalue = [21, 7]\nclass = SAS", fillcolor="#eeab7b"] ;
669 -> 670 ;
671 [label="gini = 0.0\nsamples = 3\nvalue = [6, 0]\nclass = SAS", fillcolor="#e58139"] ;
670 -> 671 ;
672 [label="Fst 0.65-0.7; MSE 0.4-3.6 <= 0.5\ngini = 0.43\nsamples = 15\nvalue = [15, 7]\nclass = SAS", fillcolor="#f1bc95"] ;
670 -> 672 ;
673 [label="Fst 0.35-0.4; MSE 0.2-0.3 <= 1.5\ngini = 0.36\nsamples = 12\nvalue = [13, 4]\nclass = SAS", fillcolor="#eda876"] ;
672 -> 673 ;
674 [label="Fst 0.6-0.65; MSE 0.4-3.6 <= 1.0\ngini = 0.23\nsamples = 11\nvalue = [13, 2]\nclass = SAS", fillcolor="#e99457"] ;
673 -> 674 ;
675 [label="Fst 0.1-0.15; MSE 0.0-0.1 <= 41.5\ngini = 0.28\nsamples = 9\nvalue = [10, 2]\nclass = SAS", fillcolor="#ea9a61"] ;
674 -> 675 ;
676 [label="Fst 0.05-0.1; MSE 0.0-0.1 <= 1.0\ngini = 0.44\nsamples = 3\nvalue = [1, 2]\nclass = Neutral", fillcolor="#9ccef2"] ;
675 -> 676 ;
677 [label="gini = 0.0\nsamples = 1\nvalue = [0, 1]\nclass = Neutral", fillcolor="#399de5"] ;
676 -> 677 ;
678 [label="Fst 0.25-0.3; MSE 0.0-0.1 <= 18.0\ngini = 0.5\nsamples = 2\nvalue = [1, 1]\nclass = SAS", fillcolor="#ffffff"] ;
676 -> 678 ;
679 [label="gini = 0.0\nsamples = 1\nvalue = [0, 1]\nclass = Neutral", fillcolor="#399de5"] ;
678 -> 679 ;
680 [label="gini = 0.0\nsamples = 1\nvalue = [1, 0]\nclass = SAS", fillcolor="#e58139"] ;
678 -> 680 ;
681 [label="gini = 0.0\nsamples = 6\nvalue = [9, 0]\nclass = SAS", fillcolor="#e58139"] ;
675 -> 681 ;
682 [label="gini = 0.0\nsamples = 2\nvalue = [3, 0]\nclass = SAS", fillcolor="#e58139"] ;
674 -> 682 ;
683 [label="gini = 0.0\nsamples = 1\nvalue = [0, 2]\nclass = Neutral", fillcolor="#399de5"] ;
673 -> 683 ;
684 [label="Fst 0.25-0.3; MSE 0.0-0.1 <= 11.0\ngini = 0.48\nsamples = 3\nvalue = [2, 3]\nclass = Neutral", fillcolor="#bddef6"] ;
672 -> 684 ;
685 [label="gini = 0.0\nsamples = 1\nvalue = [2, 0]\nclass = SAS", fillcolor="#e58139"] ;
684 -> 685 ;
686 [label="gini = 0.0\nsamples = 2\nvalue = [0, 3]\nclass = Neutral", fillcolor="#399de5"] ;
684 -> 686 ;
687 [label="Fst 0.15-0.2; MSE 0.0-0.1 <= 41.0\ngini = 0.5\nsamples = 13\nvalue = [7, 8]\nclass = Neutral", fillcolor="#e6f3fc"] ;
669 -> 687 ;
688 [label="Fst 0.25-0.3; MSE 0.1-0.2 <= 0.5\ngini = 0.42\nsamples = 8\nvalue = [7, 3]\nclass = SAS", fillcolor="#f0b78e"] ;
687 -> 688 ;
689 [label="gini = 0.0\nsamples = 2\nvalue = [0, 2]\nclass = Neutral", fillcolor="#399de5"] ;
688 -> 689 ;
690 [label="Fst 0.25-0.3; MSE 0.1-0.2 <= 1.5\ngini = 0.22\nsamples = 6\nvalue = [7, 1]\nclass = SAS", fillcolor="#e99355"] ;
688 -> 690 ;
691 [label="gini = 0.0\nsamples = 2\nvalue = [3, 0]\nclass = SAS", fillcolor="#e58139"] ;
690 -> 691 ;
692 [label="Fst 0.45-0.5; MSE 0.2-0.3 <= 3.5\ngini = 0.32\nsamples = 4\nvalue = [4, 1]\nclass = SAS", fillcolor="#eca06a"] ;
690 -> 692 ;
693 [label="gini = 0.0\nsamples = 3\nvalue = [4, 0]\nclass = SAS", fillcolor="#e58139"] ;
692 -> 693 ;
694 [label="gini = 0.0\nsamples = 1\nvalue = [0, 1]\nclass = Neutral", fillcolor="#399de5"] ;
692 -> 694 ;
695 [label="gini = 0.0\nsamples = 5\nvalue = [0, 5]\nclass = Neutral", fillcolor="#399de5"] ;
687 -> 695 ;
696 [label="Fst 0.15-0.2; MSE 0.0-0.1 <= 55.5\ngini = 0.47\nsamples = 25\nvalue = [17, 28]\nclass = Neutral", fillcolor="#b1d8f5"] ;
668 -> 696 ;
697 [label="Fst 0.4-0.45; MSE 0.1-0.2 <= 0.5\ngini = 0.39\nsamples = 21\nvalue = [10, 27]\nclass = Neutral", fillcolor="#82c1ef"] ;
696 -> 697 ;
698 [label="gini = 0.0\nsamples = 6\nvalue = [0, 12]\nclass = Neutral", fillcolor="#399de5"] ;
697 -> 698 ;
699 [label="Fst 0.3-0.35; MSE 0.1-0.2 <= 23.5\ngini = 0.48\nsamples = 15\nvalue = [10, 15]\nclass = Neutral", fillcolor="#bddef6"] ;
697 -> 699 ;
700 [label="Fst 0.35-0.4; MSE 0.2-0.3 <= 0.5\ngini = 0.45\nsamples = 14\nvalue = [8, 15]\nclass = Neutral", fillcolor="#a3d1f3"] ;
699 -> 700 ;
701 [label="Fst 0.2-0.25; MSE 0.0-0.1 <= 35.5\ngini = 0.46\nsamples = 9\nvalue = [7, 4]\nclass = SAS", fillcolor="#f4c9aa"] ;
700 -> 701 ;
702 [label="gini = 0.0\nsamples = 1\nvalue = [0, 1]\nclass = Neutral", fillcolor="#399de5"] ;
701 -> 702 ;
703 [label="Fst 0.15-0.2; MSE 0.0-0.1 <= 43.5\ngini = 0.42\nsamples = 8\nvalue = [7, 3]\nclass = SAS", fillcolor="#f0b78e"] ;
701 -> 703 ;
704 [label="Fst 0.3-0.35; MSE 0.1-0.2 <= 8.5\ngini = 0.22\nsamples = 6\nvalue = [7, 1]\nclass = SAS", fillcolor="#e99355"] ;
703 -> 704 ;
705 [label="gini = 0.0\nsamples = 4\nvalue = [6, 0]\nclass = SAS", fillcolor="#e58139"] ;
704 -> 705 ;
706 [label="Fst 0.25-0.3; MSE 0.0-0.1 <= 20.0\ngini = 0.5\nsamples = 2\nvalue = [1, 1]\nclass = SAS", fillcolor="#ffffff"] ;
704 -> 706 ;
707 [label="gini = 0.0\nsamples = 1\nvalue = [0, 1]\nclass = Neutral", fillcolor="#399de5"] ;
706 -> 707 ;
708 [label="gini = 0.0\nsamples = 1\nvalue = [1, 0]\nclass = SAS", fillcolor="#e58139"] ;
706 -> 708 ;
709 [label="gini = 0.0\nsamples = 2\nvalue = [0, 2]\nclass = Neutral", fillcolor="#399de5"] ;
703 -> 709 ;
710 [label="Fst 0.7-0.75; MSE 0.4-3.6 <= 0.5\ngini = 0.15\nsamples = 5\nvalue = [1, 11]\nclass = Neutral", fillcolor="#4ba6e7"] ;
700 -> 710 ;
711 [label="Fst 0.4-0.45; MSE 0.1-0.2 <= 1.5\ngini = 0.24\nsamples = 3\nvalue = [1, 6]\nclass = Neutral", fillcolor="#5aade9"] ;
710 -> 711 ;
712 [label="gini = 0.0\nsamples = 2\nvalue = [0, 6]\nclass = Neutral", fillcolor="#399de5"] ;
711 -> 712 ;
713 [label="gini = 0.0\nsamples = 1\nvalue = [1, 0]\nclass = SAS", fillcolor="#e58139"] ;
711 -> 713 ;
714 [label="gini = 0.0\nsamples = 2\nvalue = [0, 5]\nclass = Neutral", fillcolor="#399de5"] ;
710 -> 714 ;
715 [label="gini = 0.0\nsamples = 1\nvalue = [2, 0]\nclass = SAS", fillcolor="#e58139"] ;
699 -> 715 ;
716 [label="Fst 0.25-0.3; MSE 0.0-0.1 <= 11.5\ngini = 0.22\nsamples = 4\nvalue = [7, 1]\nclass = SAS", fillcolor="#e99355"] ;
696 -> 716 ;
717 [label="Fst 0.1-0.15; MSE 0.0-0.1 <= 28.5\ngini = 0.44\nsamples = 2\nvalue = [2, 1]\nclass = SAS", fillcolor="#f2c09c"] ;
716 -> 717 ;
718 [label="gini = 0.0\nsamples = 1\nvalue = [0, 1]\nclass = Neutral", fillcolor="#399de5"] ;
717 -> 718 ;
719 [label="gini = 0.0\nsamples = 1\nvalue = [2, 0]\nclass = SAS", fillcolor="#e58139"] ;
717 -> 719 ;
720 [label="gini = 0.0\nsamples = 2\nvalue = [5, 0]\nclass = SAS", fillcolor="#e58139"] ;
716 -> 720 ;
721 [label="Fst 0.1-0.15; MSE 0.0-0.1 <= 11.0\ngini = 0.3\nsamples = 8\nvalue = [9, 2]\nclass = SAS", fillcolor="#eb9d65"] ;
667 -> 721 ;
722 [label="gini = 0.0\nsamples = 1\nvalue = [0, 1]\nclass = Neutral", fillcolor="#399de5"] ;
721 -> 722 ;
723 [label="Fst 0.55-0.6; MSE 0.4-3.6 <= 2.5\ngini = 0.18\nsamples = 7\nvalue = [9, 1]\nclass = SAS", fillcolor="#e88f4f"] ;
721 -> 723 ;
724 [label="gini = 0.0\nsamples = 5\nvalue = [8, 0]\nclass = SAS", fillcolor="#e58139"] ;
723 -> 724 ;
725 [label="Fst 0.3-0.35; MSE 0.0-0.1 <= 1.0\ngini = 0.5\nsamples = 2\nvalue = [1, 1]\nclass = SAS", fillcolor="#ffffff"] ;
723 -> 725 ;
726 [label="gini = 0.0\nsamples = 1\nvalue = [0, 1]\nclass = Neutral", fillcolor="#399de5"] ;
725 -> 726 ;
727 [label="gini = 0.0\nsamples = 1\nvalue = [1, 0]\nclass = SAS", fillcolor="#e58139"] ;
725 -> 727 ;
728 [label="Fst 0.1-0.15; MSE 0.0-0.1 <= 62.5\ngini = 0.3\nsamples = 18\nvalue = [27, 6]\nclass = SAS", fillcolor="#eb9d65"] ;
476 -> 728 ;
729 [label="Fst 0.25-0.3; MSE 0.0-0.1 <= 19.5\ngini = 0.18\nsamples = 17\nvalue = [27, 3]\nclass = SAS", fillcolor="#e88f4f"] ;
728 -> 729 ;
730 [label="Fst 0.25-0.3; MSE 0.2-0.3 <= 0.5\ngini = 0.07\nsamples = 15\nvalue = [27, 1]\nclass = SAS", fillcolor="#e68640"] ;
729 -> 730 ;
731 [label="Fst 0.2-0.25; MSE 0.0-0.1 <= 16.5\ngini = 0.08\nsamples = 14\nvalue = [24, 1]\nclass = SAS", fillcolor="#e68641"] ;
730 -> 731 ;
732 [label="Fst 0.35-0.4; MSE 0.1-0.2 <= 0.5\ngini = 0.38\nsamples = 3\nvalue = [3, 1]\nclass = SAS", fillcolor="#eeab7b"] ;
731 -> 732 ;
733 [label="gini = 0.0\nsamples = 1\nvalue = [0, 1]\nclass = Neutral", fillcolor="#399de5"] ;
732 -> 733 ;
734 [label="gini = 0.0\nsamples = 2\nvalue = [3, 0]\nclass = SAS", fillcolor="#e58139"] ;
732 -> 734 ;
735 [label="gini = 0.0\nsamples = 11\nvalue = [21, 0]\nclass = SAS", fillcolor="#e58139"] ;
731 -> 735 ;
736 [label="gini = 0.0\nsamples = 1\nvalue = [3, 0]\nclass = SAS", fillcolor="#e58139"] ;
730 -> 736 ;
737 [label="gini = 0.0\nsamples = 2\nvalue = [0, 2]\nclass = Neutral", fillcolor="#399de5"] ;
729 -> 737 ;
738 [label="gini = 0.0\nsamples = 1\nvalue = [0, 3]\nclass = Neutral", fillcolor="#399de5"] ;
728 -> 738 ;
739 [label="gini = 0.0\nsamples = 5\nvalue = [0, 7]\nclass = Neutral", fillcolor="#399de5"] ;
475 -> 739 ;
740 [label="Fst 0.3-0.35; MSE 0.0-0.1 <= 0.5\ngini = 0.2\nsamples = 5\nvalue = [8, 1]\nclass = SAS", fillcolor="#e89152"] ;
474 -> 740 ;
741 [label="Fst 0.2-0.25; MSE 0.0-0.1 <= 21.0\ngini = 0.44\nsamples = 3\nvalue = [2, 1]\nclass = SAS", fillcolor="#f2c09c"] ;
740 -> 741 ;
742 [label="gini = 0.0\nsamples = 1\nvalue = [0, 1]\nclass = Neutral", fillcolor="#399de5"] ;
741 -> 742 ;
743 [label="gini = 0.0\nsamples = 2\nvalue = [2, 0]\nclass = SAS", fillcolor="#e58139"] ;
741 -> 743 ;
744 [label="gini = 0.0\nsamples = 2\nvalue = [6, 0]\nclass = SAS", fillcolor="#e58139"] ;
740 -> 744 ;
745 [label="Fst 0.1-0.15; MSE 0.0-0.1 <= 8.5\ngini = 0.49\nsamples = 86\nvalue = [55, 76]\nclass = Neutral", fillcolor="#c8e4f8"] ;
471 -> 745 ;
746 [label="gini = 0.0\nsamples = 8\nvalue = [0, 13]\nclass = Neutral", fillcolor="#399de5"] ;
745 -> 746 ;
747 [label="Fst 0.15-0.2; MSE 0.0-0.1 <= 53.0\ngini = 0.5\nsamples = 78\nvalue = [55, 63]\nclass = Neutral", fillcolor="#e6f3fc"] ;
745 -> 747 ;
748 [label="Fst 0.65-0.7; MSE 0.4-3.6 <= 1.5\ngini = 0.5\nsamples = 72\nvalue = [55, 55]\nclass = SAS", fillcolor="#ffffff"] ;
747 -> 748 ;
749 [label="Fst 0.6-0.65; MSE 0.4-3.6 <= 1.5\ngini = 0.5\nsamples = 69\nvalue = [55, 52]\nclass = SAS", fillcolor="#fef8f4"] ;
748 -> 749 ;
750 [label="Fst 0.3-0.35; MSE 0.0-0.1 <= 2.5\ngini = 0.5\nsamples = 65\nvalue = [53, 48]\nclass = SAS", fillcolor="#fdf3ec"] ;
749 -> 750 ;
751 [label="Fst 0.35-0.4; MSE 0.0-0.1 <= 2.5\ngini = 0.46\nsamples = 44\nvalue = [42, 23]\nclass = SAS", fillcolor="#f3c6a5"] ;
750 -> 751 ;
752 [label="Fst 0.25-0.3; MSE 0.0-0.1 <= 4.5\ngini = 0.46\nsamples = 43\nvalue = [40, 23]\nclass = SAS", fillcolor="#f4c9ab"] ;
751 -> 752 ;
753 [label="gini = 0.0\nsamples = 5\nvalue = [9, 0]\nclass = SAS", fillcolor="#e58139"] ;
752 -> 753 ;
754 [label="Fst 0.55-0.6; MSE 0.2-0.3 <= 0.5\ngini = 0.49\nsamples = 38\nvalue = [31, 23]\nclass = SAS", fillcolor="#f8decc"] ;
752 -> 754 ;
755 [label="Fst 0.35-0.4; MSE 0.1-0.2 <= 1.5\ngini = 0.49\nsamples = 37\nvalue = [31, 22]\nclass = SAS", fillcolor="#f7dac6"] ;
754 -> 755 ;
756 [label="Fst 0.65-0.7; MSE 0.4-3.6 <= 0.5\ngini = 0.46\nsamples = 24\nvalue = [22, 12]\nclass = SAS", fillcolor="#f3c6a5"] ;
755 -> 756 ;
757 [label="Fst 0.05-0.1; MSE 0.0-0.1 <= 2.5\ngini = 0.41\nsamples = 21\nvalue = [20, 8]\nclass = SAS", fillcolor="#efb388"] ;
756 -> 757 ;
758 [label="Fst 0.4-0.45; MSE 0.3-0.4 <= 0.5\ngini = 0.48\nsamples = 15\nvalue = [12, 8]\nclass = SAS", fillcolor="#f6d5bd"] ;
757 -> 758 ;
759 [label="Fst 0.4-0.45; MSE 0.2-0.3 <= 2.5\ngini = 0.47\nsamples = 12\nvalue = [10, 6]\nclass = SAS", fillcolor="#f5cdb0"] ;
758 -> 759 ;
760 [label="Fst 0.2-0.25; MSE 0.0-0.1 <= 45.0\ngini = 0.36\nsamples = 9\nvalue = [10, 3]\nclass = SAS", fillcolor="#eda774"] ;
759 -> 760 ;
761 [label="gini = 0.0\nsamples = 1\nvalue = [0, 2]\nclass = Neutral", fillcolor="#399de5"] ;
760 -> 761 ;
762 [label="Fst 0.25-0.3; MSE 0.0-0.1 <= 22.5\ngini = 0.17\nsamples = 8\nvalue = [10, 1]\nclass = SAS", fillcolor="#e88e4d"] ;
760 -> 762 ;
763 [label="gini = 0.0\nsamples = 7\nvalue = [10, 0]\nclass = SAS", fillcolor="#e58139"] ;
762 -> 763 ;
764 [label="gini = 0.0\nsamples = 1\nvalue = [0, 1]\nclass = Neutral", fillcolor="#399de5"] ;
762 -> 764 ;
765 [label="gini = 0.0\nsamples = 3\nvalue = [0, 3]\nclass = Neutral", fillcolor="#399de5"] ;
759 -> 765 ;
766 [label="Fst 0.35-0.4; MSE 0.1-0.2 <= 0.5\ngini = 0.5\nsamples = 3\nvalue = [2, 2]\nclass = SAS", fillcolor="#ffffff"] ;
758 -> 766 ;
767 [label="gini = 0.0\nsamples = 1\nvalue = [0, 2]\nclass = Neutral", fillcolor="#399de5"] ;
766 -> 767 ;
768 [label="gini = 0.0\nsamples = 2\nvalue = [2, 0]\nclass = SAS", fillcolor="#e58139"] ;
766 -> 768 ;
769 [label="gini = 0.0\nsamples = 6\nvalue = [8, 0]\nclass = SAS", fillcolor="#e58139"] ;
757 -> 769 ;
770 [label="Fst 0.45-0.5; MSE 0.2-0.3 <= 0.5\ngini = 0.44\nsamples = 3\nvalue = [2, 4]\nclass = Neutral", fillcolor="#9ccef2"] ;
756 -> 770 ;
771 [label="Fst 0.55-0.6; MSE 0.4-3.6 <= 1.0\ngini = 0.5\nsamples = 2\nvalue = [2, 2]\nclass = SAS", fillcolor="#ffffff"] ;
770 -> 771 ;
772 [label="gini = 0.0\nsamples = 1\nvalue = [2, 0]\nclass = SAS", fillcolor="#e58139"] ;
771 -> 772 ;
773 [label="gini = 0.0\nsamples = 1\nvalue = [0, 2]\nclass = Neutral", fillcolor="#399de5"] ;
771 -> 773 ;
774 [label="gini = 0.0\nsamples = 1\nvalue = [0, 2]\nclass = Neutral", fillcolor="#399de5"] ;
770 -> 774 ;
775 [label="Fst 0.25-0.3; MSE 0.1-0.2 <= 5.5\ngini = 0.5\nsamples = 13\nvalue = [9, 10]\nclass = Neutral", fillcolor="#ebf5fc"] ;
755 -> 775 ;
776 [label="Fst 0.15-0.2; MSE 0.0-0.1 <= 35.0\ngini = 0.38\nsamples = 9\nvalue = [9, 3]\nclass = SAS", fillcolor="#eeab7b"] ;
775 -> 776 ;
777 [label="Fst 0.25-0.3; MSE 0.1-0.2 <= 1.5\ngini = 0.2\nsamples = 6\nvalue = [8, 1]\nclass = SAS", fillcolor="#e89152"] ;
776 -> 777 ;
778 [label="gini = 0.0\nsamples = 2\nvalue = [3, 0]\nclass = SAS", fillcolor="#e58139"] ;
777 -> 778 ;
779 [label="Fst 0.35-0.4; MSE 0.1-0.2 <= 4.0\ngini = 0.28\nsamples = 4\nvalue = [5, 1]\nclass = SAS", fillcolor="#ea9a61"] ;
777 -> 779 ;
780 [label="gini = 0.0\nsamples = 2\nvalue = [4, 0]\nclass = SAS", fillcolor="#e58139"] ;
779 -> 780 ;
781 [label="Fst 0.35-0.4; MSE 0.0-0.1 <= 0.5\ngini = 0.5\nsamples = 2\nvalue = [1, 1]\nclass = SAS", fillcolor="#ffffff"] ;
779 -> 781 ;
782 [label="gini = 0.0\nsamples = 1\nvalue = [1, 0]\nclass = SAS", fillcolor="#e58139"] ;
781 -> 782 ;
783 [label="gini = 0.0\nsamples = 1\nvalue = [0, 1]\nclass = Neutral", fillcolor="#399de5"] ;
781 -> 783 ;
784 [label="Fst 0.35-0.4; MSE 0.1-0.2 <= 4.0\ngini = 0.44\nsamples = 3\nvalue = [1, 2]\nclass = Neutral", fillcolor="#9ccef2"] ;
776 -> 784 ;
785 [label="gini = 0.0\nsamples = 2\nvalue = [0, 2]\nclass = Neutral", fillcolor="#399de5"] ;
784 -> 785 ;
786 [label="gini = 0.0\nsamples = 1\nvalue = [1, 0]\nclass = SAS", fillcolor="#e58139"] ;
784 -> 786 ;
787 [label="gini = 0.0\nsamples = 4\nvalue = [0, 7]\nclass = Neutral", fillcolor="#399de5"] ;
775 -> 787 ;
788 [label="gini = 0.0\nsamples = 1\nvalue = [0, 1]\nclass = Neutral", fillcolor="#399de5"] ;
754 -> 788 ;
789 [label="gini = 0.0\nsamples = 1\nvalue = [2, 0]\nclass = SAS", fillcolor="#e58139"] ;
751 -> 789 ;
790 [label="Fst 0.55-0.6; MSE 0.3-0.4 <= 0.5\ngini = 0.42\nsamples = 21\nvalue = [11, 25]\nclass = Neutral", fillcolor="#90c8f0"] ;
750 -> 790 ;
791 [label="Fst 0.45-0.5; MSE 0.4-3.6 <= 0.5\ngini = 0.41\nsamples = 20\nvalue = [10, 25]\nclass = Neutral", fillcolor="#88c4ef"] ;
790 -> 791 ;
792 [label="Fst 0.5-0.55; MSE 0.1-0.2 <= 0.5\ngini = 0.37\nsamples = 19\nvalue = [8, 25]\nclass = Neutral", fillcolor="#78bced"] ;
791 -> 792 ;
793 [label="Fst 0.3-0.35; MSE 0.0-0.1 <= 6.5\ngini = 0.34\nsamples = 18\nvalue = [7, 25]\nclass = Neutral", fillcolor="#70b8ec"] ;
792 -> 793 ;
794 [label="Fst 0.4-0.45; MSE 0.2-0.3 <= 20.0\ngini = 0.15\nsamples = 12\nvalue = [2, 22]\nclass = Neutral", fillcolor="#4ba6e7"] ;
793 -> 794 ;
795 [label="Fst 0.35-0.4; MSE 0.1-0.2 <= 4.0\ngini = 0.08\nsamples = 11\nvalue = [1, 22]\nclass = Neutral", fillcolor="#42a1e6"] ;
794 -> 795 ;
796 [label="gini = 0.0\nsamples = 8\nvalue = [0, 17]\nclass = Neutral", fillcolor="#399de5"] ;
795 -> 796 ;
797 [label="Fst 0.35-0.4; MSE 0.2-0.3 <= 1.0\ngini = 0.28\nsamples = 3\nvalue = [1, 5]\nclass = Neutral", fillcolor="#61b1ea"] ;
795 -> 797 ;
798 [label="gini = 0.0\nsamples = 2\nvalue = [0, 5]\nclass = Neutral", fillcolor="#399de5"] ;
797 -> 798 ;
799 [label="gini = 0.0\nsamples = 1\nvalue = [1, 0]\nclass = SAS", fillcolor="#e58139"] ;
797 -> 799 ;
800 [label="gini = 0.0\nsamples = 1\nvalue = [1, 0]\nclass = SAS", fillcolor="#e58139"] ;
794 -> 800 ;
801 [label="Fst 0.2-0.25; MSE 0.0-0.1 <= 73.5\ngini = 0.47\nsamples = 6\nvalue = [5, 3]\nclass = SAS", fillcolor="#f5cdb0"] ;
793 -> 801 ;
802 [label="Fst 0.35-0.4; MSE 0.1-0.2 <= 1.5\ngini = 0.5\nsamples = 5\nvalue = [3, 3]\nclass = SAS", fillcolor="#ffffff"] ;
801 -> 802 ;
803 [label="gini = 0.0\nsamples = 2\nvalue = [2, 0]\nclass = SAS", fillcolor="#e58139"] ;
802 -> 803 ;
804 [label="Fst 0.25-0.3; MSE 0.0-0.1 <= 15.0\ngini = 0.38\nsamples = 3\nvalue = [1, 3]\nclass = Neutral", fillcolor="#7bbeee"] ;
802 -> 804 ;
