digraph Tree {
node [shape=box, style="filled, rounded", color="black", fontname=helvetica] ;
edge [fontname=helvetica] ;
0 [label="Fst 0.6-0.65; MSE 0.4-3.6 <= 4.5\ngini = 0.5\nsamples = 6271\nvalue = [5140, 4860]\nclass = SAS", fillcolor="#fef8f4"] ;
1 [label="Fst 0.55-0.6; MSE 0.4-3.6 <= 0.5\ngini = 0.5\nsamples = 5056\nvalue = [4051, 4060]\nclass = Neutral", fillcolor="#ffffff"] ;
0 -> 1 [labeldistance=2.5, labelangle=45, headlabel="True"] ;
2 [label="Fst 0.25-0.3; MSE 0.1-0.2 <= 46.5\ngini = 0.5\nsamples = 3853\nvalue = [3008, 3161]\nclass = Neutral", fillcolor="#f5fafe"] ;
1 -> 2 ;
3 [label="Fst 0.25-0.3; MSE 0.0-0.1 <= 2.5\ngini = 0.5\nsamples = 3840\nvalue = [2991, 3158]\nclass = Neutral", fillcolor="#f5fafe"] ;
2 -> 3 ;
4 [label="Fst 0.75-0.8; MSE 0.4-3.6 <= 0.5\ngini = 0.49\nsamples = 1057\nvalue = [718, 919]\nclass = Neutral", fillcolor="#d4eaf9"] ;
3 -> 4 ;
5 [label="Fst 0.95-1.01; MSE 0.4-3.6 <= 0.5\ngini = 0.49\nsamples = 994\nvalue = [653, 886]\nclass = Neutral", fillcolor="#cbe5f8"] ;
4 -> 5 ;
6 [label="Fst 0.35-0.4; MSE 0.3-0.4 <= 1.5\ngini = 0.49\nsamples = 979\nvalue = [633, 879]\nclass = Neutral", fillcolor="#c8e4f8"] ;
5 -> 6 ;
7 [label="Fst 0.7-0.75; MSE 0.4-3.6 <= 8.5\ngini = 0.48\nsamples = 928\nvalue = [589, 849]\nclass = Neutral", fillcolor="#c2e1f7"] ;
6 -> 7 ;
8 [label="Fst 0.15-0.2; MSE 0.0-0.1 <= 95.5\ngini = 0.48\nsamples = 909\nvalue = [569, 840]\nclass = Neutral", fillcolor="#bfdff7"] ;
7 -> 8 ;
9 [label="Fst 0.3-0.35; MSE 0.0-0.1 <= 15.0\ngini = 0.48\nsamples = 904\nvalue = [562, 840]\nclass = Neutral", fillcolor="#bddff6"] ;
8 -> 9 ;
10 [label="Fst 0.2-0.25; MSE 0.0-0.1 <= 30.5\ngini = 0.48\nsamples = 900\nvalue = [556, 840]\nclass = Neutral", fillcolor="#bcdef6"] ;
9 -> 10 ;
11 [label="Fst 0.5-0.55; MSE 0.4-3.6 <= 9.5\ngini = 0.47\nsamples = 667\nvalue = [394, 658]\nclass = Neutral", fillcolor="#b0d8f5"] ;
10 -> 11 ;
12 [label="Fst 0.5-0.55; MSE 0.4-3.6 <= 6.5\ngini = 0.46\nsamples = 638\nvalue = [369, 636]\nclass = Neutral", fillcolor="#acd6f4"] ;
11 -> 12 ;
13 [label="Fst 0.45-0.5; MSE 0.2-0.3 <= 0.5\ngini = 0.47\nsamples = 626\nvalue = [366, 616]\nclass = Neutral", fillcolor="#afd7f4"] ;
12 -> 13 ;
14 [label="Fst 0.35-0.4; MSE 0.4-3.6 <= 0.5\ngini = 0.46\nsamples = 575\nvalue = [323, 568]\nclass = Neutral", fillcolor="#aad5f4"] ;
13 -> 14 ;
15 [label="Fst 0.45-0.5; MSE 0.3-0.4 <= 2.5\ngini = 0.46\nsamples = 571\nvalue = [317, 567]\nclass = Neutral", fillcolor="#a8d4f4"] ;
14 -> 15 ;
16 [label="Fst 0.4-0.45; MSE 0.4-3.6 <= 8.5\ngini = 0.45\nsamples = 536\nvalue = [289, 539]\nclass = Neutral", fillcolor="#a3d2f3"] ;
15 -> 16 ;
17 [label="Fst 0.05-0.1; MSE 0.0-0.1 <= 12.5\ngini = 0.45\nsamples = 535\nvalue = [285, 539]\nclass = Neutral", fillcolor="#a2d1f3"] ;
16 -> 17 ;
18 [label="Fst 0.15-0.2; MSE 0.0-0.1 <= 22.5\ngini = 0.46\nsamples = 470\nvalue = [261, 461]\nclass = Neutral", fillcolor="#a9d4f4"] ;
17 -> 18 ;
19 [label="Fst 0.35-0.4; MSE 0.1-0.2 <= 1.5\ngini = 0.26\nsamples = 35\nvalue = [8, 44]\nclass = Neutral", fillcolor="#5dafea"] ;
18 -> 19 ;
20 [label="Fst 0.4-0.45; MSE 0.3-0.4 <= 0.5\ngini = 0.43\nsamples = 19\nvalue = [8, 18]\nclass = Neutral", fillcolor="#91c9f1"] ;
19 -> 20 ;
21 [label="Fst 0.2-0.25; MSE 0.1-0.2 <= 1.5\ngini = 0.49\nsamples = 15\nvalue = [8, 11]\nclass = Neutral", fillcolor="#c9e4f8"] ;
20 -> 21 ;
22 [label="Fst 0.2-0.25; MSE 0.1-0.2 <= 0.5\ngini = 0.41\nsamples = 11\nvalue = [4, 10]\nclass = Neutral", fillcolor="#88c4ef"] ;
21 -> 22 ;
23 [label="Fst 0.25-0.3; MSE 0.0-0.1 <= 1.5\ngini = 0.5\nsamples = 8\nvalue = [4, 4]\nclass = SAS", fillcolor="#ffffff"] ;
22 -> 23 ;
24 [label="Fst 0.05-0.1; MSE 0.0-0.1 <= 6.0\ngini = 0.49\nsamples = 7\nvalue = [4, 3]\nclass = SAS", fillcolor="#f8e0ce"] ;
23 -> 24 ;
25 [label="gini = 0.0\nsamples = 1\nvalue = [0, 1]\nclass = Neutral", fillcolor="#399de5"] ;
24 -> 25 ;
26 [label="Fst 0.35-0.4; MSE 0.1-0.2 <= 0.5\ngini = 0.44\nsamples = 6\nvalue = [4, 2]\nclass = SAS", fillcolor="#f2c09c"] ;
24 -> 26 ;
27 [label="Fst 0.2-0.25; MSE 0.0-0.1 <= 20.5\ngini = 0.38\nsamples = 4\nvalue = [3, 1]\nclass = SAS", fillcolor="#eeab7b"] ;
26 -> 27 ;
28 [label="Fst 0.15-0.2; MSE 0.0-0.1 <= 14.5\ngini = 0.5\nsamples = 2\nvalue = [1, 1]\nclass = SAS", fillcolor="#ffffff"] ;
27 -> 28 ;
29 [label="gini = 0.0\nsamples = 1\nvalue = [1, 0]\nclass = SAS", fillcolor="#e58139"] ;
28 -> 29 ;
30 [label="gini = 0.0\nsamples = 1\nvalue = [0, 1]\nclass = Neutral", fillcolor="#399de5"] ;
28 -> 30 ;
31 [label="gini = 0.0\nsamples = 2\nvalue = [2, 0]\nclass = SAS", fillcolor="#e58139"] ;
27 -> 31 ;
32 [label="Fst 0.25-0.3; MSE 0.1-0.2 <= 2.0\ngini = 0.5\nsamples = 2\nvalue = [1, 1]\nclass = SAS", fillcolor="#ffffff"] ;
26 -> 32 ;
33 [label="gini = 0.0\nsamples = 1\nvalue = [0, 1]\nclass = Neutral", fillcolor="#399de5"] ;
32 -> 33 ;
34 [label="gini = 0.0\nsamples = 1\nvalue = [1, 0]\nclass = SAS", fillcolor="#e58139"] ;
32 -> 34 ;
35 [label="gini = 0.0\nsamples = 1\nvalue = [0, 1]\nclass = Neutral", fillcolor="#399de5"] ;
23 -> 35 ;
36 [label="gini = 0.0\nsamples = 3\nvalue = [0, 6]\nclass = Neutral", fillcolor="#399de5"] ;
22 -> 36 ;
37 [label="Fst 0.5-0.55; MSE 0.4-3.6 <= 1.0\ngini = 0.32\nsamples = 4\nvalue = [4, 1]\nclass = SAS", fillcolor="#eca06a"] ;
21 -> 37 ;
38 [label="gini = 0.0\nsamples = 3\nvalue = [4, 0]\nclass = SAS", fillcolor="#e58139"] ;
37 -> 38 ;
39 [label="gini = 0.0\nsamples = 1\nvalue = [0, 1]\nclass = Neutral", fillcolor="#399de5"] ;
37 -> 39 ;
40 [label="gini = 0.0\nsamples = 4\nvalue = [0, 7]\nclass = Neutral", fillcolor="#399de5"] ;
20 -> 40 ;
41 [label="gini = 0.0\nsamples = 16\nvalue = [0, 26]\nclass = Neutral", fillcolor="#399de5"] ;
19 -> 41 ;
42 [label="Fst 0.5-0.55; MSE 0.4-3.6 <= 4.5\ngini = 0.47\nsamples = 435\nvalue = [253, 417]\nclass = Neutral", fillcolor="#b1d8f5"] ;
18 -> 42 ;
43 [label="Fst 0.4-0.45; MSE 0.4-3.6 <= 6.5\ngini = 0.47\nsamples = 421\nvalue = [240, 410]\nclass = Neutral", fillcolor="#add6f4"] ;
42 -> 43 ;
44 [label="Fst 0.4-0.45; MSE 0.1-0.2 <= 0.5\ngini = 0.46\nsamples = 420\nvalue = [238, 410]\nclass = Neutral", fillcolor="#acd6f4"] ;
43 -> 44 ;
45 [label="Fst 0.15-0.2; MSE 0.1-0.2 <= 0.5\ngini = 0.46\nsamples = 369\nvalue = [202, 365]\nclass = Neutral", fillcolor="#a7d3f3"] ;
44 -> 45 ;
46 [label="Fst 0.25-0.3; MSE 0.1-0.2 <= 27.5\ngini = 0.46\nsamples = 364\nvalue = [196, 363]\nclass = Neutral", fillcolor="#a4d2f3"] ;
45 -> 46 ;
47 [label="Fst 0.85-0.9; MSE 0.4-3.6 <= 14.5\ngini = 0.46\nsamples = 361\nvalue = [196, 357]\nclass = Neutral", fillcolor="#a6d3f3"] ;
46 -> 47 ;
48 [label="Fst 0.6-0.65; MSE 0.4-3.6 <= 0.5\ngini = 0.46\nsamples = 360\nvalue = [193, 357]\nclass = Neutral", fillcolor="#a4d2f3"] ;
47 -> 48 ;
49 [label="Fst 0.3-0.35; MSE 0.2-0.3 <= 2.5\ngini = 0.47\nsamples = 303\nvalue = [171, 294]\nclass = Neutral", fillcolor="#acd6f4"] ;
48 -> 49 ;
50 [label="Fst 0.5-0.55; MSE 0.4-3.6 <= 0.5\ngini = 0.47\nsamples = 270\nvalue = [161, 254]\nclass = Neutral", fillcolor="#b7dbf5"] ;
49 -> 50 ;
51 [label="Fst 0.25-0.3; MSE 0.1-0.2 <= 9.5\ngini = 0.47\nsamples = 233\nvalue = [131, 221]\nclass = Neutral", fillcolor="#aed7f4"] ;
50 -> 51 ;
52 [label="Fst 0.25-0.3; MSE 0.0-0.1 <= 0.5\ngini = 0.45\nsamples = 190\nvalue = [99, 187]\nclass = Neutral", fillcolor="#a2d1f3"] ;
51 -> 52 ;
53 [label="Fst 0.15-0.2; MSE 0.0-0.1 <= 36.5\ngini = 0.36\nsamples = 82\nvalue = [31, 100]\nclass = Neutral", fillcolor="#76bbed"] ;
52 -> 53 ;
54 [label="Fst 0.2-0.25; MSE 0.1-0.2 <= 0.5\ngini = 0.48\nsamples = 27\nvalue = [17, 25]\nclass = Neutral", fillcolor="#c0e0f7"] ;
53 -> 54 ;
55 [label="Fst 0.35-0.4; MSE 0.2-0.3 <= 4.0\ngini = 0.36\nsamples = 12\nvalue = [5, 16]\nclass = Neutral", fillcolor="#77bced"] ;
54 -> 55 ;
56 [label="Fst 0.15-0.2; MSE 0.0-0.1 <= 35.5\ngini = 0.39\nsamples = 11\nvalue = [5, 14]\nclass = Neutral", fillcolor="#80c0ee"] ;
55 -> 56 ;
57 [label="Fst 0.25-0.3; MSE 0.1-0.2 <= 2.5\ngini = 0.35\nsamples = 10\nvalue = [4, 14]\nclass = Neutral", fillcolor="#72b9ec"] ;
56 -> 57 ;
58 [label="gini = 0.0\nsamples = 4\nvalue = [0, 8]\nclass = Neutral", fillcolor="#399de5"] ;
57 -> 58 ;
59 [label="Fst 0.15-0.2; MSE 0.0-0.1 <= 29.0\ngini = 0.48\nsamples = 6\nvalue = [4, 6]\nclass = Neutral", fillcolor="#bddef6"] ;
57 -> 59 ;
60 [label="gini = 0.0\nsamples = 2\nvalue = [0, 3]\nclass = Neutral", fillcolor="#399de5"] ;
59 -> 60 ;
61 [label="Fst 0.15-0.2; MSE 0.0-0.1 <= 31.5\ngini = 0.49\nsamples = 4\nvalue = [4, 3]\nclass = SAS", fillcolor="#f8e0ce"] ;
59 -> 61 ;
62 [label="gini = 0.0\nsamples = 2\nvalue = [4, 0]\nclass = SAS", fillcolor="#e58139"] ;
61 -> 62 ;
63 [label="gini = 0.0\nsamples = 2\nvalue = [0, 3]\nclass = Neutral", fillcolor="#399de5"] ;
61 -> 63 ;
64 [label="gini = 0.0\nsamples = 1\nvalue = [1, 0]\nclass = SAS", fillcolor="#e58139"] ;
56 -> 64 ;
65 [label="gini = 0.0\nsamples = 1\nvalue = [0, 2]\nclass = Neutral", fillcolor="#399de5"] ;
55 -> 65 ;
66 [label="Fst 0.65-0.7; MSE 0.4-3.6 <= 1.5\ngini = 0.49\nsamples = 15\nvalue = [12, 9]\nclass = SAS", fillcolor="#f8e0ce"] ;
54 -> 66 ;
67 [label="Fst 0.05-0.1; MSE 0.0-0.1 <= 9.5\ngini = 0.47\nsamples = 14\nvalue = [12, 7]\nclass = SAS", fillcolor="#f4caac"] ;
66 -> 67 ;
68 [label="Fst 0.2-0.25; MSE 0.1-0.2 <= 1.5\ngini = 0.5\nsamples = 11\nvalue = [8, 7]\nclass = SAS", fillcolor="#fcefe6"] ;
67 -> 68 ;
69 [label="gini = 0.0\nsamples = 2\nvalue = [4, 0]\nclass = SAS", fillcolor="#e58139"] ;
68 -> 69 ;
70 [label="Fst 0.5-0.55; MSE 0.3-0.4 <= 1.0\ngini = 0.46\nsamples = 9\nvalue = [4, 7]\nclass = Neutral", fillcolor="#aad5f4"] ;
68 -> 70 ;
71 [label="Fst 0.4-0.45; MSE 0.2-0.3 <= 2.5\ngini = 0.35\nsamples = 8\nvalue = [2, 7]\nclass = Neutral", fillcolor="#72b9ec"] ;
70 -> 71 ;
72 [label="Fst 0.45-0.5; MSE 0.3-0.4 <= 0.5\ngini = 0.44\nsamples = 3\nvalue = [2, 1]\nclass = SAS", fillcolor="#f2c09c"] ;
71 -> 72 ;
73 [label="gini = 0.0\nsamples = 1\nvalue = [1, 0]\nclass = SAS", fillcolor="#e58139"] ;
72 -> 73 ;
74 [label="Fst 0.2-0.25; MSE 0.1-0.2 <= 3.0\ngini = 0.5\nsamples = 2\nvalue = [1, 1]\nclass = SAS", fillcolor="#ffffff"] ;
72 -> 74 ;
75 [label="gini = 0.0\nsamples = 1\nvalue = [0, 1]\nclass = Neutral", fillcolor="#399de5"] ;
74 -> 75 ;
76 [label="gini = 0.0\nsamples = 1\nvalue = [1, 0]\nclass = SAS", fillcolor="#e58139"] ;
74 -> 76 ;
77 [label="gini = 0.0\nsamples = 5\nvalue = [0, 6]\nclass = Neutral", fillcolor="#399de5"] ;
71 -> 77 ;
78 [label="gini = 0.0\nsamples = 1\nvalue = [2, 0]\nclass = SAS", fillcolor="#e58139"] ;
70 -> 78 ;
79 [label="gini = 0.0\nsamples = 3\nvalue = [4, 0]\nclass = SAS", fillcolor="#e58139"] ;
67 -> 79 ;
80 [label="gini = 0.0\nsamples = 1\nvalue = [0, 2]\nclass = Neutral", fillcolor="#399de5"] ;
66 -> 80 ;
81 [label="Fst 0.45-0.5; MSE 0.4-3.6 <= 2.5\ngini = 0.27\nsamples = 55\nvalue = [14, 75]\nclass = Neutral", fillcolor="#5eafea"] ;
53 -> 81 ;
82 [label="Fst 0.1-0.15; MSE 0.0-0.1 <= 85.5\ngini = 0.25\nsamples = 54\nvalue = [13, 75]\nclass = Neutral", fillcolor="#5baeea"] ;
81 -> 82 ;
83 [label="Fst 0.3-0.35; MSE 0.1-0.2 <= 0.5\ngini = 0.31\nsamples = 40\nvalue = [12, 51]\nclass = Neutral", fillcolor="#68b4eb"] ;
82 -> 83 ;
84 [label="Fst 0.2-0.25; MSE 0.0-0.1 <= 18.0\ngini = 0.47\nsamples = 7\nvalue = [5, 3]\nclass = SAS", fillcolor="#f5cdb0"] ;
83 -> 84 ;
85 [label="Fst 0.05-0.1; MSE 0.0-0.1 <= 3.5\ngini = 0.48\nsamples = 4\nvalue = [2, 3]\nclass = Neutral", fillcolor="#bddef6"] ;
84 -> 85 ;
86 [label="gini = 0.0\nsamples = 1\nvalue = [0, 2]\nclass = Neutral", fillcolor="#399de5"] ;
85 -> 86 ;
87 [label="Fst 0.45-0.5; MSE 0.4-3.6 <= 0.5\ngini = 0.44\nsamples = 3\nvalue = [2, 1]\nclass = SAS", fillcolor="#f2c09c"] ;
85 -> 87 ;
88 [label="gini = 0.0\nsamples = 2\nvalue = [2, 0]\nclass = SAS", fillcolor="#e58139"] ;
87 -> 88 ;
89 [label="gini = 0.0\nsamples = 1\nvalue = [0, 1]\nclass = Neutral", fillcolor="#399de5"] ;
87 -> 89 ;
90 [label="gini = 0.0\nsamples = 3\nvalue = [3, 0]\nclass = SAS", fillcolor="#e58139"] ;
84 -> 90 ;
91 [label="Fst 0.35-0.4; MSE 0.2-0.3 <= 6.5\ngini = 0.22\nsamples = 33\nvalue = [7, 48]\nclass = Neutral", fillcolor="#56abe9"] ;
83 -> 91 ;
92 [label="Fst 0.4-0.45; MSE 0.2-0.3 <= 3.5\ngini = 0.2\nsamples = 32\nvalue = [6, 48]\nclass = Neutral", fillcolor="#52a9e8"] ;
91 -> 92 ;
93 [label="Fst 0.45-0.5; MSE 0.4-3.6 <= 0.5\ngini = 0.23\nsamples = 26\nvalue = [6, 39]\nclass = Neutral", fillcolor="#57ace9"] ;
92 -> 93 ;
94 [label="Fst 0.25-0.3; MSE 0.1-0.2 <= 1.5\ngini = 0.25\nsamples = 24\nvalue = [6, 35]\nclass = Neutral", fillcolor="#5baee9"] ;
93 -> 94 ;
95 [label="Fst 0.05-0.1; MSE 0.0-0.1 <= 3.5\ngini = 0.4\nsamples = 10\nvalue = [5, 13]\nclass = Neutral", fillcolor="#85c3ef"] ;
94 -> 95 ;
96 [label="Fst 0.35-0.4; MSE 0.1-0.2 <= 3.0\ngini = 0.5\nsamples = 7\nvalue = [5, 5]\nclass = SAS", fillcolor="#ffffff"] ;
95 -> 96 ;
97 [label="Fst 0.35-0.4; MSE 0.1-0.2 <= 1.0\ngini = 0.41\nsamples = 4\nvalue = [5, 2]\nclass = SAS", fillcolor="#efb388"] ;
96 -> 97 ;
98 [label="Fst 0.15-0.2; MSE 0.0-0.1 <= 63.5\ngini = 0.48\nsamples = 3\nvalue = [3, 2]\nclass = SAS", fillcolor="#f6d5bd"] ;
97 -> 98 ;
99 [label="gini = 0.0\nsamples = 2\nvalue = [3, 0]\nclass = SAS", fillcolor="#e58139"] ;
98 -> 99 ;
100 [label="gini = 0.0\nsamples = 1\nvalue = [0, 2]\nclass = Neutral", fillcolor="#399de5"] ;
98 -> 100 ;
101 [label="gini = 0.0\nsamples = 1\nvalue = [2, 0]\nclass = SAS", fillcolor="#e58139"] ;
97 -> 101 ;
102 [label="gini = 0.0\nsamples = 3\nvalue = [0, 3]\nclass = Neutral", fillcolor="#399de5"] ;
96 -> 102 ;
103 [label="gini = 0.0\nsamples = 3\nvalue = [0, 8]\nclass = Neutral", fillcolor="#399de5"] ;
95 -> 103 ;
104 [label="Fst 0.3-0.35; MSE 0.1-0.2 <= 2.5\ngini = 0.08\nsamples = 14\nvalue = [1, 22]\nclass = Neutral", fillcolor="#42a1e6"] ;
94 -> 104 ;
105 [label="Fst 0.4-0.45; MSE 0.3-0.4 <= 0.5\ngini = 0.13\nsamples = 8\nvalue = [1, 13]\nclass = Neutral", fillcolor="#48a5e7"] ;
104 -> 105 ;
106 [label="Fst 0.35-0.4; MSE 0.2-0.3 <= 1.5\ngini = 0.24\nsamples = 5\nvalue = [1, 6]\nclass = Neutral", fillcolor="#5aade9"] ;
105 -> 106 ;
107 [label="gini = 0.0\nsamples = 3\nvalue = [0, 5]\nclass = Neutral", fillcolor="#399de5"] ;
106 -> 107 ;
108 [label="Fst 0.2-0.25; MSE 0.0-0.1 <= 16.5\ngini = 0.5\nsamples = 2\nvalue = [1, 1]\nclass = SAS", fillcolor="#ffffff"] ;
106 -> 108 ;
109 [label="gini = 0.0\nsamples = 1\nvalue = [1, 0]\nclass = SAS", fillcolor="#e58139"] ;
108 -> 109 ;
110 [label="gini = 0.0\nsamples = 1\nvalue = [0, 1]\nclass = Neutral", fillcolor="#399de5"] ;
108 -> 110 ;
111 [label="gini = 0.0\nsamples = 3\nvalue = [0, 7]\nclass = Neutral", fillcolor="#399de5"] ;
105 -> 111 ;
112 [label="gini = 0.0\nsamples = 6\nvalue = [0, 9]\nclass = Neutral", fillcolor="#399de5"] ;
104 -> 112 ;
113 [label="gini = 0.0\nsamples = 2\nvalue = [0, 4]\nclass = Neutral", fillcolor="#399de5"] ;
93 -> 113 ;
114 [label="gini = 0.0\nsamples = 6\nvalue = [0, 9]\nclass = Neutral", fillcolor="#399de5"] ;
92 -> 114 ;
115 [label="gini = 0.0\nsamples = 1\nvalue = [1, 0]\nclass = SAS", fillcolor="#e58139"] ;
91 -> 115 ;
116 [label="Fst 0.2-0.25; MSE 0.0-0.1 <= 10.5\ngini = 0.08\nsamples = 14\nvalue = [1, 24]\nclass = Neutral", fillcolor="#41a1e6"] ;
82 -> 116 ;
117 [label="Fst 0.85-0.9; MSE 0.4-3.6 <= 1.0\ngini = 0.24\nsamples = 5\nvalue = [1, 6]\nclass = Neutral", fillcolor="#5aade9"] ;
116 -> 117 ;
118 [label="Fst 0.3-0.35; MSE 0.1-0.2 <= 0.5\ngini = 0.32\nsamples = 4\nvalue = [1, 4]\nclass = Neutral", fillcolor="#6ab6ec"] ;
117 -> 118 ;
119 [label="Fst 0.3-0.35; MSE 0.2-0.3 <= 0.5\ngini = 0.44\nsamples = 3\nvalue = [1, 2]\nclass = Neutral", fillcolor="#9ccef2"] ;
118 -> 119 ;
120 [label="Fst 0.2-0.25; MSE 0.0-0.1 <= 8.5\ngini = 0.5\nsamples = 2\nvalue = [1, 1]\nclass = SAS", fillcolor="#ffffff"] ;
119 -> 120 ;
121 [label="gini = 0.0\nsamples = 1\nvalue = [0, 1]\nclass = Neutral", fillcolor="#399de5"] ;
120 -> 121 ;
122 [label="gini = 0.0\nsamples = 1\nvalue = [1, 0]\nclass = SAS", fillcolor="#e58139"] ;
120 -> 122 ;
123 [label="gini = 0.0\nsamples = 1\nvalue = [0, 1]\nclass = Neutral", fillcolor="#399de5"] ;
119 -> 123 ;
124 [label="gini = 0.0\nsamples = 1\nvalue = [0, 2]\nclass = Neutral", fillcolor="#399de5"] ;
118 -> 124 ;
125 [label="gini = 0.0\nsamples = 1\nvalue = [0, 2]\nclass = Neutral", fillcolor="#399de5"] ;
117 -> 125 ;
126 [label="gini = 0.0\nsamples = 9\nvalue = [0, 18]\nclass = Neutral", fillcolor="#399de5"] ;
116 -> 126 ;
127 [label="gini = 0.0\nsamples = 1\nvalue = [1, 0]\nclass = SAS", fillcolor="#e58139"] ;
81 -> 127 ;
128 [label="Fst 0.05-0.1; MSE 0.0-0.1 <= 1.5\ngini = 0.49\nsamples = 108\nvalue = [68, 87]\nclass = Neutral", fillcolor="#d4eaf9"] ;
52 -> 128 ;
129 [label="Fst 0.3-0.35; MSE 0.1-0.2 <= 10.5\ngini = 0.49\nsamples = 39\nvalue = [30, 22]\nclass = SAS", fillcolor="#f8ddca"] ;
128 -> 129 ;
130 [label="Fst 0.4-0.45; MSE 0.3-0.4 <= 7.0\ngini = 0.47\nsamples = 35\nvalue = [30, 18]\nclass = SAS", fillcolor="#f5cdb0"] ;
129 -> 130 ;
131 [label="Fst 0.2-0.25; MSE 0.1-0.2 <= 2.5\ngini = 0.45\nsamples = 34\nvalue = [30, 16]\nclass = SAS", fillcolor="#f3c4a3"] ;
130 -> 131 ;
132 [label="Fst 0.5-0.55; MSE 0.3-0.4 <= 0.5\ngini = 0.43\nsamples = 28\nvalue = [26, 12]\nclass = SAS", fillcolor="#f1bb94"] ;
131 -> 132 ;
133 [label="Fst 0.35-0.4; MSE 0.2-0.3 <= 8.5\ngini = 0.44\nsamples = 27\nvalue = [25, 12]\nclass = SAS", fillcolor="#f1bd98"] ;
132 -> 133 ;
134 [label="Fst 0.15-0.2; MSE 0.0-0.1 <= 35.5\ngini = 0.46\nsamples = 25\nvalue = [22, 12]\nclass = SAS", fillcolor="#f3c6a5"] ;
133 -> 134 ;
135 [label="Fst 0.35-0.4; MSE 0.1-0.2 <= 0.5\ngini = 0.41\nsamples = 5\nvalue = [2, 5]\nclass = Neutral", fillcolor="#88c4ef"] ;
134 -> 135 ;
136 [label="Fst 0.1-0.15; MSE 0.0-0.1 <= 83.0\ngini = 0.44\nsamples = 2\nvalue = [2, 1]\nclass = SAS", fillcolor="#f2c09c"] ;
135 -> 136 ;
137 [label="gini = 0.0\nsamples = 1\nvalue = [0, 1]\nclass = Neutral", fillcolor="#399de5"] ;
136 -> 137 ;
138 [label="gini = 0.0\nsamples = 1\nvalue = [2, 0]\nclass = SAS", fillcolor="#e58139"] ;
136 -> 138 ;
139 [label="gini = 0.0\nsamples = 3\nvalue = [0, 4]\nclass = Neutral", fillcolor="#399de5"] ;
135 -> 139 ;
140 [label="Fst 0.1-0.15; MSE 0.0-0.1 <= 83.5\ngini = 0.38\nsamples = 20\nvalue = [20, 7]\nclass = SAS", fillcolor="#eead7e"] ;
134 -> 140 ;
141 [label="Fst 0.3-0.35; MSE 0.2-0.3 <= 0.5\ngini = 0.47\nsamples = 15\nvalue = [12, 7]\nclass = SAS", fillcolor="#f4caac"] ;
140 -> 141 ;
142 [label="Fst 0.2-0.25; MSE 0.1-0.2 <= 0.5\ngini = 0.39\nsamples = 12\nvalue = [11, 4]\nclass = SAS", fillcolor="#eeaf81"] ;
141 -> 142 ;
143 [label="Fst 0.25-0.3; MSE 0.0-0.1 <= 1.5\ngini = 0.28\nsamples = 9\nvalue = [10, 2]\nclass = SAS", fillcolor="#ea9a61"] ;
142 -> 143 ;
144 [label="gini = 0.0\nsamples = 2\nvalue = [3, 0]\nclass = SAS", fillcolor="#e58139"] ;
143 -> 144 ;
145 [label="Fst 0.4-0.45; MSE 0.3-0.4 <= 0.5\ngini = 0.35\nsamples = 7\nvalue = [7, 2]\nclass = SAS", fillcolor="#eca572"] ;
143 -> 145 ;
146 [label="gini = 0.0\nsamples = 4\nvalue = [5, 0]\nclass = SAS", fillcolor="#e58139"] ;
145 -> 146 ;
147 [label="Fst 0.15-0.2; MSE 0.0-0.1 <= 53.0\ngini = 0.5\nsamples = 3\nvalue = [2, 2]\nclass = SAS", fillcolor="#ffffff"] ;
145 -> 147 ;
148 [label="gini = 0.0\nsamples = 1\nvalue = [0, 2]\nclass = Neutral", fillcolor="#399de5"] ;
147 -> 148 ;
149 [label="gini = 0.0\nsamples = 2\nvalue = [2, 0]\nclass = SAS", fillcolor="#e58139"] ;
147 -> 149 ;
150 [label="Fst 0.45-0.5; MSE 0.3-0.4 <= 0.5\ngini = 0.44\nsamples = 3\nvalue = [1, 2]\nclass = Neutral", fillcolor="#9ccef2"] ;
142 -> 150 ;
151 [label="gini = 0.0\nsamples = 1\nvalue = [0, 1]\nclass = Neutral", fillcolor="#399de5"] ;
150 -> 151 ;
152 [label="Fst 0.15-0.2; MSE 0.0-0.1 <= 69.5\ngini = 0.5\nsamples = 2\nvalue = [1, 1]\nclass = SAS", fillcolor="#ffffff"] ;
150 -> 152 ;
153 [label="gini = 0.0\nsamples = 1\nvalue = [1, 0]\nclass = SAS", fillcolor="#e58139"] ;
152 -> 153 ;
154 [label="gini = 0.0\nsamples = 1\nvalue = [0, 1]\nclass = Neutral", fillcolor="#399de5"] ;
152 -> 154 ;
155 [label="Fst 0.4-0.45; MSE 0.3-0.4 <= 1.0\ngini = 0.38\nsamples = 3\nvalue = [1, 3]\nclass = Neutral", fillcolor="#7bbeee"] ;
141 -> 155 ;
156 [label="gini = 0.0\nsamples = 2\nvalue = [0, 3]\nclass = Neutral", fillcolor="#399de5"] ;
155 -> 156 ;
157 [label="gini = 0.0\nsamples = 1\nvalue = [1, 0]\nclass = SAS", fillcolor="#e58139"] ;
155 -> 157 ;
158 [label="gini = 0.0\nsamples = 5\nvalue = [8, 0]\nclass = SAS", fillcolor="#e58139"] ;
140 -> 158 ;
159 [label="gini = 0.0\nsamples = 2\nvalue = [3, 0]\nclass = SAS", fillcolor="#e58139"] ;
133 -> 159 ;
160 [label="gini = 0.0\nsamples = 1\nvalue = [1, 0]\nclass = SAS", fillcolor="#e58139"] ;
132 -> 160 ;
161 [label="Fst 0.1-0.15; MSE 0.0-0.1 <= 71.0\ngini = 0.5\nsamples = 6\nvalue = [4, 4]\nclass = SAS", fillcolor="#ffffff"] ;
131 -> 161 ;
162 [label="gini = 0.0\nsamples = 2\nvalue = [4, 0]\nclass = SAS", fillcolor="#e58139"] ;
161 -> 162 ;
163 [label="gini = 0.0\nsamples = 4\nvalue = [0, 4]\nclass = Neutral", fillcolor="#399de5"] ;
161 -> 163 ;
164 [label="gini = 0.0\nsamples = 1\nvalue = [0, 2]\nclass = Neutral", fillcolor="#399de5"] ;
130 -> 164 ;
165 [label="gini = 0.0\nsamples = 4\nvalue = [0, 4]\nclass = Neutral", fillcolor="#399de5"] ;
129 -> 165 ;
166 [label="Fst 0.3-0.35; MSE 0.2-0.3 <= 0.5\ngini = 0.47\nsamples = 69\nvalue = [38, 65]\nclass = Neutral", fillcolor="#add6f4"] ;
128 -> 166 ;
167 [label="Fst 0.45-0.5; MSE 0.4-3.6 <= 0.5\ngini = 0.45\nsamples = 58\nvalue = [29, 54]\nclass = Neutral", fillcolor="#a3d2f3"] ;
166 -> 167 ;
168 [label="Fst 0.25-0.3; MSE 0.1-0.2 <= 1.5\ngini = 0.44\nsamples = 53\nvalue = [25, 52]\nclass = Neutral", fillcolor="#98ccf2"] ;
167 -> 168 ;
169 [label="Fst 0.4-0.45; MSE 0.2-0.3 <= 0.5\ngini = 0.49\nsamples = 28\nvalue = [17, 22]\nclass = Neutral", fillcolor="#d2e9f9"] ;
168 -> 169 ;
170 [label="Fst 0.2-0.25; MSE 0.1-0.2 <= 8.0\ngini = 0.47\nsamples = 20\nvalue = [10, 17]\nclass = Neutral", fillcolor="#add7f4"] ;
169 -> 170 ;
171 [label="Fst 0.1-0.15; MSE 0.0-0.1 <= 60.0\ngini = 0.44\nsamples = 19\nvalue = [8, 17]\nclass = Neutral", fillcolor="#96cbf1"] ;
170 -> 171 ;
172 [label="gini = 0.0\nsamples = 2\nvalue = [0, 4]\nclass = Neutral", fillcolor="#399de5"] ;
171 -> 172 ;
173 [label="Fst 0.35-0.4; MSE 0.1-0.2 <= 1.5\ngini = 0.47\nsamples = 17\nvalue = [8, 13]\nclass = Neutral", fillcolor="#b3d9f5"] ;
171 -> 173 ;
174 [label="Fst 0.1-0.15; MSE 0.0-0.1 <= 74.0\ngini = 0.49\nsamples = 15\nvalue = [8, 11]\nclass = Neutral", fillcolor="#c9e4f8"] ;
173 -> 174 ;
175 [label="gini = 0.0\nsamples = 2\nvalue = [3, 0]\nclass = SAS", fillcolor="#e58139"] ;
174 -> 175 ;
176 [label="Fst 0.3-0.35; MSE 0.1-0.2 <= 0.5\ngini = 0.43\nsamples = 13\nvalue = [5, 11]\nclass = Neutral", fillcolor="#93caf1"] ;
174 -> 176 ;
177 [label="Fst 0.2-0.25; MSE 0.1-0.2 <= 1.0\ngini = 0.49\nsamples = 7\nvalue = [3, 4]\nclass = Neutral", fillcolor="#cee6f8"] ;
176 -> 177 ;
178 [label="Fst 0.25-0.3; MSE 0.0-0.1 <= 1.5\ngini = 0.5\nsamples = 6\nvalue = [3, 3]\nclass = SAS", fillcolor="#ffffff"] ;
177 -> 178 ;
179 [label="Fst 0.2-0.25; MSE 0.0-0.1 <= 20.0\ngini = 0.44\nsamples = 3\nvalue = [1, 2]\nclass = Neutral", fillcolor="#9ccef2"] ;
178 -> 179 ;
180 [label="gini = 0.0\nsamples = 2\nvalue = [0, 2]\nclass = Neutral", fillcolor="#399de5"] ;
179 -> 180 ;
181 [label="gini = 0.0\nsamples = 1\nvalue = [1, 0]\nclass = SAS", fillcolor="#e58139"] ;
179 -> 181 ;
182 [label="Fst 0.2-0.25; MSE 0.0-0.1 <= 10.5\ngini = 0.44\nsamples = 3\nvalue = [2, 1]\nclass = SAS", fillcolor="#f2c09c"] ;
178 -> 182 ;
183 [label="gini = 0.0\nsamples = 1\nvalue = [1, 0]\nclass = SAS", fillcolor="#e58139"] ;
182 -> 183 ;
184 [label="Fst 0.3-0.35; MSE 0.0-0.1 <= 2.0\ngini = 0.5\nsamples = 2\nvalue = [1, 1]\nclass = SAS", fillcolor="#ffffff"] ;
182 -> 184 ;
185 [label="gini = 0.0\nsamples = 1\nvalue = [1, 0]\nclass = SAS", fillcolor="#e58139"] ;
184 -> 185 ;
186 [label="gini = 0.0\nsamples = 1\nvalue = [0, 1]\nclass = Neutral", fillcolor="#399de5"] ;
184 -> 186 ;
187 [label="gini = 0.0\nsamples = 1\nvalue = [0, 1]\nclass = Neutral", fillcolor="#399de5"] ;
177 -> 187 ;
188 [label="Fst 0.25-0.3; MSE 0.0-0.1 <= 1.5\ngini = 0.35\nsamples = 6\nvalue = [2, 7]\nclass = Neutral", fillcolor="#72b9ec"] ;
176 -> 188 ;
189 [label="Fst 0.3-0.35; MSE 0.1-0.2 <= 2.5\ngini = 0.41\nsamples = 4\nvalue = [2, 5]\nclass = Neutral", fillcolor="#88c4ef"] ;
188 -> 189 ;
190 [label="gini = 0.0\nsamples = 2\nvalue = [0, 2]\nclass = Neutral", fillcolor="#399de5"] ;
189 -> 190 ;
191 [label="Fst 0.2-0.25; MSE 0.0-0.1 <= 23.0\ngini = 0.48\nsamples = 2\nvalue = [2, 3]\nclass = Neutral", fillcolor="#bddef6"] ;
189 -> 191 ;
192 [label="gini = 0.0\nsamples = 1\nvalue = [2, 0]\nclass = SAS", fillcolor="#e58139"] ;
191 -> 192 ;
193 [label="gini = 0.0\nsamples = 1\nvalue = [0, 3]\nclass = Neutral", fillcolor="#399de5"] ;
191 -> 193 ;
194 [label="gini = 0.0\nsamples = 2\nvalue = [0, 2]\nclass = Neutral", fillcolor="#399de5"] ;
188 -> 194 ;
195 [label="gini = 0.0\nsamples = 2\nvalue = [0, 2]\nclass = Neutral", fillcolor="#399de5"] ;
173 -> 195 ;
196 [label="gini = 0.0\nsamples = 1\nvalue = [2, 0]\nclass = SAS", fillcolor="#e58139"] ;
170 -> 196 ;
197 [label="Fst 0.1-0.15; MSE 0.0-0.1 <= 53.5\ngini = 0.49\nsamples = 8\nvalue = [7, 5]\nclass = SAS", fillcolor="#f8dbc6"] ;
169 -> 197 ;
198 [label="gini = 0.0\nsamples = 2\nvalue = [4, 0]\nclass = SAS", fillcolor="#e58139"] ;
197 -> 198 ;
199 [label="Fst 0.3-0.35; MSE 0.1-0.2 <= 1.5\ngini = 0.47\nsamples = 6\nvalue = [3, 5]\nclass = Neutral", fillcolor="#b0d8f5"] ;
197 -> 199 ;
200 [label="gini = 0.0\nsamples = 2\nvalue = [0, 4]\nclass = Neutral", fillcolor="#399de5"] ;
199 -> 200 ;
201 [label="Fst 0.5-0.55; MSE 0.3-0.4 <= 1.0\ngini = 0.38\nsamples = 4\nvalue = [3, 1]\nclass = SAS", fillcolor="#eeab7b"] ;
199 -> 201 ;
202 [label="Fst 0.25-0.3; MSE 0.0-0.1 <= 1.5\ngini = 0.44\nsamples = 3\nvalue = [2, 1]\nclass = SAS", fillcolor="#f2c09c"] ;
201 -> 202 ;
203 [label="Fst 0.4-0.45; MSE 0.2-0.3 <= 1.5\ngini = 0.5\nsamples = 2\nvalue = [1, 1]\nclass = SAS", fillcolor="#ffffff"] ;
202 -> 203 ;
204 [label="gini = 0.0\nsamples = 1\nvalue = [0, 1]\nclass = Neutral", fillcolor="#399de5"] ;
203 -> 204 ;
205 [label="gini = 0.0\nsamples = 1\nvalue = [1, 0]\nclass = SAS", fillcolor="#e58139"] ;
203 -> 205 ;
206 [label="gini = 0.0\nsamples = 1\nvalue = [1, 0]\nclass = SAS", fillcolor="#e58139"] ;
202 -> 206 ;
207 [label="gini = 0.0\nsamples = 1\nvalue = [1, 0]\nclass = SAS", fillcolor="#e58139"] ;
201 -> 207 ;
208 [label="Fst 0.4-0.45; MSE 0.2-0.3 <= 12.0\ngini = 0.33\nsamples = 25\nvalue = [8, 30]\nclass = Neutral", fillcolor="#6eb7ec"] ;
168 -> 208 ;
209 [label="Fst 0.25-0.3; MSE 0.0-0.1 <= 1.5\ngini = 0.31\nsamples = 24\nvalue = [7, 30]\nclass = Neutral", fillcolor="#67b4eb"] ;
208 -> 209 ;
210 [label="gini = 0.0\nsamples = 11\nvalue = [0, 16]\nclass = Neutral", fillcolor="#399de5"] ;
209 -> 210 ;
211 [label="Fst 0.15-0.2; MSE 0.0-0.1 <= 48.0\ngini = 0.44\nsamples = 13\nvalue = [7, 14]\nclass = Neutral", fillcolor="#9ccef2"] ;
209 -> 211 ;
212 [label="Fst 0.4-0.45; MSE 0.3-0.4 <= 0.5\ngini = 0.32\nsamples = 10\nvalue = [3, 12]\nclass = Neutral", fillcolor="#6ab6ec"] ;
211 -> 212 ;
213 [label="Fst 0.25-0.3; MSE 0.1-0.2 <= 4.5\ngini = 0.15\nsamples = 8\nvalue = [1, 11]\nclass = Neutral", fillcolor="#4ba6e7"] ;
212 -> 213 ;
214 [label="gini = 0.0\nsamples = 6\nvalue = [0, 10]\nclass = Neutral", fillcolor="#399de5"] ;
213 -> 214 ;
215 [label="Fst 0.2-0.25; MSE 0.0-0.1 <= 23.5\ngini = 0.5\nsamples = 2\nvalue = [1, 1]\nclass = SAS", fillcolor="#ffffff"] ;
213 -> 215 ;
216 [label="gini = 0.0\nsamples = 1\nvalue = [1, 0]\nclass = SAS", fillcolor="#e58139"] ;
215 -> 216 ;
217 [label="gini = 0.0\nsamples = 1\nvalue = [0, 1]\nclass = Neutral", fillcolor="#399de5"] ;
215 -> 217 ;
218 [label="Fst 0.1-0.15; MSE 0.0-0.1 <= 70.5\ngini = 0.44\nsamples = 2\nvalue = [2, 1]\nclass = SAS", fillcolor="#f2c09c"] ;
212 -> 218 ;
219 [label="gini = 0.0\nsamples = 1\nvalue = [0, 1]\nclass = Neutral", fillcolor="#399de5"] ;
218 -> 219 ;
220 [label="gini = 0.0\nsamples = 1\nvalue = [2, 0]\nclass = SAS", fillcolor="#e58139"] ;
218 -> 220 ;
221 [label="Fst 0.1-0.15; MSE 0.0-0.1 <= 46.0\ngini = 0.44\nsamples = 3\nvalue = [4, 2]\nclass = SAS", fillcolor="#f2c09c"] ;
211 -> 221 ;
222 [label="gini = 0.0\nsamples = 1\nvalue = [0, 2]\nclass = Neutral", fillcolor="#399de5"] ;
221 -> 222 ;
223 [label="gini = 0.0\nsamples = 2\nvalue = [4, 0]\nclass = SAS", fillcolor="#e58139"] ;
221 -> 223 ;
224 [label="gini = 0.0\nsamples = 1\nvalue = [1, 0]\nclass = SAS", fillcolor="#e58139"] ;
208 -> 224 ;
225 [label="Fst 0.45-0.5; MSE 0.4-3.6 <= 2.0\ngini = 0.44\nsamples = 5\nvalue = [4, 2]\nclass = SAS", fillcolor="#f2c09c"] ;
167 -> 225 ;
226 [label="Fst 0.3-0.35; MSE 0.3-0.4 <= 0.5\ngini = 0.38\nsamples = 3\nvalue = [3, 1]\nclass = SAS", fillcolor="#eeab7b"] ;
225 -> 226 ;
227 [label="gini = 0.0\nsamples = 2\nvalue = [3, 0]\nclass = SAS", fillcolor="#e58139"] ;
226 -> 227 ;
228 [label="gini = 0.0\nsamples = 1\nvalue = [0, 1]\nclass = Neutral", fillcolor="#399de5"] ;
226 -> 228 ;
229 [label="Fst 0.05-0.1; MSE 0.0-0.1 <= 6.5\ngini = 0.5\nsamples = 2\nvalue = [1, 1]\nclass = SAS", fillcolor="#ffffff"] ;
225 -> 229 ;
230 [label="gini = 0.0\nsamples = 1\nvalue = [1, 0]\nclass = SAS", fillcolor="#e58139"] ;
229 -> 230 ;
231 [label="gini = 0.0\nsamples = 1\nvalue = [0, 1]\nclass = Neutral", fillcolor="#399de5"] ;
229 -> 231 ;
232 [label="Fst 0.4-0.45; MSE 0.2-0.3 <= 3.0\ngini = 0.5\nsamples = 11\nvalue = [9, 11]\nclass = Neutral", fillcolor="#dbedfa"] ;
166 -> 232 ;
233 [label="Fst 0.05-0.1; MSE 0.0-0.1 <= 9.5\ngini = 0.26\nsamples = 7\nvalue = [2, 11]\nclass = Neutral", fillcolor="#5dafea"] ;
232 -> 233 ;
234 [label="Fst 0.35-0.4; MSE 0.3-0.4 <= 0.5\ngini = 0.15\nsamples = 6\nvalue = [1, 11]\nclass = Neutral", fillcolor="#4ba6e7"] ;
233 -> 234 ;
235 [label="Fst 0.05-0.1; MSE 0.0-0.1 <= 3.5\ngini = 0.2\nsamples = 5\nvalue = [1, 8]\nclass = Neutral", fillcolor="#52a9e8"] ;
234 -> 235 ;
236 [label="gini = 0.0\nsamples = 1\nvalue = [1, 0]\nclass = SAS", fillcolor="#e58139"] ;
235 -> 236 ;
237 [label="gini = 0.0\nsamples = 4\nvalue = [0, 8]\nclass = Neutral", fillcolor="#399de5"] ;
235 -> 237 ;
238 [label="gini = 0.0\nsamples = 1\nvalue = [0, 3]\nclass = Neutral", fillcolor="#399de5"] ;
234 -> 238 ;
239 [label="gini = 0.0\nsamples = 1\nvalue = [1, 0]\nclass = SAS", fillcolor="#e58139"] ;
233 -> 239 ;
240 [label="gini = 0.0\nsamples = 4\nvalue = [7, 0]\nclass = SAS", fillcolor="#e58139"] ;
232 -> 240 ;
241 [label="Fst 0.3-0.35; MSE 0.1-0.2 <= 4.5\ngini = 0.5\nsamples = 43\nvalue = [32, 34]\nclass = Neutral", fillcolor="#f3f9fd"] ;
51 -> 241 ;
242 [label="Fst 0.4-0.45; MSE 0.3-0.4 <= 0.5\ngini = 0.47\nsamples = 30\nvalue = [27, 17]\nclass = SAS", fillcolor="#f5d0b6"] ;
241 -> 242 ;
243 [label="Fst 0.05-0.1; MSE 0.0-0.1 <= 1.5\ngini = 0.49\nsamples = 15\nvalue = [9, 12]\nclass = Neutral", fillcolor="#cee6f8"] ;
242 -> 243 ;
244 [label="gini = 0.0\nsamples = 4\nvalue = [0, 4]\nclass = Neutral", fillcolor="#399de5"] ;
243 -> 244 ;
245 [label="Fst 0.25-0.3; MSE 0.1-0.2 <= 10.5\ngini = 0.5\nsamples = 11\nvalue = [9, 8]\nclass = SAS", fillcolor="#fcf1e9"] ;
243 -> 245 ;
246 [label="gini = 0.0\nsamples = 3\nvalue = [6, 0]\nclass = SAS", fillcolor="#e58139"] ;
245 -> 246 ;
247 [label="Fst 0.25-0.3; MSE 0.1-0.2 <= 16.5\ngini = 0.4\nsamples = 8\nvalue = [3, 8]\nclass = Neutral", fillcolor="#83c2ef"] ;
245 -> 247 ;
248 [label="gini = 0.0\nsamples = 6\nvalue = [0, 8]\nclass = Neutral", fillcolor="#399de5"] ;
247 -> 248 ;
249 [label="gini = 0.0\nsamples = 2\nvalue = [3, 0]\nclass = SAS", fillcolor="#e58139"] ;
247 -> 249 ;
250 [label="Fst 0.15-0.2; MSE 0.0-0.1 <= 42.0\ngini = 0.34\nsamples = 15\nvalue = [18, 5]\nclass = SAS", fillcolor="#eca470"] ;
242 -> 250 ;
251 [label="Fst 0.45-0.5; MSE 0.4-3.6 <= 5.0\ngini = 0.17\nsamples = 7\nvalue = [10, 1]\nclass = SAS", fillcolor="#e88e4d"] ;
250 -> 251 ;
252 [label="Fst 0.25-0.3; MSE 0.2-0.3 <= 0.5\ngini = 0.2\nsamples = 6\nvalue = [8, 1]\nclass = SAS", fillcolor="#e89152"] ;
251 -> 252 ;
253 [label="gini = 0.0\nsamples = 5\nvalue = [8, 0]\nclass = SAS", fillcolor="#e58139"] ;
252 -> 253 ;
254 [label="gini = 0.0\nsamples = 1\nvalue = [0, 1]\nclass = Neutral", fillcolor="#399de5"] ;
252 -> 254 ;
255 [label="gini = 0.0\nsamples = 1\nvalue = [2, 0]\nclass = SAS", fillcolor="#e58139"] ;
251 -> 255 ;
256 [label="Fst 0.35-0.4; MSE 0.1-0.2 <= 0.5\ngini = 0.44\nsamples = 8\nvalue = [8, 4]\nclass = SAS", fillcolor="#f2c09c"] ;
250 -> 256 ;
257 [label="Fst 0.35-0.4; MSE 0.3-0.4 <= 0.5\ngini = 0.24\nsamples = 4\nvalue = [6, 1]\nclass = SAS", fillcolor="#e9965a"] ;
256 -> 257 ;
258 [label="gini = 0.0\nsamples = 3\nvalue = [6, 0]\nclass = SAS", fillcolor="#e58139"] ;
257 -> 258 ;
259 [label="gini = 0.0\nsamples = 1\nvalue = [0, 1]\nclass = Neutral", fillcolor="#399de5"] ;
257 -> 259 ;
260 [label="Fst 0.1-0.15; MSE 0.0-0.1 <= 51.0\ngini = 0.48\nsamples = 4\nvalue = [2, 3]\nclass = Neutral", fillcolor="#bddef6"] ;
256 -> 260 ;
261 [label="Fst 0.2-0.25; MSE 0.1-0.2 <= 4.5\ngini = 0.44\nsamples = 2\nvalue = [2, 1]\nclass = SAS", fillcolor="#f2c09c"] ;
260 -> 261 ;
262 [label="gini = 0.0\nsamples = 1\nvalue = [2, 0]\nclass = SAS", fillcolor="#e58139"] ;
261 -> 262 ;
263 [label="gini = 0.0\nsamples = 1\nvalue = [0, 1]\nclass = Neutral", fillcolor="#399de5"] ;
261 -> 263 ;
264 [label="gini = 0.0\nsamples = 2\nvalue = [0, 2]\nclass = Neutral", fillcolor="#399de5"] ;
260 -> 264 ;
265 [label="Fst 0.3-0.35; MSE 0.1-0.2 <= 8.0\ngini = 0.35\nsamples = 13\nvalue = [5, 17]\nclass = Neutral", fillcolor="#73baed"] ;
241 -> 265 ;
266 [label="Fst 0.05-0.1; MSE 0.0-0.1 <= 1.5\ngini = 0.46\nsamples = 8\nvalue = [5, 9]\nclass = Neutral", fillcolor="#a7d3f3"] ;
265 -> 266 ;
267 [label="gini = 0.0\nsamples = 3\nvalue = [0, 4]\nclass = Neutral", fillcolor="#399de5"] ;
266 -> 267 ;
268 [label="Fst 0.35-0.4; MSE 0.2-0.3 <= 5.0\ngini = 0.5\nsamples = 5\nvalue = [5, 5]\nclass = SAS", fillcolor="#ffffff"] ;
266 -> 268 ;
269 [label="Fst 0.2-0.25; MSE 0.0-0.1 <= 15.5\ngini = 0.41\nsamples = 3\nvalue = [2, 5]\nclass = Neutral", fillcolor="#88c4ef"] ;
268 -> 269 ;
270 [label="gini = 0.0\nsamples = 1\nvalue = [2, 0]\nclass = SAS", fillcolor="#e58139"] ;
269 -> 270 ;
271 [label="gini = 0.0\nsamples = 2\nvalue = [0, 5]\nclass = Neutral", fillcolor="#399de5"] ;
269 -> 271 ;
272 [label="gini = 0.0\nsamples = 2\nvalue = [3, 0]\nclass = SAS", fillcolor="#e58139"] ;
268 -> 272 ;
273 [label="gini = 0.0\nsamples = 5\nvalue = [0, 8]\nclass = Neutral", fillcolor="#399de5"] ;
265 -> 273 ;
274 [label="Fst 0.2-0.25; MSE 0.0-0.1 <= 26.5\ngini = 0.5\nsamples = 37\nvalue = [30, 33]\nclass = Neutral", fillcolor="#edf6fd"] ;
50 -> 274 ;
275 [label="Fst 0.35-0.4; MSE 0.3-0.4 <= 0.5\ngini = 0.5\nsamples = 32\nvalue = [29, 25]\nclass = SAS", fillcolor="#fbeee4"] ;
274 -> 275 ;
276 [label="Fst 0.4-0.45; MSE 0.2-0.3 <= 15.5\ngini = 0.48\nsamples = 29\nvalue = [27, 18]\nclass = SAS", fillcolor="#f6d5bd"] ;
275 -> 276 ;
277 [label="Fst 0.35-0.4; MSE 0.2-0.3 <= 8.0\ngini = 0.47\nsamples = 28\nvalue = [27, 16]\nclass = SAS", fillcolor="#f4ccae"] ;
276 -> 277 ;
278 [label="Fst 0.45-0.5; MSE 0.3-0.4 <= 0.5\ngini = 0.48\nsamples = 26\nvalue = [23, 16]\nclass = SAS", fillcolor="#f7d9c3"] ;
277 -> 278 ;
279 [label="Fst 0.15-0.2; MSE 0.0-0.1 <= 48.5\ngini = 0.45\nsamples = 21\nvalue = [21, 11]\nclass = SAS", fillcolor="#f3c3a1"] ;
278 -> 279 ;
280 [label="Fst 0.5-0.55; MSE 0.4-3.6 <= 1.5\ngini = 0.24\nsamples = 13\nvalue = [19, 3]\nclass = SAS", fillcolor="#e99558"] ;
279 -> 280 ;
281 [label="gini = 0.0\nsamples = 7\nvalue = [14, 0]\nclass = SAS", fillcolor="#e58139"] ;
280 -> 281 ;
282 [label="Fst 0.2-0.25; MSE 0.0-0.1 <= 11.5\ngini = 0.47\nsamples = 6\nvalue = [5, 3]\nclass = SAS", fillcolor="#f5cdb0"] ;
280 -> 282 ;
283 [label="gini = 0.0\nsamples = 2\nvalue = [0, 2]\nclass = Neutral", fillcolor="#399de5"] ;
282 -> 283 ;
284 [label="Fst 0.5-0.55; MSE 0.4-3.6 <= 2.5\ngini = 0.28\nsamples = 4\nvalue = [5, 1]\nclass = SAS", fillcolor="#ea9a61"] ;
282 -> 284 ;
285 [label="gini = 0.0\nsamples = 1\nvalue = [1, 0]\nclass = SAS", fillcolor="#e58139"] ;
284 -> 285 ;
286 [label="Fst 0.2-0.25; MSE 0.1-0.2 <= 0.5\ngini = 0.32\nsamples = 3\nvalue = [4, 1]\nclass = SAS", fillcolor="#eca06a"] ;
284 -> 286 ;
287 [label="gini = 0.0\nsamples = 1\nvalue = [0, 1]\nclass = Neutral", fillcolor="#399de5"] ;
286 -> 287 ;
288 [label="gini = 0.0\nsamples = 2\nvalue = [4, 0]\nclass = SAS", fillcolor="#e58139"] ;
286 -> 288 ;
289 [label="Fst 0.3-0.35; MSE 0.1-0.2 <= 12.0\ngini = 0.32\nsamples = 8\nvalue = [2, 8]\nclass = Neutral", fillcolor="#6ab6ec"] ;
279 -> 289 ;
290 [label="Fst 0.1-0.15; MSE 0.0-0.1 <= 43.0\ngini = 0.2\nsamples = 7\nvalue = [1, 8]\nclass = Neutral", fillcolor="#52a9e8"] ;
289 -> 290 ;
291 [label="gini = 0.0\nsamples = 3\nvalue = [0, 4]\nclass = Neutral", fillcolor="#399de5"] ;
290 -> 291 ;
292 [label="Fst 0.4-0.45; MSE 0.3-0.4 <= 3.5\ngini = 0.32\nsamples = 4\nvalue = [1, 4]\nclass = Neutral", fillcolor="#6ab6ec"] ;
290 -> 292 ;
293 [label="gini = 0.0\nsamples = 3\nvalue = [0, 4]\nclass = Neutral", fillcolor="#399de5"] ;
292 -> 293 ;
294 [label="gini = 0.0\nsamples = 1\nvalue = [1, 0]\nclass = SAS", fillcolor="#e58139"] ;
292 -> 294 ;
295 [label="gini = 0.0\nsamples = 1\nvalue = [1, 0]\nclass = SAS", fillcolor="#e58139"] ;
289 -> 295 ;
296 [label="Fst 0.35-0.4; MSE 0.2-0.3 <= 2.5\ngini = 0.41\nsamples = 5\nvalue = [2, 5]\nclass = Neutral", fillcolor="#88c4ef"] ;
278 -> 296 ;
297 [label="Fst 0.2-0.25; MSE 0.1-0.2 <= 0.5\ngini = 0.44\nsamples = 3\nvalue = [2, 1]\nclass = SAS", fillcolor="#f2c09c"] ;
296 -> 297 ;
298 [label="gini = 0.0\nsamples = 1\nvalue = [0, 1]\nclass = Neutral", fillcolor="#399de5"] ;
297 -> 298 ;
299 [label="gini = 0.0\nsamples = 2\nvalue = [2, 0]\nclass = SAS", fillcolor="#e58139"] ;
297 -> 299 ;
300 [label="gini = 0.0\nsamples = 2\nvalue = [0, 4]\nclass = Neutral", fillcolor="#399de5"] ;
296 -> 300 ;
301 [label="gini = 0.0\nsamples = 2\nvalue = [4, 0]\nclass = SAS", fillcolor="#e58139"] ;
277 -> 301 ;
302 [label="gini = 0.0\nsamples = 1\nvalue = [0, 2]\nclass = Neutral", fillcolor="#399de5"] ;
276 -> 302 ;
303 [label="Fst 0.2-0.25; MSE 0.0-0.1 <= 18.0\ngini = 0.35\nsamples = 3\nvalue = [2, 7]\nclass = Neutral", fillcolor="#72b9ec"] ;
275 -> 303 ;
304 [label="gini = 0.0\nsamples = 1\nvalue = [2, 0]\nclass = SAS", fillcolor="#e58139"] ;
303 -> 304 ;
305 [label="gini = 0.0\nsamples = 2\nvalue = [0, 7]\nclass = Neutral", fillcolor="#399de5"] ;
303 -> 305 ;
306 [label="Fst 0.4-0.45; MSE 0.2-0.3 <= 1.5\ngini = 0.2\nsamples = 5\nvalue = [1, 8]\nclass = Neutral", fillcolor="#52a9e8"] ;
274 -> 306 ;
307 [label="Fst 0.35-0.4; MSE 0.2-0.3 <= 1.0\ngini = 0.38\nsamples = 2\nvalue = [1, 3]\nclass = Neutral", fillcolor="#7bbeee"] ;
306 -> 307 ;
308 [label="gini = 0.0\nsamples = 1\nvalue = [0, 3]\nclass = Neutral", fillcolor="#399de5"] ;
307 -> 308 ;
309 [label="gini = 0.0\nsamples = 1\nvalue = [1, 0]\nclass = SAS", fillcolor="#e58139"] ;
307 -> 309 ;
310 [label="gini = 0.0\nsamples = 3\nvalue = [0, 5]\nclass = Neutral", fillcolor="#399de5"] ;
306 -> 310 ;
311 [label="Fst 0.4-0.45; MSE 0.3-0.4 <= 1.5\ngini = 0.32\nsamples = 33\nvalue = [10, 40]\nclass = Neutral", fillcolor="#6ab6ec"] ;
49 -> 311 ;
312 [label="Fst 0.5-0.55; MSE 0.4-3.6 <= 0.5\ngini = 0.44\nsamples = 16\nvalue = [7, 14]\nclass = Neutral", fillcolor="#9ccef2"] ;
311 -> 312 ;
313 [label="Fst 0.45-0.5; MSE 0.4-3.6 <= 1.5\ngini = 0.39\nsamples = 14\nvalue = [5, 14]\nclass = Neutral", fillcolor="#80c0ee"] ;
312 -> 313 ;
314 [label="Fst 0.15-0.2; MSE 0.0-0.1 <= 57.0\ngini = 0.29\nsamples = 13\nvalue = [3, 14]\nclass = Neutral", fillcolor="#63b2eb"] ;
313 -> 314 ;
315 [label="Fst 0.3-0.35; MSE 0.2-0.3 <= 3.5\ngini = 0.13\nsamples = 10\nvalue = [1, 13]\nclass = Neutral", fillcolor="#48a5e7"] ;
314 -> 315 ;
316 [label="gini = 0.0\nsamples = 4\nvalue = [0, 7]\nclass = Neutral", fillcolor="#399de5"] ;
315 -> 316 ;
317 [label="Fst 0.2-0.25; MSE 0.1-0.2 <= 6.0\ngini = 0.24\nsamples = 6\nvalue = [1, 6]\nclass = Neutral", fillcolor="#5aade9"] ;
315 -> 317 ;
318 [label="gini = 0.0\nsamples = 3\nvalue = [0, 4]\nclass = Neutral", fillcolor="#399de5"] ;
317 -> 318 ;
319 [label="Fst 0.25-0.3; MSE 0.0-0.1 <= 0.5\ngini = 0.44\nsamples = 3\nvalue = [1, 2]\nclass = Neutral", fillcolor="#9ccef2"] ;
317 -> 319 ;
320 [label="gini = 0.0\nsamples = 2\nvalue = [0, 2]\nclass = Neutral", fillcolor="#399de5"] ;
319 -> 320 ;
321 [label="gini = 0.0\nsamples = 1\nvalue = [1, 0]\nclass = SAS", fillcolor="#e58139"] ;
319 -> 321 ;
322 [label="Fst 0.4-0.45; MSE 0.3-0.4 <= 0.5\ngini = 0.44\nsamples = 3\nvalue = [2, 1]\nclass = SAS", fillcolor="#f2c09c"] ;
314 -> 322 ;
323 [label="gini = 0.0\nsamples = 2\nvalue = [2, 0]\nclass = SAS", fillcolor="#e58139"] ;
322 -> 323 ;
324 [label="gini = 0.0\nsamples = 1\nvalue = [0, 1]\nclass = Neutral", fillcolor="#399de5"] ;
322 -> 324 ;
325 [label="gini = 0.0\nsamples = 1\nvalue = [2, 0]\nclass = SAS", fillcolor="#e58139"] ;
313 -> 325 ;
326 [label="gini = 0.0\nsamples = 2\nvalue = [2, 0]\nclass = SAS", fillcolor="#e58139"] ;
312 -> 326 ;
327 [label="Fst 0.3-0.35; MSE 0.3-0.4 <= 0.5\ngini = 0.19\nsamples = 17\nvalue = [3, 26]\nclass = Neutral", fillcolor="#50a8e8"] ;
311 -> 327 ;
328 [label="Fst 0.35-0.4; MSE 0.1-0.2 <= 0.5\ngini = 0.08\nsamples = 15\nvalue = [1, 24]\nclass = Neutral", fillcolor="#41a1e6"] ;
327 -> 328 ;
329 [label="Fst 0.35-0.4; MSE 0.2-0.3 <= 3.0\ngini = 0.15\nsamples = 8\nvalue = [1, 11]\nclass = Neutral", fillcolor="#4ba6e7"] ;
328 -> 329 ;
330 [label="gini = 0.0\nsamples = 6\nvalue = [0, 10]\nclass = Neutral", fillcolor="#399de5"] ;
329 -> 330 ;
331 [label="Fst 0.25-0.3; MSE 0.0-0.1 <= 1.0\ngini = 0.5\nsamples = 2\nvalue = [1, 1]\nclass = SAS", fillcolor="#ffffff"] ;
329 -> 331 ;
332 [label="gini = 0.0\nsamples = 1\nvalue = [1, 0]\nclass = SAS", fillcolor="#e58139"] ;
331 -> 332 ;
333 [label="gini = 0.0\nsamples = 1\nvalue = [0, 1]\nclass = Neutral", fillcolor="#399de5"] ;
331 -> 333 ;
334 [label="gini = 0.0\nsamples = 7\nvalue = [0, 13]\nclass = Neutral", fillcolor="#399de5"] ;
328 -> 334 ;
335 [label="Fst 0.65-0.7; MSE 0.4-3.6 <= 0.5\ngini = 0.5\nsamples = 2\nvalue = [2, 2]\nclass = SAS", fillcolor="#ffffff"] ;
327 -> 335 ;
336 [label="gini = 0.0\nsamples = 1\nvalue = [0, 2]\nclass = Neutral", fillcolor="#399de5"] ;
335 -> 336 ;
337 [label="gini = 0.0\nsamples = 1\nvalue = [2, 0]\nclass = SAS", fillcolor="#e58139"] ;
335 -> 337 ;
338 [label="Fst 0.3-0.35; MSE 0.1-0.2 <= 14.0\ngini = 0.38\nsamples = 57\nvalue = [22, 63]\nclass = Neutral", fillcolor="#7ebfee"] ;
48 -> 338 ;
339 [label="Fst 0.35-0.4; MSE 0.1-0.2 <= 0.5\ngini = 0.35\nsamples = 51\nvalue = [17, 59]\nclass = Neutral", fillcolor="#72b9ec"] ;
338 -> 339 ;
340 [label="Fst 0.15-0.2; MSE 0.0-0.1 <= 51.0\ngini = 0.48\nsamples = 17\nvalue = [9, 14]\nclass = Neutral", fillcolor="#b8dcf6"] ;
339 -> 340 ;
341 [label="Fst 0.2-0.25; MSE 0.0-0.1 <= 25.5\ngini = 0.44\nsamples = 9\nvalue = [8, 4]\nclass = SAS", fillcolor="#f2c09c"] ;
340 -> 341 ;
342 [label="Fst 0.45-0.5; MSE 0.3-0.4 <= 1.5\ngini = 0.32\nsamples = 7\nvalue = [8, 2]\nclass = SAS", fillcolor="#eca06a"] ;
341 -> 342 ;
343 [label="Fst 0.5-0.55; MSE 0.4-3.6 <= 1.0\ngini = 0.2\nsamples = 6\nvalue = [8, 1]\nclass = SAS", fillcolor="#e89152"] ;
342 -> 343 ;
344 [label="gini = 0.0\nsamples = 4\nvalue = [7, 0]\nclass = SAS", fillcolor="#e58139"] ;
343 -> 344 ;
345 [label="Fst 0.45-0.5; MSE 0.3-0.4 <= 0.5\ngini = 0.5\nsamples = 2\nvalue = [1, 1]\nclass = SAS", fillcolor="#ffffff"] ;
343 -> 345 ;
346 [label="gini = 0.0\nsamples = 1\nvalue = [1, 0]\nclass = SAS", fillcolor="#e58139"] ;
345 -> 346 ;
347 [label="gini = 0.0\nsamples = 1\nvalue = [0, 1]\nclass = Neutral", fillcolor="#399de5"] ;
345 -> 347 ;
348 [label="gini = 0.0\nsamples = 1\nvalue = [0, 1]\nclass = Neutral", fillcolor="#399de5"] ;
342 -> 348 ;
349 [label="gini = 0.0\nsamples = 2\nvalue = [0, 2]\nclass = Neutral", fillcolor="#399de5"] ;
341 -> 349 ;
350 [label="Fst 0.45-0.5; MSE 0.4-3.6 <= 3.0\ngini = 0.17\nsamples = 8\nvalue = [1, 10]\nclass = Neutral", fillcolor="#4da7e8"] ;
340 -> 350 ;
351 [label="gini = 0.0\nsamples = 5\nvalue = [0, 8]\nclass = Neutral", fillcolor="#399de5"] ;
350 -> 351 ;
352 [label="Fst 0.1-0.15; MSE 0.0-0.1 <= 36.0\ngini = 0.44\nsamples = 3\nvalue = [1, 2]\nclass = Neutral", fillcolor="#9ccef2"] ;
350 -> 352 ;
353 [label="gini = 0.0\nsamples = 2\nvalue = [0, 2]\nclass = Neutral", fillcolor="#399de5"] ;
352 -> 353 ;
354 [label="gini = 0.0\nsamples = 1\nvalue = [1, 0]\nclass = SAS", fillcolor="#e58139"] ;
352 -> 354 ;
355 [label="Fst 0.1-0.15; MSE 0.0-0.1 <= 87.5\ngini = 0.26\nsamples = 34\nvalue = [8, 45]\nclass = Neutral", fillcolor="#5caeea"] ;
339 -> 355 ;
356 [label="Fst 0.3-0.35; MSE 0.2-0.3 <= 0.5\ngini = 0.21\nsamples = 32\nvalue = [6, 45]\nclass = Neutral", fillcolor="#53aae8"] ;
355 -> 356 ;
357 [label="Fst 0.3-0.35; MSE 0.0-0.1 <= 0.5\ngini = 0.29\nsamples = 17\nvalue = [5, 24]\nclass = Neutral", fillcolor="#62b1ea"] ;
356 -> 357 ;
358 [label="Fst 0.2-0.25; MSE 0.1-0.2 <= 5.5\ngini = 0.29\nsamples = 16\nvalue = [5, 23]\nclass = Neutral", fillcolor="#64b2eb"] ;
357 -> 358 ;
359 [label="Fst 0.1-0.15; MSE 0.0-0.1 <= 65.5\ngini = 0.2\nsamples = 15\nvalue = [3, 23]\nclass = Neutral", fillcolor="#53aae8"] ;
358 -> 359 ;
360 [label="gini = 0.0\nsamples = 9\nvalue = [0, 18]\nclass = Neutral", fillcolor="#399de5"] ;
359 -> 360 ;
361 [label="Fst 0.05-0.1; MSE 0.0-0.1 <= 7.0\ngini = 0.47\nsamples = 6\nvalue = [3, 5]\nclass = Neutral", fillcolor="#b0d8f5"] ;
359 -> 361 ;
362 [label="Fst 0.2-0.25; MSE 0.1-0.2 <= 0.5\ngini = 0.28\nsamples = 4\nvalue = [1, 5]\nclass = Neutral", fillcolor="#61b1ea"] ;
361 -> 362 ;
363 [label="gini = 0.0\nsamples = 3\nvalue = [0, 5]\nclass = Neutral", fillcolor="#399de5"] ;
362 -> 363 ;
364 [label="gini = 0.0\nsamples = 1\nvalue = [1, 0]\nclass = SAS", fillcolor="#e58139"] ;
362 -> 364 ;
365 [label="gini = 0.0\nsamples = 2\nvalue = [2, 0]\nclass = SAS", fillcolor="#e58139"] ;
361 -> 365 ;
366 [label="gini = 0.0\nsamples = 1\nvalue = [2, 0]\nclass = SAS", fillcolor="#e58139"] ;
358 -> 366 ;
367 [label="gini = 0.0\nsamples = 1\nvalue = [0, 1]\nclass = Neutral", fillcolor="#399de5"] ;
357 -> 367 ;
368 [label="Fst 0.25-0.3; MSE 0.1-0.2 <= 8.5\ngini = 0.09\nsamples = 15\nvalue = [1, 21]\nclass = Neutral", fillcolor="#42a2e6"] ;
356 -> 368 ;
369 [label="Fst 0.4-0.45; MSE 0.3-0.4 <= 0.5\ngini = 0.14\nsamples = 9\nvalue = [1, 12]\nclass = Neutral", fillcolor="#49a5e7"] ;
368 -> 369 ;
370 [label="gini = 0.0\nsamples = 1\nvalue = [1, 0]\nclass = SAS", fillcolor="#e58139"] ;
369 -> 370 ;
371 [label="gini = 0.0\nsamples = 8\nvalue = [0, 12]\nclass = Neutral", fillcolor="#399de5"] ;
369 -> 371 ;
372 [label="gini = 0.0\nsamples = 6\nvalue = [0, 9]\nclass = Neutral", fillcolor="#399de5"] ;
368 -> 372 ;
373 [label="gini = 0.0\nsamples = 2\nvalue = [2, 0]\nclass = SAS", fillcolor="#e58139"] ;
355 -> 373 ;
374 [label="Fst 0.25-0.3; MSE 0.1-0.2 <= 8.0\ngini = 0.49\nsamples = 6\nvalue = [5, 4]\nclass = SAS", fillcolor="#fae6d7"] ;
338 -> 374 ;
375 [label="Fst 0.4-0.45; MSE 0.3-0.4 <= 0.5\ngini = 0.32\nsamples = 3\nvalue = [4, 1]\nclass = SAS", fillcolor="#eca06a"] ;
374 -> 375 ;
376 [label="gini = 0.0\nsamples = 1\nvalue = [2, 0]\nclass = SAS", fillcolor="#e58139"] ;
375 -> 376 ;
377 [label="Fst 0.4-0.45; MSE 0.2-0.3 <= 5.0\ngini = 0.44\nsamples = 2\nvalue = [2, 1]\nclass = SAS", fillcolor="#f2c09c"] ;
375 -> 377 ;
378 [label="gini = 0.0\nsamples = 1\nvalue = [0, 1]\nclass = Neutral", fillcolor="#399de5"] ;
377 -> 378 ;
379 [label="gini = 0.0\nsamples = 1\nvalue = [2, 0]\nclass = SAS", fillcolor="#e58139"] ;
377 -> 379 ;
380 [label="Fst 0.45-0.5; MSE 0.4-3.6 <= 0.5\ngini = 0.38\nsamples = 3\nvalue = [1, 3]\nclass = Neutral", fillcolor="#7bbeee"] ;
374 -> 380 ;
381 [label="gini = 0.0\nsamples = 1\nvalue = [0, 2]\nclass = Neutral", fillcolor="#399de5"] ;
380 -> 381 ;
382 [label="Fst 0.25-0.3; MSE 0.1-0.2 <= 19.0\ngini = 0.5\nsamples = 2\nvalue = [1, 1]\nclass = SAS", fillcolor="#ffffff"] ;
380 -> 382 ;
383 [label="gini = 0.0\nsamples = 1\nvalue = [0, 1]\nclass = Neutral", fillcolor="#399de5"] ;
382 -> 383 ;
384 [label="gini = 0.0\nsamples = 1\nvalue = [1, 0]\nclass = SAS", fillcolor="#e58139"] ;
382 -> 384 ;
385 [label="gini = 0.0\nsamples = 1\nvalue = [3, 0]\nclass = SAS", fillcolor="#e58139"] ;
47 -> 385 ;
386 [label="gini = 0.0\nsamples = 3\nvalue = [0, 6]\nclass = Neutral", fillcolor="#399de5"] ;
46 -> 386 ;
387 [label="Fst 0.05-0.1; MSE 0.0-0.1 <= 5.0\ngini = 0.38\nsamples = 5\nvalue = [6, 2]\nclass = SAS", fillcolor="#eeab7b"] ;
45 -> 387 ;
388 [label="Fst 0.3-0.35; MSE 0.2-0.3 <= 1.5\ngini = 0.5\nsamples = 3\nvalue = [2, 2]\nclass = SAS", fillcolor="#ffffff"] ;
387 -> 388 ;
389 [label="gini = 0.0\nsamples = 2\nvalue = [0, 2]\nclass = Neutral", fillcolor="#399de5"] ;
388 -> 389 ;
390 [label="gini = 0.0\nsamples = 1\nvalue = [2, 0]\nclass = SAS", fillcolor="#e58139"] ;
388 -> 390 ;
391 [label="gini = 0.0\nsamples = 2\nvalue = [4, 0]\nclass = SAS", fillcolor="#e58139"] ;
387 -> 391 ;
392 [label="Fst 0.2-0.25; MSE 0.1-0.2 <= 7.5\ngini = 0.49\nsamples = 51\nvalue = [36, 45]\nclass = Neutral", fillcolor="#d7ebfa"] ;
44 -> 392 ;
393 [label="Fst 0.3-0.35; MSE 0.1-0.2 <= 0.5\ngini = 0.49\nsamples = 49\nvalue = [33, 45]\nclass = Neutral", fillcolor="#cae5f8"] ;
392 -> 393 ;
394 [label="gini = 0.0\nsamples = 4\nvalue = [0, 8]\nclass = Neutral", fillcolor="#399de5"] ;
393 -> 394 ;
395 [label="Fst 0.4-0.45; MSE 0.2-0.3 <= 3.5\ngini = 0.5\nsamples = 45\nvalue = [33, 37]\nclass = Neutral", fillcolor="#eaf4fc"] ;
393 -> 395 ;
396 [label="Fst 0.6-0.65; MSE 0.4-3.6 <= 0.5\ngini = 0.44\nsamples = 24\nvalue = [23, 11]\nclass = SAS", fillcolor="#f1bd98"] ;
395 -> 396 ;
397 [label="Fst 0.15-0.2; MSE 0.0-0.1 <= 44.5\ngini = 0.38\nsamples = 22\nvalue = [23, 8]\nclass = SAS", fillcolor="#eead7e"] ;
396 -> 397 ;
398 [label="Fst 0.3-0.35; MSE 0.2-0.3 <= 1.5\ngini = 0.47\nsamples = 14\nvalue = [12, 7]\nclass = SAS", fillcolor="#f4caac"] ;
397 -> 398 ;
399 [label="Fst 0.25-0.3; MSE 0.1-0.2 <= 1.5\ngini = 0.39\nsamples = 10\nvalue = [11, 4]\nclass = SAS", fillcolor="#eeaf81"] ;
398 -> 399 ;
400 [label="Fst 0.1-0.15; MSE 0.0-0.1 <= 94.5\ngini = 0.17\nsamples = 7\nvalue = [10, 1]\nclass = SAS", fillcolor="#e88e4d"] ;
399 -> 400 ;
401 [label="Fst 0.1-0.15; MSE 0.0-0.1 <= 91.5\ngini = 0.32\nsamples = 5\nvalue = [4, 1]\nclass = SAS", fillcolor="#eca06a"] ;
400 -> 401 ;
402 [label="gini = 0.0\nsamples = 4\nvalue = [4, 0]\nclass = SAS", fillcolor="#e58139"] ;
401 -> 402 ;
403 [label="gini = 0.0\nsamples = 1\nvalue = [0, 1]\nclass = Neutral", fillcolor="#399de5"] ;
401 -> 403 ;
404 [label="gini = 0.0\nsamples = 2\nvalue = [6, 0]\nclass = SAS", fillcolor="#e58139"] ;
400 -> 404 ;
405 [label="Fst 0.3-0.35; MSE 0.1-0.2 <= 3.0\ngini = 0.38\nsamples = 3\nvalue = [1, 3]\nclass = Neutral", fillcolor="#7bbeee"] ;
399 -> 405 ;
406 [label="gini = 0.0\nsamples = 1\nvalue = [1, 0]\nclass = SAS", fillcolor="#e58139"] ;
405 -> 406 ;
407 [label="gini = 0.0\nsamples = 2\nvalue = [0, 3]\nclass = Neutral", fillcolor="#399de5"] ;
405 -> 407 ;
408 [label="Fst 0.5-0.55; MSE 0.4-3.6 <= 0.5\ngini = 0.38\nsamples = 4\nvalue = [1, 3]\nclass = Neutral", fillcolor="#7bbeee"] ;
398 -> 408 ;
409 [label="Fst 0.2-0.25; MSE 0.0-0.1 <= 25.5\ngini = 0.5\nsamples = 2\nvalue = [1, 1]\nclass = SAS", fillcolor="#ffffff"] ;
408 -> 409 ;
410 [label="gini = 0.0\nsamples = 1\nvalue = [1, 0]\nclass = SAS", fillcolor="#e58139"] ;
409 -> 410 ;
411 [label="gini = 0.0\nsamples = 1\nvalue = [0, 1]\nclass = Neutral", fillcolor="#399de5"] ;
409 -> 411 ;
412 [label="gini = 0.0\nsamples = 2\nvalue = [0, 2]\nclass = Neutral", fillcolor="#399de5"] ;
408 -> 412 ;
413 [label="Fst 0.45-0.5; MSE 0.4-3.6 <= 0.5\ngini = 0.15\nsamples = 8\nvalue = [11, 1]\nclass = SAS", fillcolor="#e78c4b"] ;
397 -> 413 ;
414 [label="gini = 0.0\nsamples = 7\nvalue = [11, 0]\nclass = SAS", fillcolor="#e58139"] ;
413 -> 414 ;
415 [label="gini = 0.0\nsamples = 1\nvalue = [0, 1]\nclass = Neutral", fillcolor="#399de5"] ;
413 -> 415 ;
416 [label="gini = 0.0\nsamples = 2\nvalue = [0, 3]\nclass = Neutral", fillcolor="#399de5"] ;
396 -> 416 ;
417 [label="Fst 0.45-0.5; MSE 0.3-0.4 <= 0.5\ngini = 0.4\nsamples = 21\nvalue = [10, 26]\nclass = Neutral", fillcolor="#85c3ef"] ;
395 -> 417 ;
418 [label="Fst 0.7-0.75; MSE 0.4-3.6 <= 3.5\ngini = 0.44\nsamples = 14\nvalue = [8, 16]\nclass = Neutral", fillcolor="#9ccef2"] ;
417 -> 418 ;
419 [label="Fst 0.25-0.3; MSE 0.2-0.3 <= 0.5\ngini = 0.47\nsamples = 13\nvalue = [8, 13]\nclass = Neutral", fillcolor="#b3d9f5"] ;
418 -> 419 ;
420 [label="Fst 0.4-0.45; MSE 0.1-0.2 <= 3.5\ngini = 0.45\nsamples = 12\nvalue = [7, 13]\nclass = Neutral", fillcolor="#a4d2f3"] ;
419 -> 420 ;
421 [label="Fst 0.5-0.55; MSE 0.4-3.6 <= 0.5\ngini = 0.34\nsamples = 9\nvalue = [3, 11]\nclass = Neutral", fillcolor="#6fb8ec"] ;
420 -> 421 ;
422 [label="Fst 0.3-0.35; MSE 0.0-0.1 <= 0.5\ngini = 0.38\nsamples = 8\nvalue = [3, 9]\nclass = Neutral", fillcolor="#7bbeee"] ;
421 -> 422 ;
423 [label="Fst 0.05-0.1; MSE 0.0-0.1 <= 2.0\ngini = 0.44\nsamples = 6\nvalue = [3, 6]\nclass = Neutral", fillcolor="#9ccef2"] ;
422 -> 423 ;
424 [label="gini = 0.0\nsamples = 2\nvalue = [0, 4]\nclass = Neutral", fillcolor="#399de5"] ;
423 -> 424 ;
425 [label="Fst 0.35-0.4; MSE 0.2-0.3 <= 1.0\ngini = 0.48\nsamples = 4\nvalue = [3, 2]\nclass = SAS", fillcolor="#f6d5bd"] ;
423 -> 425 ;
426 [label="Fst 0.2-0.25; MSE 0.1-0.2 <= 1.0\ngini = 0.38\nsamples = 3\nvalue = [3, 1]\nclass = SAS", fillcolor="#eeab7b"] ;
425 -> 426 ;
427 [label="gini = 0.0\nsamples = 2\nvalue = [3, 0]\nclass = SAS", fillcolor="#e58139"] ;
426 -> 427 ;
428 [label="gini = 0.0\nsamples = 1\nvalue = [0, 1]\nclass = Neutral", fillcolor="#399de5"] ;
426 -> 428 ;
429 [label="gini = 0.0\nsamples = 1\nvalue = [0, 1]\nclass = Neutral", fillcolor="#399de5"] ;
425 -> 429 ;
430 [label="gini = 0.0\nsamples = 2\nvalue = [0, 3]\nclass = Neutral", fillcolor="#399de5"] ;
422 -> 430 ;
431 [label="gini = 0.0\nsamples = 1\nvalue = [0, 2]\nclass = Neutral", fillcolor="#399de5"] ;
421 -> 431 ;
432 [label="Fst 0.25-0.3; MSE 0.0-0.1 <= 1.5\ngini = 0.44\nsamples = 3\nvalue = [4, 2]\nclass = SAS", fillcolor="#f2c09c"] ;
420 -> 432 ;
433 [label="gini = 0.0\nsamples = 1\nvalue = [0, 2]\nclass = Neutral", fillcolor="#399de5"] ;
432 -> 433 ;
434 [label="gini = 0.0\nsamples = 2\nvalue = [4, 0]\nclass = SAS", fillcolor="#e58139"] ;
432 -> 434 ;
435 [label="gini = 0.0\nsamples = 1\nvalue = [1, 0]\nclass = SAS", fillcolor="#e58139"] ;
419 -> 435 ;
436 [label="gini = 0.0\nsamples = 1\nvalue = [0, 3]\nclass = Neutral", fillcolor="#399de5"] ;
418 -> 436 ;
437 [label="Fst 0.3-0.35; MSE 0.2-0.3 <= 0.5\ngini = 0.28\nsamples = 7\nvalue = [2, 10]\nclass = Neutral", fillcolor="#61b1ea"] ;
417 -> 437 ;
438 [label="gini = 0.0\nsamples = 2\nvalue = [0, 4]\nclass = Neutral", fillcolor="#399de5"] ;
437 -> 438 ;
439 [label="Fst 0.25-0.3; MSE 0.1-0.2 <= 5.5\ngini = 0.38\nsamples = 5\nvalue = [2, 6]\nclass = Neutral", fillcolor="#7bbeee"] ;
437 -> 439 ;
440 [label="Fst 0.4-0.45; MSE 0.2-0.3 <= 10.5\ngini = 0.5\nsamples = 3\nvalue = [2, 2]\nclass = SAS", fillcolor="#ffffff"] ;
439 -> 440 ;
441 [label="gini = 0.0\nsamples = 2\nvalue = [0, 2]\nclass = Neutral", fillcolor="#399de5"] ;
440 -> 441 ;
442 [label="gini = 0.0\nsamples = 1\nvalue = [2, 0]\nclass = SAS", fillcolor="#e58139"] ;
440 -> 442 ;
443 [label="gini = 0.0\nsamples = 2\nvalue = [0, 4]\nclass = Neutral", fillcolor="#399de5"] ;
439 -> 443 ;
444 [label="gini = 0.0\nsamples = 2\nvalue = [3, 0]\nclass = SAS", fillcolor="#e58139"] ;
392 -> 444 ;
445 [label="gini = 0.0\nsamples = 1\nvalue = [2, 0]\nclass = SAS", fillcolor="#e58139"] ;
43 -> 445 ;
446 [label="Fst 0.2-0.25; MSE 0.1-0.2 <= 3.5\ngini = 0.45\nsamples = 14\nvalue = [13, 7]\nclass = SAS", fillcolor="#f3c5a4"] ;
42 -> 446 ;
447 [label="Fst 0.5-0.55; MSE 0.3-0.4 <= 0.5\ngini = 0.44\nsamples = 7\nvalue = [3, 6]\nclass = Neutral", fillcolor="#9ccef2"] ;
446 -> 447 ;
448 [label="gini = 0.0\nsamples = 3\nvalue = [0, 4]\nclass = Neutral", fillcolor="#399de5"] ;
447 -> 448 ;
449 [label="Fst 0.5-0.55; MSE 0.3-0.4 <= 4.5\ngini = 0.48\nsamples = 4\nvalue = [3, 2]\nclass = SAS", fillcolor="#f6d5bd"] ;
447 -> 449 ;
450 [label="Fst 0.2-0.25; MSE 0.0-0.1 <= 15.0\ngini = 0.5\nsamples = 3\nvalue = [2, 2]\nclass = SAS", fillcolor="#ffffff"] ;
449 -> 450 ;
451 [label="gini = 0.0\nsamples = 1\nvalue = [0, 2]\nclass = Neutral", fillcolor="#399de5"] ;
450 -> 451 ;
452 [label="gini = 0.0\nsamples = 2\nvalue = [2, 0]\nclass = SAS", fillcolor="#e58139"] ;
450 -> 452 ;
453 [label="gini = 0.0\nsamples = 1\nvalue = [1, 0]\nclass = SAS", fillcolor="#e58139"] ;
449 -> 453 ;
454 [label="Fst 0.5-0.55; MSE 0.4-3.6 <= 5.5\ngini = 0.17\nsamples = 7\nvalue = [10, 1]\nclass = SAS", fillcolor="#e88e4d"] ;
446 -> 454 ;
455 [label="gini = 0.0\nsamples = 6\nvalue = [10, 0]\nclass = SAS", fillcolor="#e58139"] ;
454 -> 455 ;
456 [label="gini = 0.0\nsamples = 1\nvalue = [0, 1]\nclass = Neutral", fillcolor="#399de5"] ;
454 -> 456 ;
457 [label="Fst 0.15-0.2; MSE 0.0-0.1 <= 9.5\ngini = 0.36\nsamples = 65\nvalue = [24, 78]\nclass = Neutral", fillcolor="#76bbed"] ;
17 -> 457 ;
458 [label="gini = 0.0\nsamples = 2\nvalue = [3, 0]\nclass = SAS", fillcolor="#e58139"] ;
457 -> 458 ;
459 [label="Fst 0.15-0.2; MSE 0.0-0.1 <= 36.5\ngini = 0.33\nsamples = 63\nvalue = [21, 78]\nclass = Neutral", fillcolor="#6eb7ec"] ;
457 -> 459 ;
460 [label="Fst 0.4-0.45; MSE 0.2-0.3 <= 1.5\ngini = 0.42\nsamples = 40\nvalue = [19, 45]\nclass = Neutral", fillcolor="#8dc6f0"] ;
459 -> 460 ;
461 [label="Fst 0.7-0.75; MSE 0.4-3.6 <= 0.5\ngini = 0.31\nsamples = 25\nvalue = [8, 34]\nclass = Neutral", fillcolor="#68b4eb"] ;
460 -> 461 ;
462 [label="Fst 0.4-0.45; MSE 0.3-0.4 <= 0.5\ngini = 0.34\nsamples = 22\nvalue = [8, 29]\nclass = Neutral", fillcolor="#70b8ec"] ;
461 -> 462 ;
463 [label="Fst 0.3-0.35; MSE 0.0-0.1 <= 5.5\ngini = 0.38\nsamples = 19\nvalue = [8, 24]\nclass = Neutral", fillcolor="#7bbeee"] ;
462 -> 463 ;
464 [label="Fst 0.45-0.5; MSE 0.4-3.6 <= 3.5\ngini = 0.35\nsamples = 18\nvalue = [7, 24]\nclass = Neutral", fillcolor="#73baed"] ;
463 -> 464 ;
465 [label="Fst 0.2-0.25; MSE 0.1-0.2 <= 4.0\ngini = 0.3\nsamples = 16\nvalue = [5, 22]\nclass = Neutral", fillcolor="#66b3eb"] ;
464 -> 465 ;
466 [label="Fst 0.05-0.1; MSE 0.1-0.2 <= 0.5\ngini = 0.36\nsamples = 13\nvalue = [5, 16]\nclass = Neutral", fillcolor="#77bced"] ;
465 -> 466 ;
467 [label="Fst 0.3-0.35; MSE 0.2-0.3 <= 1.0\ngini = 0.38\nsamples = 12\nvalue = [5, 15]\nclass = Neutral", fillcolor="#7bbeee"] ;
466 -> 467 ;
468 [label="Fst 0.05-0.1; MSE 0.0-0.1 <= 21.5\ngini = 0.39\nsamples = 11\nvalue = [5, 14]\nclass = Neutral", fillcolor="#80c0ee"] ;
467 -> 468 ;
469 [label="Fst 0.05-0.1; MSE 0.0-0.1 <= 15.5\ngini = 0.41\nsamples = 7\nvalue = [5, 2]\nclass = SAS", fillcolor="#efb388"] ;
468 -> 469 ;
470 [label="gini = 0.0\nsamples = 1\nvalue = [0, 1]\nclass = Neutral", fillcolor="#399de5"] ;
469 -> 470 ;
471 [label="Fst 0.35-0.4; MSE 0.2-0.3 <= 0.5\ngini = 0.28\nsamples = 6\nvalue = [5, 1]\nclass = SAS", fillcolor="#ea9a61"] ;
469 -> 471 ;
472 [label="gini = 0.0\nsamples = 5\nvalue = [5, 0]\nclass = SAS", fillcolor="#e58139"] ;
471 -> 472 ;
473 [label="gini = 0.0\nsamples = 1\nvalue = [0, 1]\nclass = Neutral", fillcolor="#399de5"] ;
471 -> 473 ;
474 [label="gini = 0.0\nsamples = 4\nvalue = [0, 12]\nclass = Neutral", fillcolor="#399de5"] ;
468 -> 474 ;
475 [label="gini = 0.0\nsamples = 1\nvalue = [0, 1]\nclass = Neutral", fillcolor="#399de5"] ;
467 -> 475 ;
476 [label="gini = 0.0\nsamples = 1\nvalue = [0, 1]\nclass = Neutral", fillcolor="#399de5"] ;
466 -> 476 ;
477 [label="gini = 0.0\nsamples = 3\nvalue = [0, 6]\nclass = Neutral", fillcolor="#399de5"] ;
465 -> 477 ;
478 [label="Fst 0.1-0.15; MSE 0.0-0.1 <= 96.0\ngini = 0.5\nsamples = 2\nvalue = [2, 2]\nclass = SAS", fillcolor="#ffffff"] ;
464 -> 478 ;
479 [label="gini = 0.0\nsamples = 1\nvalue = [0, 2]\nclass = Neutral", fillcolor="#399de5"] ;
478 -> 479 ;
480 [label="gini = 0.0\nsamples = 1\nvalue = [2, 0]\nclass = SAS", fillcolor="#e58139"] ;
478 -> 480 ;
481 [label="gini = 0.0\nsamples = 1\nvalue = [1, 0]\nclass = SAS", fillcolor="#e58139"] ;
463 -> 481 ;
482 [label="gini = 0.0\nsamples = 3\nvalue = [0, 5]\nclass = Neutral", fillcolor="#399de5"] ;
462 -> 482 ;
483 [label="gini = 0.0\nsamples = 3\nvalue = [0, 5]\nclass = Neutral", fillcolor="#399de5"] ;
461 -> 483 ;
484 [label="Fst 0.1-0.15; MSE 0.0-0.1 <= 59.0\ngini = 0.5\nsamples = 15\nvalue = [11, 11]\nclass = SAS", fillcolor="#ffffff"] ;
460 -> 484 ;
485 [label="gini = 0.0\nsamples = 5\nvalue = [7, 0]\nclass = SAS", fillcolor="#e58139"] ;
484 -> 485 ;
486 [label="Fst 0.25-0.3; MSE 0.1-0.2 <= 0.5\ngini = 0.39\nsamples = 10\nvalue = [4, 11]\nclass = Neutral", fillcolor="#81c1ee"] ;
484 -> 486 ;
487 [label="Fst 0.2-0.25; MSE 0.0-0.1 <= 19.0\ngini = 0.48\nsamples = 3\nvalue = [3, 2]\nclass = SAS", fillcolor="#f6d5bd"] ;
486 -> 487 ;
488 [label="gini = 0.0\nsamples = 2\nvalue = [0, 2]\nclass = Neutral", fillcolor="#399de5"] ;
487 -> 488 ;
489 [label="gini = 0.0\nsamples = 1\nvalue = [3, 0]\nclass = SAS", fillcolor="#e58139"] ;
487 -> 489 ;
490 [label="Fst 0.5-0.55; MSE 0.4-3.6 <= 1.0\ngini = 0.18\nsamples = 7\nvalue = [1, 9]\nclass = Neutral", fillcolor="#4fa8e8"] ;
486 -> 490 ;
491 [label="Fst 0.5-0.55; MSE 0.3-0.4 <= 0.5\ngini = 0.24\nsamples = 5\nvalue = [1, 6]\nclass = Neutral", fillcolor="#5aade9"] ;
490 -> 491 ;
492 [label="gini = 0.0\nsamples = 4\nvalue = [0, 6]\nclass = Neutral", fillcolor="#399de5"] ;
491 -> 492 ;
493 [label="gini = 0.0\nsamples = 1\nvalue = [1, 0]\nclass = SAS", fillcolor="#e58139"] ;
491 -> 493 ;
494 [label="gini = 0.0\nsamples = 2\nvalue = [0, 3]\nclass = Neutral", fillcolor="#399de5"] ;
490 -> 494 ;
495 [label="Fst 0.4-0.45; MSE 0.3-0.4 <= 0.5\ngini = 0.11\nsamples = 23\nvalue = [2, 33]\nclass = Neutral", fillcolor="#45a3e7"] ;
459 -> 495 ;
496 [label="Fst 0.1-0.15; MSE 0.0-0.1 <= 76.5\ngini = 0.07\nsamples = 18\nvalue = [1, 26]\nclass = Neutral", fillcolor="#41a1e6"] ;
495 -> 496 ;
497 [label="gini = 0.0\nsamples = 11\nvalue = [0, 19]\nclass = Neutral", fillcolor="#399de5"] ;
496 -> 497 ;
498 [label="Fst 0.35-0.4; MSE 0.1-0.2 <= 3.0\ngini = 0.22\nsamples = 7\nvalue = [1, 7]\nclass = Neutral", fillcolor="#55abe9"] ;
496 -> 498 ;
499 [label="gini = 0.0\nsamples = 6\nvalue = [0, 7]\nclass = Neutral", fillcolor="#399de5"] ;
498 -> 499 ;
500 [label="gini = 0.0\nsamples = 1\nvalue = [1, 0]\nclass = SAS", fillcolor="#e58139"] ;
498 -> 500 ;
501 [label="Fst 0.3-0.35; MSE 0.0-0.1 <= 1.0\ngini = 0.22\nsamples = 5\nvalue = [1, 7]\nclass = Neutral", fillcolor="#55abe9"] ;
495 -> 501 ;
502 [label="gini = 0.0\nsamples = 4\nvalue = [0, 7]\nclass = Neutral", fillcolor="#399de5"] ;
501 -> 502 ;
503 [label="gini = 0.0\nsamples = 1\nvalue = [1, 0]\nclass = SAS", fillcolor="#e58139"] ;
501 -> 503 ;
504 [label="gini = 0.0\nsamples = 1\nvalue = [4, 0]\nclass = SAS", fillcolor="#e58139"] ;
16 -> 504 ;
505 [label="Fst 0.05-0.1; MSE 0.0-0.1 <= 6.0\ngini = 0.5\nsamples = 35\nvalue = [28, 28]\nclass = SAS", fillcolor="#ffffff"] ;
15 -> 505 ;
506 [label="Fst 0.3-0.35; MSE 0.0-0.1 <= 0.5\ngini = 0.5\nsamples = 33\nvalue = [28, 23]\nclass = SAS", fillcolor="#fae8dc"] ;
505 -> 506 ;
507 [label="Fst 0.1-0.15; MSE 0.0-0.1 <= 57.0\ngini = 0.49\nsamples = 31\nvalue = [28, 20]\nclass = SAS", fillcolor="#f8dbc6"] ;
506 -> 507 ;
508 [label="Fst 0.5-0.55; MSE 0.4-3.6 <= 0.5\ngini = 0.49\nsamples = 13\nvalue = [9, 12]\nclass = Neutral", fillcolor="#cee6f8"] ;
507 -> 508 ;
509 [label="Fst 0.1-0.15; MSE 0.0-0.1 <= 44.0\ngini = 0.49\nsamples = 10\nvalue = [9, 7]\nclass = SAS", fillcolor="#f9e3d3"] ;
508 -> 509 ;
510 [label="Fst 0.1-0.15; MSE 0.0-0.1 <= 21.5\ngini = 0.43\nsamples = 8\nvalue = [9, 4]\nclass = SAS", fillcolor="#f1b991"] ;
509 -> 510 ;
511 [label="gini = 0.0\nsamples = 2\nvalue = [4, 0]\nclass = SAS", fillcolor="#e58139"] ;
510 -> 511 ;
512 [label="Fst 0.6-0.65; MSE 0.4-3.6 <= 2.5\ngini = 0.49\nsamples = 6\nvalue = [5, 4]\nclass = SAS", fillcolor="#fae6d7"] ;
510 -> 512 ;
513 [label="Fst 0.25-0.3; MSE 0.0-0.1 <= 1.5\ngini = 0.44\nsamples = 4\nvalue = [2, 4]\nclass = Neutral", fillcolor="#9ccef2"] ;
512 -> 513 ;
514 [label="gini = 0.0\nsamples = 2\nvalue = [0, 4]\nclass = Neutral", fillcolor="#399de5"] ;
513 -> 514 ;
515 [label="gini = 0.0\nsamples = 2\nvalue = [2, 0]\nclass = SAS", fillcolor="#e58139"] ;
513 -> 515 ;
516 [label="gini = 0.0\nsamples = 2\nvalue = [3, 0]\nclass = SAS", fillcolor="#e58139"] ;
512 -> 516 ;
517 [label="gini = 0.0\nsamples = 2\nvalue = [0, 3]\nclass = Neutral", fillcolor="#399de5"] ;
509 -> 517 ;
518 [label="gini = 0.0\nsamples = 3\nvalue = [0, 5]\nclass = Neutral", fillcolor="#399de5"] ;
508 -> 518 ;
519 [label="Fst 0.4-0.45; MSE 0.2-0.3 <= 1.5\ngini = 0.42\nsamples = 18\nvalue = [19, 8]\nclass = SAS", fillcolor="#f0b68c"] ;
507 -> 519 ;
520 [label="Fst 0.25-0.3; MSE 0.0-0.1 <= 1.5\ngini = 0.49\nsamples = 5\nvalue = [4, 5]\nclass = Neutral", fillcolor="#d7ebfa"] ;
519 -> 520 ;
521 [label="gini = 0.0\nsamples = 2\nvalue = [0, 3]\nclass = Neutral", fillcolor="#399de5"] ;
520 -> 521 ;
522 [label="Fst 0.4-0.45; MSE 0.1-0.2 <= 0.5\ngini = 0.44\nsamples = 3\nvalue = [4, 2]\nclass = SAS", fillcolor="#f2c09c"] ;
520 -> 522 ;
523 [label="Fst 0.3-0.35; MSE 0.1-0.2 <= 6.5\ngini = 0.48\nsamples = 2\nvalue = [3, 2]\nclass = SAS", fillcolor="#f6d5bd"] ;
522 -> 523 ;
524 [label="gini = 0.0\nsamples = 1\nvalue = [3, 0]\nclass = SAS", fillcolor="#e58139"] ;
523 -> 524 ;
525 [label="gini = 0.0\nsamples = 1\nvalue = [0, 2]\nclass = Neutral", fillcolor="#399de5"] ;
523 -> 525 ;
526 [label="gini = 0.0\nsamples = 1\nvalue = [1, 0]\nclass = SAS", fillcolor="#e58139"] ;
522 -> 526 ;
527 [label="Fst 0.1-0.15; MSE 0.0-0.1 <= 69.5\ngini = 0.28\nsamples = 13\nvalue = [15, 3]\nclass = SAS", fillcolor="#ea9a61"] ;
519 -> 527 ;
528 [label="Fst 0.2-0.25; MSE 0.1-0.2 <= 7.5\ngini = 0.13\nsamples = 9\nvalue = [13, 1]\nclass = SAS", fillcolor="#e78b48"] ;
527 -> 528 ;
529 [label="gini = 0.0\nsamples = 8\nvalue = [13, 0]\nclass = SAS", fillcolor="#e58139"] ;
528 -> 529 ;
530 [label="gini = 0.0\nsamples = 1\nvalue = [0, 1]\nclass = Neutral", fillcolor="#399de5"] ;
528 -> 530 ;
531 [label="Fst 0.35-0.4; MSE 0.1-0.2 <= 1.0\ngini = 0.5\nsamples = 4\nvalue = [2, 2]\nclass = SAS", fillcolor="#ffffff"] ;
527 -> 531 ;
532 [label="gini = 0.0\nsamples = 1\nvalue = [1, 0]\nclass = SAS", fillcolor="#e58139"] ;
531 -> 532 ;
533 [label="Fst 0.1-0.15; MSE 0.0-0.1 <= 71.0\ngini = 0.44\nsamples = 3\nvalue = [1, 2]\nclass = Neutral", fillcolor="#9ccef2"] ;
531 -> 533 ;
534 [label="gini = 0.0\nsamples = 1\nvalue = [0, 1]\nclass = Neutral", fillcolor="#399de5"] ;
533 -> 534 ;
535 [label="Fst 0.35-0.4; MSE 0.1-0.2 <= 15.0\ngini = 0.5\nsamples = 2\nvalue = [1, 1]\nclass = SAS", fillcolor="#ffffff"] ;
533 -> 535 ;
536 [label="gini = 0.0\nsamples = 1\nvalue = [0, 1]\nclass = Neutral", fillcolor="#399de5"] ;
535 -> 536 ;
537 [label="gini = 0.0\nsamples = 1\nvalue = [1, 0]\nclass = SAS", fillcolor="#e58139"] ;
535 -> 537 ;
538 [label="gini = 0.0\nsamples = 2\nvalue = [0, 3]\nclass = Neutral", fillcolor="#399de5"] ;
506 -> 538 ;
539 [label="gini = 0.0\nsamples = 2\nvalue = [0, 5]\nclass = Neutral", fillcolor="#399de5"] ;
505 -> 539 ;
540 [label="Fst 0.4-0.45; MSE 0.4-3.6 <= 1.5\ngini = 0.24\nsamples = 4\nvalue = [6, 1]\nclass = SAS", fillcolor="#e9965a"] ;
14 -> 540 ;
541 [label="Fst 0.25-0.3; MSE 0.0-0.1 <= 0.5\ngini = 0.5\nsamples = 2\nvalue = [1, 1]\nclass = SAS", fillcolor="#ffffff"] ;
540 -> 541 ;
542 [label="gini = 0.0\nsamples = 1\nvalue = [1, 0]\nclass = SAS", fillcolor="#e58139"] ;
541 -> 542 ;
543 [label="gini = 0.0\nsamples = 1\nvalue = [0, 1]\nclass = Neutral", fillcolor="#399de5"] ;
541 -> 543 ;
544 [label="gini = 0.0\nsamples = 2\nvalue = [5, 0]\nclass = SAS", fillcolor="#e58139"] ;
540 -> 544 ;
545 [label="Fst 0.85-0.9; MSE 0.4-3.6 <= 1.5\ngini = 0.5\nsamples = 51\nvalue = [43, 48]\nclass = Neutral", fillcolor="#eaf5fc"] ;
13 -> 545 ;
546 [label="Fst 0.6-0.65; MSE 0.3-0.4 <= 0.5\ngini = 0.49\nsamples = 47\nvalue = [35, 48]\nclass = Neutral", fillcolor="#c9e4f8"] ;
545 -> 546 ;
547 [label="Fst 0.35-0.4; MSE 0.0-0.1 <= 0.5\ngini = 0.49\nsamples = 45\nvalue = [35, 45]\nclass = Neutral", fillcolor="#d3e9f9"] ;
546 -> 547 ;
548 [label="Fst 0.7-0.75; MSE 0.4-3.6 <= 5.5\ngini = 0.49\nsamples = 43\nvalue = [32, 45]\nclass = Neutral", fillcolor="#c6e3f7"] ;
547 -> 548 ;
549 [label="Fst 0.35-0.4; MSE 0.1-0.2 <= 0.5\ngini = 0.49\nsamples = 42\nvalue = [32, 43]\nclass = Neutral", fillcolor="#cce6f8"] ;
548 -> 549 ;
550 [label="Fst 0.4-0.45; MSE 0.1-0.2 <= 18.5\ngini = 0.36\nsamples = 14\nvalue = [7, 23]\nclass = Neutral", fillcolor="#75bbed"] ;
549 -> 550 ;
551 [label="Fst 0.4-0.45; MSE 0.3-0.4 <= 0.5\ngini = 0.29\nsamples = 13\nvalue = [5, 23]\nclass = Neutral", fillcolor="#64b2eb"] ;
550 -> 551 ;
552 [label="Fst 0.2-0.25; MSE 0.0-0.1 <= 22.5\ngini = 0.46\nsamples = 6\nvalue = [5, 9]\nclass = Neutral", fillcolor="#a7d3f3"] ;
551 -> 552 ;
553 [label="gini = 0.0\nsamples = 3\nvalue = [0, 9]\nclass = Neutral", fillcolor="#399de5"] ;
552 -> 553 ;
554 [label="gini = 0.0\nsamples = 3\nvalue = [5, 0]\nclass = SAS", fillcolor="#e58139"] ;
552 -> 554 ;
555 [label="gini = 0.0\nsamples = 7\nvalue = [0, 14]\nclass = Neutral", fillcolor="#399de5"] ;
551 -> 555 ;
556 [label="gini = 0.0\nsamples = 1\nvalue = [2, 0]\nclass = SAS", fillcolor="#e58139"] ;
550 -> 556 ;
557 [label="Fst 0.15-0.2; MSE 0.0-0.1 <= 42.0\ngini = 0.49\nsamples = 28\nvalue = [25, 20]\nclass = SAS", fillcolor="#fae6d7"] ;
549 -> 557 ;
558 [label="Fst 0.35-0.4; MSE 0.1-0.2 <= 9.0\ngini = 0.39\nsamples = 20\nvalue = [25, 9]\nclass = SAS", fillcolor="#eeae80"] ;
557 -> 558 ;
559 [label="Fst 0.35-0.4; MSE 0.2-0.3 <= 2.5\ngini = 0.33\nsamples = 16\nvalue = [23, 6]\nclass = SAS", fillcolor="#eca26d"] ;
558 -> 559 ;
560 [label="Fst 0.5-0.55; MSE 0.4-3.6 <= 0.5\ngini = 0.43\nsamples = 10\nvalue = [13, 6]\nclass = SAS", fillcolor="#f1bb94"] ;
559 -> 560 ;
561 [label="Fst 0.35-0.4; MSE 0.2-0.3 <= 1.5\ngini = 0.48\nsamples = 7\nvalue = [9, 6]\nclass = SAS", fillcolor="#f6d5bd"] ;
560 -> 561 ;
562 [label="Fst 0.25-0.3; MSE 0.0-0.1 <= 1.5\ngini = 0.3\nsamples = 6\nvalue = [9, 2]\nclass = SAS", fillcolor="#eb9d65"] ;
561 -> 562 ;
563 [label="Fst 0.45-0.5; MSE 0.3-0.4 <= 0.5\ngini = 0.41\nsamples = 4\nvalue = [5, 2]\nclass = SAS", fillcolor="#efb388"] ;
562 -> 563 ;
564 [label="gini = 0.0\nsamples = 2\nvalue = [5, 0]\nclass = SAS", fillcolor="#e58139"] ;
563 -> 564 ;
565 [label="gini = 0.0\nsamples = 2\nvalue = [0, 2]\nclass = Neutral", fillcolor="#399de5"] ;
563 -> 565 ;
566 [label="gini = 0.0\nsamples = 2\nvalue = [4, 0]\nclass = SAS", fillcolor="#e58139"] ;
562 -> 566 ;
567 [label="gini = 0.0\nsamples = 1\nvalue = [0, 4]\nclass = Neutral", fillcolor="#399de5"] ;
561 -> 567 ;
568 [label="gini = 0.0\nsamples = 3\nvalue = [4, 0]\nclass = SAS", fillcolor="#e58139"] ;
560 -> 568 ;
569 [label="gini = 0.0\nsamples = 6\nvalue = [10, 0]\nclass = SAS", fillcolor="#e58139"] ;
559 -> 569 ;
570 [label="Fst 0.2-0.25; MSE 0.0-0.1 <= 13.0\ngini = 0.48\nsamples = 4\nvalue = [2, 3]\nclass = Neutral", fillcolor="#bddef6"] ;
558 -> 570 ;
571 [label="gini = 0.0\nsamples = 1\nvalue = [2, 0]\nclass = SAS", fillcolor="#e58139"] ;
570 -> 571 ;
572 [label="gini = 0.0\nsamples = 3\nvalue = [0, 3]\nclass = Neutral", fillcolor="#399de5"] ;
570 -> 572 ;
573 [label="gini = 0.0\nsamples = 8\nvalue = [0, 11]\nclass = Neutral", fillcolor="#399de5"] ;
557 -> 573 ;
574 [label="gini = 0.0\nsamples = 1\nvalue = [0, 2]\nclass = Neutral", fillcolor="#399de5"] ;
548 -> 574 ;
575 [label="gini = 0.0\nsamples = 2\nvalue = [3, 0]\nclass = SAS", fillcolor="#e58139"] ;
547 -> 575 ;
576 [label="gini = 0.0\nsamples = 2\nvalue = [0, 3]\nclass = Neutral", fillcolor="#399de5"] ;
546 -> 576 ;
577 [label="gini = 0.0\nsamples = 4\nvalue = [8, 0]\nclass = SAS", fillcolor="#e58139"] ;
545 -> 577 ;
578 [label="Fst 0.65-0.7; MSE 0.4-3.6 <= 1.5\ngini = 0.23\nsamples = 12\nvalue = [3, 20]\nclass = Neutral", fillcolor="#57ace9"] ;
12 -> 578 ;
579 [label="Fst 0.05-0.1; MSE 0.0-0.1 <= 6.5\ngini = 0.09\nsamples = 10\nvalue = [1, 20]\nclass = Neutral", fillcolor="#43a2e6"] ;
578 -> 579 ;
580 [label="gini = 0.0\nsamples = 9\nvalue = [0, 20]\nclass = Neutral", fillcolor="#399de5"] ;
579 -> 580 ;
581 [label="gini = 0.0\nsamples = 1\nvalue = [1, 0]\nclass = SAS", fillcolor="#e58139"] ;
579 -> 581 ;
582 [label="gini = 0.0\nsamples = 2\nvalue = [2, 0]\nclass = SAS", fillcolor="#e58139"] ;
578 -> 582 ;
583 [label="Fst 0.25-0.3; MSE 0.1-0.2 <= 3.5\ngini = 0.5\nsamples = 29\nvalue = [25, 22]\nclass = SAS", fillcolor="#fcf0e7"] ;
11 -> 583 ;
584 [label="Fst 0.5-0.55; MSE 0.3-0.4 <= 0.5\ngini = 0.19\nsamples = 11\nvalue = [2, 17]\nclass = Neutral", fillcolor="#50a9e8"] ;
583 -> 584 ;
585 [label="gini = 0.0\nsamples = 1\nvalue = [2, 0]\nclass = SAS", fillcolor="#e58139"] ;
584 -> 585 ;
586 [label="gini = 0.0\nsamples = 10\nvalue = [0, 17]\nclass = Neutral", fillcolor="#399de5"] ;
584 -> 586 ;
587 [label="Fst 0.2-0.25; MSE 0.0-0.1 <= 19.5\ngini = 0.29\nsamples = 18\nvalue = [23, 5]\nclass = SAS", fillcolor="#eb9c64"] ;
583 -> 587 ;
588 [label="Fst 0.35-0.4; MSE 0.2-0.3 <= 9.5\ngini = 0.46\nsamples = 10\nvalue = [9, 5]\nclass = SAS", fillcolor="#f3c7a7"] ;
587 -> 588 ;
589 [label="Fst 0.45-0.5; MSE 0.4-3.6 <= 1.0\ngini = 0.3\nsamples = 8\nvalue = [9, 2]\nclass = SAS", fillcolor="#eb9d65"] ;
588 -> 589 ;
590 [label="Fst 0.6-0.65; MSE 0.4-3.6 <= 3.0\ngini = 0.2\nsamples = 6\nvalue = [8, 1]\nclass = SAS", fillcolor="#e89152"] ;
589 -> 590 ;
591 [label="gini = 0.0\nsamples = 4\nvalue = [7, 0]\nclass = SAS", fillcolor="#e58139"] ;
590 -> 591 ;
592 [label="Fst 0.4-0.45; MSE 0.3-0.4 <= 1.0\ngini = 0.5\nsamples = 2\nvalue = [1, 1]\nclass = SAS", fillcolor="#ffffff"] ;
590 -> 592 ;
593 [label="gini = 0.0\nsamples = 1\nvalue = [0, 1]\nclass = Neutral", fillcolor="#399de5"] ;
592 -> 593 ;
594 [label="gini = 0.0\nsamples = 1\nvalue = [1, 0]\nclass = SAS", fillcolor="#e58139"] ;
592 -> 594 ;
595 [label="Fst 0.35-0.4; MSE 0.1-0.2 <= 0.5\ngini = 0.5\nsamples = 2\nvalue = [1, 1]\nclass = SAS", fillcolor="#ffffff"] ;
589 -> 595 ;
596 [label="gini = 0.0\nsamples = 1\nvalue = [1, 0]\nclass = SAS", fillcolor="#e58139"] ;
595 -> 596 ;
597 [label="gini = 0.0\nsamples = 1\nvalue = [0, 1]\nclass = Neutral", fillcolor="#399de5"] ;
595 -> 597 ;
598 [label="gini = 0.0\nsamples = 2\nvalue = [0, 3]\nclass = Neutral", fillcolor="#399de5"] ;
588 -> 598 ;
599 [label="gini = 0.0\nsamples = 8\nvalue = [14, 0]\nclass = SAS", fillcolor="#e58139"] ;
587 -> 599 ;
600 [label="Fst 0.4-0.45; MSE 0.4-3.6 <= 0.5\ngini = 0.5\nsamples = 233\nvalue = [162, 182]\nclass = Neutral", fillcolor="#e9f4fc"] ;
10 -> 600 ;
601 [label="Fst 0.45-0.5; MSE 0.3-0.4 <= 2.5\ngini = 0.5\nsamples = 210\nvalue = [152, 158]\nclass = Neutral", fillcolor="#f7fbfe"] ;
600 -> 601 ;
602 [label="Fst 0.5-0.55; MSE 0.3-0.4 <= 2.5\ngini = 0.5\nsamples = 189\nvalue = [143, 131]\nclass = SAS", fillcolor="#fdf4ee"] ;
601 -> 602 ;
603 [label="Fst 0.45-0.5; MSE 0.2-0.3 <= 1.5\ngini = 0.5\nsamples = 180\nvalue = [134, 129]\nclass = SAS", fillcolor="#fefaf8"] ;
602 -> 603 ;
604 [label="Fst 0.5-0.55; MSE 0.3-0.4 <= 0.5\ngini = 0.5\nsamples = 176\nvalue = [134, 122]\nclass = SAS", fillcolor="#fdf4ed"] ;
603 -> 604 ;
605 [label="Fst 0.3-0.35; MSE 0.1-0.2 <= 13.5\ngini = 0.5\nsamples = 157\nvalue = [126, 106]\nclass = SAS", fillcolor="#fbebe0"] ;
604 -> 605 ;
606 [label="Fst 0.2-0.25; MSE 0.0-0.1 <= 46.5\ngini = 0.49\nsamples = 143\nvalue = [119, 91]\nclass = SAS", fillcolor="#f9e1d0"] ;
605 -> 606 ;
607 [label="Fst 0.35-0.4; MSE 0.2-0.3 <= 16.5\ngini = 0.5\nsamples = 100\nvalue = [75, 73]\nclass = SAS", fillcolor="#fefcfa"] ;
606 -> 607 ;
608 [label="Fst 0.35-0.4; MSE 0.2-0.3 <= 7.5\ngini = 0.5\nsamples = 99\nvalue = [75, 70]\nclass = SAS", fillcolor="#fdf7f2"] ;
607 -> 608 ;
609 [label="Fst 0.65-0.7; MSE 0.4-3.6 <= 0.5\ngini = 0.5\nsamples = 93\nvalue = [68, 69]\nclass = Neutral", fillcolor="#fcfeff"] ;
608 -> 609 ;
610 [label="Fst 0.4-0.45; MSE 0.2-0.3 <= 5.5\ngini = 0.5\nsamples = 92\nvalue = [68, 66]\nclass = SAS", fillcolor="#fefbf9"] ;
609 -> 610 ;
611 [label="Fst 0.05-0.1; MSE 0.0-0.1 <= 3.5\ngini = 0.5\nsamples = 86\nvalue = [67, 61]\nclass = SAS", fillcolor="#fdf4ed"] ;
610 -> 611 ;
612 [label="Fst 0.25-0.3; MSE 0.2-0.3 <= 5.0\ngini = 0.48\nsamples = 61\nvalue = [55, 38]\nclass = SAS", fillcolor="#f7d8c2"] ;
611 -> 612 ;
613 [label="Fst 0.3-0.35; MSE 0.1-0.2 <= 6.5\ngini = 0.48\nsamples = 60\nvalue = [55, 36]\nclass = SAS", fillcolor="#f6d3bb"] ;
612 -> 613 ;
614 [label="Fst 0.45-0.5; MSE 0.4-3.6 <= 3.5\ngini = 0.5\nsamples = 42\nvalue = [31, 30]\nclass = SAS", fillcolor="#fefbf9"] ;
613 -> 614 ;
615 [label="Fst 0.6-0.65; MSE 0.4-3.6 <= 2.5\ngini = 0.5\nsamples = 41\nvalue = [31, 29]\nclass = SAS", fillcolor="#fdf7f2"] ;
614 -> 615 ;
616 [label="Fst 0.7-0.75; MSE 0.4-3.6 <= 1.0\ngini = 0.5\nsamples = 38\nvalue = [25, 29]\nclass = Neutral", fillcolor="#e4f1fb"] ;
615 -> 616 ;
617 [label="Fst 0.15-0.2; MSE 0.0-0.1 <= 31.0\ngini = 0.5\nsamples = 37\nvalue = [25, 28]\nclass = Neutral", fillcolor="#eaf4fc"] ;
616 -> 617 ;
618 [label="Fst 0.25-0.3; MSE 0.2-0.3 <= 0.5\ngini = 0.24\nsamples = 6\nvalue = [6, 1]\nclass = SAS", fillcolor="#e9965a"] ;
617 -> 618 ;
619 [label="gini = 0.0\nsamples = 5\nvalue = [6, 0]\nclass = SAS", fillcolor="#e58139"] ;
618 -> 619 ;
620 [label="gini = 0.0\nsamples = 1\nvalue = [0, 1]\nclass = Neutral", fillcolor="#399de5"] ;
618 -> 620 ;
621 [label="Fst 0.25-0.3; MSE 0.1-0.2 <= 2.5\ngini = 0.48\nsamples = 31\nvalue = [19, 27]\nclass = Neutral", fillcolor="#c4e2f7"] ;
617 -> 621 ;
622 [label="Fst 0.25-0.3; MSE 0.0-0.1 <= 0.5\ngini = 0.15\nsamples = 8\nvalue = [1, 11]\nclass = Neutral", fillcolor="#4ba6e7"] ;
621 -> 622 ;
623 [label="gini = 0.0\nsamples = 2\nvalue = [0, 3]\nclass = Neutral", fillcolor="#399de5"] ;
622 -> 623 ;
624 [label="Fst 0.85-0.9; MSE 0.4-3.6 <= 0.5\ngini = 0.2\nsamples = 6\nvalue = [1, 8]\nclass = Neutral", fillcolor="#52a9e8"] ;
622 -> 624 ;
625 [label="Fst 0.25-0.3; MSE 0.1-0.2 <= 0.5\ngini = 0.22\nsamples = 5\nvalue = [1, 7]\nclass = Neutral", fillcolor="#55abe9"] ;
624 -> 625 ;
626 [label="Fst 0.3-0.35; MSE 0.0-0.1 <= 5.5\ngini = 0.44\nsamples = 2\nvalue = [1, 2]\nclass = Neutral", fillcolor="#9ccef2"] ;
625 -> 626 ;
627 [label="gini = 0.0\nsamples = 1\nvalue = [0, 2]\nclass = Neutral", fillcolor="#399de5"] ;
626 -> 627 ;
628 [label="gini = 0.0\nsamples = 1\nvalue = [1, 0]\nclass = SAS", fillcolor="#e58139"] ;
626 -> 628 ;
629 [label="gini = 0.0\nsamples = 3\nvalue = [0, 5]\nclass = Neutral", fillcolor="#399de5"] ;
625 -> 629 ;
630 [label="gini = 0.0\nsamples = 1\nvalue = [0, 1]\nclass = Neutral", fillcolor="#399de5"] ;
624 -> 630 ;
631 [label="Fst 0.2-0.25; MSE 0.1-0.2 <= 0.5\ngini = 0.5\nsamples = 23\nvalue = [18, 16]\nclass = SAS", fillcolor="#fcf1e9"] ;
621 -> 631 ;
632 [label="Fst 0.25-0.3; MSE 0.1-0.2 <= 6.5\ngini = 0.35\nsamples = 6\nvalue = [2, 7]\nclass = Neutral", fillcolor="#72b9ec"] ;
631 -> 632 ;
633 [label="Fst 0.25-0.3; MSE 0.0-0.1 <= 1.0\ngini = 0.44\nsamples = 3\nvalue = [2, 1]\nclass = SAS", fillcolor="#f2c09c"] ;
632 -> 633 ;
634 [label="gini = 0.0\nsamples = 1\nvalue = [1, 0]\nclass = SAS", fillcolor="#e58139"] ;
633 -> 634 ;
635 [label="Fst 0.4-0.45; MSE 0.2-0.3 <= 2.0\ngini = 0.5\nsamples = 2\nvalue = [1, 1]\nclass = SAS", fillcolor="#ffffff"] ;
633 -> 635 ;
636 [label="gini = 0.0\nsamples = 1\nvalue = [1, 0]\nclass = SAS", fillcolor="#e58139"] ;
635 -> 636 ;
637 [label="gini = 0.0\nsamples = 1\nvalue = [0, 1]\nclass = Neutral", fillcolor="#399de5"] ;
635 -> 637 ;
638 [label="gini = 0.0\nsamples = 3\nvalue = [0, 6]\nclass = Neutral", fillcolor="#399de5"] ;
632 -> 638 ;
639 [label="Fst 0.25-0.3; MSE 0.0-0.1 <= 1.5\ngini = 0.46\nsamples = 17\nvalue = [16, 9]\nclass = SAS", fillcolor="#f4c8a8"] ;
631 -> 639 ;
640 [label="Fst 0.05-0.1; MSE 0.0-0.1 <= 0.5\ngini = 0.47\nsamples = 9\nvalue = [10, 6]\nclass = SAS", fillcolor="#f5cdb0"] ;
639 -> 640 ;
641 [label="Fst 0.45-0.5; MSE 0.3-0.4 <= 1.0\ngini = 0.49\nsamples = 4\nvalue = [4, 3]\nclass = SAS", fillcolor="#f8e0ce"] ;
640 -> 641 ;
642 [label="Fst 0.35-0.4; MSE 0.2-0.3 <= 2.0\ngini = 0.32\nsamples = 3\nvalue = [4, 1]\nclass = SAS", fillcolor="#eca06a"] ;
641 -> 642 ;
643 [label="gini = 0.0\nsamples = 1\nvalue = [0, 1]\nclass = Neutral", fillcolor="#399de5"] ;
642 -> 643 ;
644 [label="gini = 0.0\nsamples = 2\nvalue = [4, 0]\nclass = SAS", fillcolor="#e58139"] ;
642 -> 644 ;
645 [label="gini = 0.0\nsamples = 1\nvalue = [0, 2]\nclass = Neutral", fillcolor="#399de5"] ;
641 -> 645 ;
646 [label="Fst 0.35-0.4; MSE 0.2-0.3 <= 2.5\ngini = 0.44\nsamples = 5\nvalue = [6, 3]\nclass = SAS", fillcolor="#f2c09c"] ;
640 -> 646 ;
647 [label="Fst 0.3-0.35; MSE 0.1-0.2 <= 3.0\ngini = 0.24\nsamples = 4\nvalue = [6, 1]\nclass = SAS", fillcolor="#e9965a"] ;
646 -> 647 ;
648 [label="gini = 0.0\nsamples = 1\nvalue = [0, 1]\nclass = Neutral", fillcolor="#399de5"] ;
647 -> 648 ;
649 [label="gini = 0.0\nsamples = 3\nvalue = [6, 0]\nclass = SAS", fillcolor="#e58139"] ;
647 -> 649 ;
650 [label="gini = 0.0\nsamples = 1\nvalue = [0, 2]\nclass = Neutral", fillcolor="#399de5"] ;
646 -> 650 ;
651 [label="Fst 0.45-0.5; MSE 0.4-3.6 <= 0.5\ngini = 0.44\nsamples = 8\nvalue = [6, 3]\nclass = SAS", fillcolor="#f2c09c"] ;
639 -> 651 ;
652 [label="Fst 0.2-0.25; MSE 0.1-0.2 <= 2.5\ngini = 0.47\nsamples = 7\nvalue = [5, 3]\nclass = SAS", fillcolor="#f5cdb0"] ;
651 -> 652 ;
653 [label="gini = 0.0\nsamples = 3\nvalue = [3, 0]\nclass = SAS", fillcolor="#e58139"] ;
652 -> 653 ;
654 [label="Fst 0.35-0.4; MSE 0.1-0.2 <= 3.5\ngini = 0.48\nsamples = 4\nvalue = [2, 3]\nclass = Neutral", fillcolor="#bddef6"] ;
652 -> 654 ;
655 [label="gini = 0.0\nsamples = 3\nvalue = [0, 3]\nclass = Neutral", fillcolor="#399de5"] ;
654 -> 655 ;
656 [label="gini = 0.0\nsamples = 1\nvalue = [2, 0]\nclass = SAS", fillcolor="#e58139"] ;
654 -> 656 ;
657 [label="gini = 0.0\nsamples = 1\nvalue = [1, 0]\nclass = SAS", fillcolor="#e58139"] ;
651 -> 657 ;
658 [label="gini = 0.0\nsamples = 1\nvalue = [0, 1]\nclass = Neutral", fillcolor="#399de5"] ;
616 -> 658 ;
659 [label="gini = 0.0\nsamples = 3\nvalue = [6, 0]\nclass = SAS", fillcolor="#e58139"] ;
615 -> 659 ;
660 [label="gini = 0.0\nsamples = 1\nvalue = [0, 1]\nclass = Neutral", fillcolor="#399de5"] ;
614 -> 660 ;
661 [label="Fst 0.2-0.25; MSE 0.0-0.1 <= 34.0\ngini = 0.32\nsamples = 18\nvalue = [24, 6]\nclass = SAS", fillcolor="#eca06a"] ;
613 -> 661 ;
662 [label="Fst 0.15-0.2; MSE 0.1-0.2 <= 1.5\ngini = 0.15\nsamples = 8\nvalue = [11, 1]\nclass = SAS", fillcolor="#e78c4b"] ;
661 -> 662 ;
663 [label="gini = 0.0\nsamples = 7\nvalue = [11, 0]\nclass = SAS", fillcolor="#e58139"] ;
662 -> 663 ;
664 [label="gini = 0.0\nsamples = 1\nvalue = [0, 1]\nclass = Neutral", fillcolor="#399de5"] ;
662 -> 664 ;
665 [label="Fst 0.1-0.15; MSE 0.0-0.1 <= 28.5\ngini = 0.4\nsamples = 10\nvalue = [13, 5]\nclass = SAS", fillcolor="#efb185"] ;
661 -> 665 ;
666 [label="gini = 0.0\nsamples = 3\nvalue = [7, 0]\nclass = SAS", fillcolor="#e58139"] ;
665 -> 666 ;
667 [label="Fst 0.2-0.25; MSE 0.0-0.1 <= 39.5\ngini = 0.5\nsamples = 7\nvalue = [6, 5]\nclass = SAS", fillcolor="#fbeade"] ;
665 -> 667 ;
668 [label="gini = 0.0\nsamples = 2\nvalue = [0, 3]\nclass = Neutral", fillcolor="#399de5"] ;
667 -> 668 ;
669 [label="Fst 0.4-0.45; MSE 0.1-0.2 <= 0.5\ngini = 0.38\nsamples = 5\nvalue = [6, 2]\nclass = SAS", fillcolor="#eeab7b"] ;
667 -> 669 ;
670 [label="gini = 0.0\nsamples = 4\nvalue = [6, 0]\nclass = SAS", fillcolor="#e58139"] ;
669 -> 670 ;
671 [label="gini = 0.0\nsamples = 1\nvalue = [0, 2]\nclass = Neutral", fillcolor="#399de5"] ;
669 -> 671 ;
672 [label="gini = 0.0\nsamples = 1\nvalue = [0, 2]\nclass = Neutral", fillcolor="#399de5"] ;
612 -> 672 ;
673 [label="Fst 0.15-0.2; MSE 0.0-0.1 <= 28.5\ngini = 0.45\nsamples = 25\nvalue = [12, 23]\nclass = Neutral", fillcolor="#a0d0f3"] ;
611 -> 673 ;
674 [label="gini = 0.0\nsamples = 6\nvalue = [0, 9]\nclass = Neutral", fillcolor="#399de5"] ;
673 -> 674 ;
675 [label="Fst 0.7-0.75; MSE 0.4-3.6 <= 1.5\ngini = 0.5\nsamples = 19\nvalue = [12, 14]\nclass = Neutral", fillcolor="#e3f1fb"] ;
673 -> 675 ;
676 [label="Fst 0.2-0.25; MSE 0.0-0.1 <= 41.5\ngini = 0.48\nsamples = 16\nvalue = [9, 14]\nclass = Neutral", fillcolor="#b8dcf6"] ;
675 -> 676 ;
677 [label="Fst 0.4-0.45; MSE 0.3-0.4 <= 2.0\ngini = 0.5\nsamples = 13\nvalue = [9, 9]\nclass = SAS", fillcolor="#ffffff"] ;
676 -> 677 ;
678 [label="Fst 0.4-0.45; MSE 0.1-0.2 <= 1.0\ngini = 0.49\nsamples = 12\nvalue = [9, 7]\nclass = SAS", fillcolor="#f9e3d3"] ;
677 -> 678 ;
679 [label="Fst 0.25-0.3; MSE 0.0-0.1 <= 0.5\ngini = 0.5\nsamples = 11\nvalue = [7, 7]\nclass = SAS", fillcolor="#ffffff"] ;
678 -> 679 ;
680 [label="Fst 0.4-0.45; MSE 0.3-0.4 <= 0.5\ngini = 0.48\nsamples = 3\nvalue = [3, 2]\nclass = SAS", fillcolor="#f6d5bd"] ;
679 -> 680 ;
681 [label="Fst 0.25-0.3; MSE 0.1-0.2 <= 5.5\ngini = 0.5\nsamples = 2\nvalue = [2, 2]\nclass = SAS", fillcolor="#ffffff"] ;
680 -> 681 ;
682 [label="gini = 0.0\nsamples = 1\nvalue = [2, 0]\nclass = SAS", fillcolor="#e58139"] ;
681 -> 682 ;
683 [label="gini = 0.0\nsamples = 1\nvalue = [0, 2]\nclass = Neutral", fillcolor="#399de5"] ;
681 -> 683 ;
684 [label="gini = 0.0\nsamples = 1\nvalue = [1, 0]\nclass = SAS", fillcolor="#e58139"] ;
680 -> 684 ;
685 [label="Fst 0.35-0.4; MSE 0.3-0.4 <= 0.5\ngini = 0.49\nsamples = 8\nvalue = [4, 5]\nclass = Neutral", fillcolor="#d7ebfa"] ;
679 -> 685 ;
686 [label="Fst 0.1-0.15; MSE 0.0-0.1 <= 32.0\ngini = 0.49\nsamples = 6\nvalue = [4, 3]\nclass = SAS", fillcolor="#f8e0ce"] ;
685 -> 686 ;
687 [label="gini = 0.0\nsamples = 2\nvalue = [0, 2]\nclass = Neutral", fillcolor="#399de5"] ;
686 -> 687 ;
688 [label="Fst 0.35-0.4; MSE 0.2-0.3 <= 0.5\ngini = 0.32\nsamples = 4\nvalue = [4, 1]\nclass = SAS", fillcolor="#eca06a"] ;
686 -> 688 ;
689 [label="Fst 0.2-0.25; MSE 0.1-0.2 <= 2.5\ngini = 0.5\nsamples = 2\nvalue = [1, 1]\nclass = SAS", fillcolor="#ffffff"] ;
688 -> 689 ;
690 [label="gini = 0.0\nsamples = 1\nvalue = [0, 1]\nclass = Neutral", fillcolor="#399de5"] ;
689 -> 690 ;
691 [label="gini = 0.0\nsamples = 1\nvalue = [1, 0]\nclass = SAS", fillcolor="#e58139"] ;
689 -> 691 ;
692 [label="gini = 0.0\nsamples = 2\nvalue = [3, 0]\nclass = SAS", fillcolor="#e58139"] ;
688 -> 692 ;
693 [label="gini = 0.0\nsamples = 2\nvalue = [0, 2]\nclass = Neutral", fillcolor="#399de5"] ;
685 -> 693 ;
694 [label="gini = 0.0\nsamples = 1\nvalue = [2, 0]\nclass = SAS", fillcolor="#e58139"] ;
678 -> 694 ;
695 [label="gini = 0.0\nsamples = 1\nvalue = [0, 2]\nclass = Neutral", fillcolor="#399de5"] ;
677 -> 695 ;
696 [label="gini = 0.0\nsamples = 3\nvalue = [0, 5]\nclass = Neutral", fillcolor="#399de5"] ;
676 -> 696 ;
697 [label="gini = 0.0\nsamples = 3\nvalue = [3, 0]\nclass = SAS", fillcolor="#e58139"] ;
675 -> 697 ;
698 [label="Fst 0.15-0.2; MSE 0.0-0.1 <= 38.5\ngini = 0.28\nsamples = 6\nvalue = [1, 5]\nclass = Neutral", fillcolor="#61b1ea"] ;
610 -> 698 ;
699 [label="Fst 0.1-0.15; MSE 0.0-0.1 <= 38.5\ngini = 0.44\nsamples = 3\nvalue = [1, 2]\nclass = Neutral", fillcolor="#9ccef2"] ;
698 -> 699 ;
700 [label="gini = 0.0\nsamples = 1\nvalue = [0, 1]\nclass = Neutral", fillcolor="#399de5"] ;
699 -> 700 ;
701 [label="Fst 0.45-0.5; MSE 0.2-0.3 <= 0.5\ngini = 0.5\nsamples = 2\nvalue = [1, 1]\nclass = SAS", fillcolor="#ffffff"] ;
699 -> 701 ;
702 [label="gini = 0.0\nsamples = 1\nvalue = [0, 1]\nclass = Neutral", fillcolor="#399de5"] ;
701 -> 702 ;
703 [label="gini = 0.0\nsamples = 1\nvalue = [1, 0]\nclass = SAS", fillcolor="#e58139"] ;
701 -> 703 ;
704 [label="gini = 0.0\nsamples = 3\nvalue = [0, 3]\nclass = Neutral", fillcolor="#399de5"] ;
698 -> 704 ;
705 [label="gini = 0.0\nsamples = 1\nvalue = [0, 3]\nclass = Neutral", fillcolor="#399de5"] ;
609 -> 705 ;
706 [label="Fst 0.1-0.15; MSE 0.0-0.1 <= 31.0\ngini = 0.22\nsamples = 6\nvalue = [7, 1]\nclass = SAS", fillcolor="#e99355"] ;
608 -> 706 ;
707 [label="gini = 0.0\nsamples = 1\nvalue = [0, 1]\nclass = Neutral", fillcolor="#399de5"] ;
706 -> 707 ;
708 [label="gini = 0.0\nsamples = 5\nvalue = [7, 0]\nclass = SAS", fillcolor="#e58139"] ;
706 -> 708 ;
709 [label="gini = 0.0\nsamples = 1\nvalue = [0, 3]\nclass = Neutral", fillcolor="#399de5"] ;
607 -> 709 ;
710 [label="Fst 0.3-0.35; MSE 0.0-0.1 <= 0.5\ngini = 0.41\nsamples = 43\nvalue = [44, 18]\nclass = SAS", fillcolor="#f0b58a"] ;
606 -> 710 ;
711 [label="Fst 0.25-0.3; MSE 0.1-0.2 <= 11.0\ngini = 0.38\nsamples = 39\nvalue = [43, 15]\nclass = SAS", fillcolor="#eead7e"] ;
710 -> 711 ;
712 [label="Fst 0.35-0.4; MSE 0.1-0.2 <= 8.5\ngini = 0.46\nsamples = 26\nvalue = [23, 13]\nclass = SAS", fillcolor="#f4c8a9"] ;
711 -> 712 ;
713 [label="Fst 0.15-0.2; MSE 0.0-0.1 <= 21.5\ngini = 0.48\nsamples = 23\nvalue = [19, 13]\nclass = SAS", fillcolor="#f7d7c0"] ;
712 -> 713 ;
714 [label="gini = 0.0\nsamples = 5\nvalue = [6, 0]\nclass = SAS", fillcolor="#e58139"] ;
713 -> 714 ;
715 [label="Fst 0.45-0.5; MSE 0.3-0.4 <= 0.5\ngini = 0.5\nsamples = 18\nvalue = [13, 13]\nclass = SAS", fillcolor="#ffffff"] ;
713 -> 715 ;
716 [label="Fst 0.4-0.45; MSE 0.3-0.4 <= 0.5\ngini = 0.49\nsamples = 16\nvalue = [10, 13]\nclass = Neutral", fillcolor="#d1e8f9"] ;
715 -> 716 ;
717 [label="Fst 0.3-0.35; MSE 0.2-0.3 <= 3.0\ngini = 0.39\nsamples = 10\nvalue = [4, 11]\nclass = Neutral", fillcolor="#81c1ee"] ;
716 -> 717 ;
718 [label="Fst 0.2-0.25; MSE 0.1-0.2 <= 1.5\ngini = 0.41\nsamples = 9\nvalue = [4, 10]\nclass = Neutral", fillcolor="#88c4ef"] ;
717 -> 718 ;
719 [label="Fst 0.2-0.25; MSE 0.0-0.1 <= 52.0\ngini = 0.2\nsamples = 7\nvalue = [1, 8]\nclass = Neutral", fillcolor="#52a9e8"] ;
718 -> 719 ;
720 [label="gini = 0.0\nsamples = 4\nvalue = [0, 5]\nclass = Neutral", fillcolor="#399de5"] ;
719 -> 720 ;
721 [label="Fst 0.1-0.15; MSE 0.0-0.1 <= 37.0\ngini = 0.38\nsamples = 3\nvalue = [1, 3]\nclass = Neutral", fillcolor="#7bbeee"] ;
719 -> 721 ;
722 [label="Fst 0.15-0.2; MSE 0.0-0.1 <= 42.5\ngini = 0.5\nsamples = 2\nvalue = [1, 1]\nclass = SAS", fillcolor="#ffffff"] ;
721 -> 722 ;
723 [label="gini = 0.0\nsamples = 1\nvalue = [0, 1]\nclass = Neutral", fillcolor="#399de5"] ;
722 -> 723 ;
724 [label="gini = 0.0\nsamples = 1\nvalue = [1, 0]\nclass = SAS", fillcolor="#e58139"] ;
722 -> 724 ;
725 [label="gini = 0.0\nsamples = 1\nvalue = [0, 2]\nclass = Neutral", fillcolor="#399de5"] ;
721 -> 725 ;
726 [label="Fst 0.7-0.75; MSE 0.4-3.6 <= 0.5\ngini = 0.48\nsamples = 2\nvalue = [3, 2]\nclass = SAS", fillcolor="#f6d5bd"] ;
718 -> 726 ;
727 [label="gini = 0.0\nsamples = 1\nvalue = [3, 0]\nclass = SAS", fillcolor="#e58139"] ;
726 -> 727 ;
728 [label="gini = 0.0\nsamples = 1\nvalue = [0, 2]\nclass = Neutral", fillcolor="#399de5"] ;
726 -> 728 ;
729 [label="gini = 0.0\nsamples = 1\nvalue = [0, 1]\nclass = Neutral", fillcolor="#399de5"] ;
717 -> 729 ;
730 [label="Fst 0.05-0.1; MSE 0.0-0.1 <= 0.5\ngini = 0.38\nsamples = 6\nvalue = [6, 2]\nclass = SAS", fillcolor="#eeab7b"] ;
716 -> 730 ;
731 [label="gini = 0.0\nsamples = 1\nvalue = [0, 1]\nclass = Neutral", fillcolor="#399de5"] ;
730 -> 731 ;
732 [label="Fst 0.35-0.4; MSE 0.2-0.3 <= 5.5\ngini = 0.24\nsamples = 5\nvalue = [6, 1]\nclass = SAS", fillcolor="#e9965a"] ;
730 -> 732 ;
733 [label="gini = 0.0\nsamples = 4\nvalue = [6, 0]\nclass = SAS", fillcolor="#e58139"] ;
732 -> 733 ;
734 [label="gini = 0.0\nsamples = 1\nvalue = [0, 1]\nclass = Neutral", fillcolor="#399de5"] ;
732 -> 734 ;
735 [label="gini = 0.0\nsamples = 2\nvalue = [3, 0]\nclass = SAS", fillcolor="#e58139"] ;
715 -> 735 ;
736 [label="gini = 0.0\nsamples = 3\nvalue = [4, 0]\nclass = SAS", fillcolor="#e58139"] ;
712 -> 736 ;
737 [label="Fst 0.2-0.25; MSE 0.1-0.2 <= 5.5\ngini = 0.17\nsamples = 13\nvalue = [20, 2]\nclass = SAS", fillcolor="#e88e4d"] ;
711 -> 737 ;
738 [label="Fst 0.5-0.55; MSE 0.4-3.6 <= 0.5\ngini = 0.26\nsamples = 9\nvalue = [11, 2]\nclass = SAS", fillcolor="#ea985d"] ;
737 -> 738 ;
739 [label="gini = 0.0\nsamples = 6\nvalue = [9, 0]\nclass = SAS", fillcolor="#e58139"] ;
738 -> 739 ;
740 [label="Fst 0.2-0.25; MSE 0.0-0.1 <= 65.0\ngini = 0.5\nsamples = 3\nvalue = [2, 2]\nclass = SAS", fillcolor="#ffffff"] ;
738 -> 740 ;
741 [label="gini = 0.0\nsamples = 2\nvalue = [0, 2]\nclass = Neutral", fillcolor="#399de5"] ;
740 -> 741 ;
742 [label="gini = 0.0\nsamples = 1\nvalue = [2, 0]\nclass = SAS", fillcolor="#e58139"] ;
740 -> 742 ;
743 [label="gini = 0.0\nsamples = 4\nvalue = [9, 0]\nclass = SAS", fillcolor="#e58139"] ;
737 -> 743 ;
744 [label="Fst 0.45-0.5; MSE 0.2-0.3 <= 0.5\ngini = 0.38\nsamples = 4\nvalue = [1, 3]\nclass = Neutral", fillcolor="#7bbeee"] ;
710 -> 744 ;
745 [label="Fst 0.4-0.45; MSE 0.2-0.3 <= 2.5\ngini = 0.44\nsamples = 3\nvalue = [1, 2]\nclass = Neutral", fillcolor="#9ccef2"] ;
744 -> 745 ;
746 [label="gini = 0.0\nsamples = 2\nvalue = [0, 2]\nclass = Neutral", fillcolor="#399de5"] ;
745 -> 746 ;
747 [label="gini = 0.0\nsamples = 1\nvalue = [1, 0]\nclass = SAS", fillcolor="#e58139"] ;
745 -> 747 ;
748 [label="gini = 0.0\nsamples = 1\nvalue = [0, 1]\nclass = Neutral", fillcolor="#399de5"] ;
744 -> 748 ;
749 [label="Fst 0.2-0.25; MSE 0.0-0.1 <= 35.0\ngini = 0.43\nsamples = 14\nvalue = [7, 15]\nclass = Neutral", fillcolor="#95cbf1"] ;
605 -> 749 ;
750 [label="gini = 0.0\nsamples = 4\nvalue = [6, 0]\nclass = SAS", fillcolor="#e58139"] ;
749 -> 750 ;
751 [label="Fst 0.3-0.35; MSE 0.0-0.1 <= 0.5\ngini = 0.12\nsamples = 10\nvalue = [1, 15]\nclass = Neutral", fillcolor="#46a4e7"] ;
749 -> 751 ;
752 [label="Fst 0.2-0.25; MSE 0.1-0.2 <= 1.5\ngini = 0.13\nsamples = 8\nvalue = [1, 13]\nclass = Neutral", fillcolor="#48a5e7"] ;
751 -> 752 ;
753 [label="gini = 0.0\nsamples = 4\nvalue = [0, 8]\nclass = Neutral", fillcolor="#399de5"] ;
752 -> 753 ;
754 [label="Fst 0.35-0.4; MSE 0.1-0.2 <= 0.5\ngini = 0.28\nsamples = 4\nvalue = [1, 5]\nclass = Neutral", fillcolor="#61b1ea"] ;
752 -> 754 ;
755 [label="gini = 0.0\nsamples = 2\nvalue = [0, 3]\nclass = Neutral", fillcolor="#399de5"] ;
754 -> 755 ;
756 [label="Fst 0.4-0.45; MSE 0.3-0.4 <= 0.5\ngini = 0.44\nsamples = 2\nvalue = [1, 2]\nclass = Neutral", fillcolor="#9ccef2"] ;
754 -> 756 ;
757 [label="gini = 0.0\nsamples = 1\nvalue = [0, 2]\nclass = Neutral", fillcolor="#399de5"] ;
756 -> 757 ;
758 [label="gini = 0.0\nsamples = 1\nvalue = [1, 0]\nclass = SAS", fillcolor="#e58139"] ;
756 -> 758 ;
759 [label="gini = 0.0\nsamples = 2\nvalue = [0, 2]\nclass = Neutral", fillcolor="#399de5"] ;
751 -> 759 ;
760 [label="Fst 0.35-0.4; MSE 0.1-0.2 <= 0.5\ngini = 0.44\nsamples = 19\nvalue = [8, 16]\nclass = Neutral", fillcolor="#9ccef2"] ;
604 -> 760 ;
761 [label="gini = 0.0\nsamples = 4\nvalue = [0, 5]\nclass = Neutral", fillcolor="#399de5"] ;
760 -> 761 ;
762 [label="Fst 0.6-0.65; MSE 0.4-3.6 <= 1.0\ngini = 0.49\nsamples = 15\nvalue = [8, 11]\nclass = Neutral", fillcolor="#c9e4f8"] ;
760 -> 762 ;
763 [label="Fst 0.5-0.55; MSE 0.3-0.4 <= 1.5\ngini = 0.39\nsamples = 13\nvalue = [4, 11]\nclass = Neutral", fillcolor="#81c1ee"] ;
762 -> 763 ;
764 [label="Fst 0.2-0.25; MSE 0.0-0.1 <= 34.5\ngini = 0.46\nsamples = 9\nvalue = [4, 7]\nclass = Neutral", fillcolor="#aad5f4"] ;
763 -> 764 ;
765 [label="gini = 0.0\nsamples = 2\nvalue = [2, 0]\nclass = SAS", fillcolor="#e58139"] ;
764 -> 765 ;
766 [label="Fst 0.4-0.45; MSE 0.1-0.2 <= 1.5\ngini = 0.35\nsamples = 7\nvalue = [2, 7]\nclass = Neutral", fillcolor="#72b9ec"] ;
764 -> 766 ;
767 [label="Fst 0.2-0.25; MSE 0.1-0.2 <= 2.0\ngini = 0.44\nsamples = 6\nvalue = [2, 4]\nclass = Neutral", fillcolor="#9ccef2"] ;
766 -> 767 ;
768 [label="Fst 0.25-0.3; MSE 0.1-0.2 <= 2.5\ngini = 0.5\nsamples = 4\nvalue = [2, 2]\nclass = SAS", fillcolor="#ffffff"] ;
767 -> 768 ;
769 [label="gini = 0.0\nsamples = 1\nvalue = [1, 0]\nclass = SAS", fillcolor="#e58139"] ;
768 -> 769 ;
770 [label="Fst 0.25-0.3; MSE 0.0-0.1 <= 1.0\ngini = 0.44\nsamples = 3\nvalue = [1, 2]\nclass = Neutral", fillcolor="#9ccef2"] ;
768 -> 770 ;
771 [label="gini = 0.0\nsamples = 1\nvalue = [0, 1]\nclass = Neutral", fillcolor="#399de5"] ;
770 -> 771 ;
772 [label="Fst 0.1-0.15; MSE 0.0-0.1 <= 38.0\ngini = 0.5\nsamples = 2\nvalue = [1, 1]\nclass = SAS", fillcolor="#ffffff"] ;
770 -> 772 ;
773 [label="gini = 0.0\nsamples = 1\nvalue = [1, 0]\nclass = SAS", fillcolor="#e58139"] ;
772 -> 773 ;
774 [label="gini = 0.0\nsamples = 1\nvalue = [0, 1]\nclass = Neutral", fillcolor="#399de5"] ;
772 -> 774 ;
775 [label="gini = 0.0\nsamples = 2\nvalue = [0, 2]\nclass = Neutral", fillcolor="#399de5"] ;
767 -> 775 ;
776 [label="gini = 0.0\nsamples = 1\nvalue = [0, 3]\nclass = Neutral", fillcolor="#399de5"] ;
766 -> 776 ;
777 [label="gini = 0.0\nsamples = 4\nvalue = [0, 4]\nclass = Neutral", fillcolor="#399de5"] ;
763 -> 777 ;
778 [label="gini = 0.0\nsamples = 2\nvalue = [4, 0]\nclass = SAS", fillcolor="#e58139"] ;
762 -> 778 ;
779 [label="gini = 0.0\nsamples = 4\nvalue = [0, 7]\nclass = Neutral", fillcolor="#399de5"] ;
603 -> 779 ;
780 [label="Fst 0.25-0.3; MSE 0.1-0.2 <= 7.5\ngini = 0.3\nsamples = 9\nvalue = [9, 2]\nclass = SAS", fillcolor="#eb9d65"] ;
602 -> 780 ;
781 [label="Fst 0.35-0.4; MSE 0.2-0.3 <= 6.5\ngini = 0.18\nsamples = 8\nvalue = [9, 1]\nclass = SAS", fillcolor="#e88f4f"] ;
780 -> 781 ;
782 [label="gini = 0.0\nsamples = 6\nvalue = [8, 0]\nclass = SAS", fillcolor="#e58139"] ;
781 -> 782 ;
783 [label="Fst 0.4-0.45; MSE 0.2-0.3 <= 3.5\ngini = 0.5\nsamples = 2\nvalue = [1, 1]\nclass = SAS", fillcolor="#ffffff"] ;
781 -> 783 ;
784 [label="gini = 0.0\nsamples = 1\nvalue = [0, 1]\nclass = Neutral", fillcolor="#399de5"] ;
783 -> 784 ;
785 [label="gini = 0.0\nsamples = 1\nvalue = [1, 0]\nclass = SAS", fillcolor="#e58139"] ;
783 -> 785 ;
786 [label="gini = 0.0\nsamples = 1\nvalue = [0, 1]\nclass = Neutral", fillcolor="#399de5"] ;
780 -> 786 ;
787 [label="Fst 0.45-0.5; MSE 0.2-0.3 <= 4.5\ngini = 0.38\nsamples = 21\nvalue = [9, 27]\nclass = Neutral", fillcolor="#7bbeee"] ;
601 -> 787 ;
788 [label="Fst 0.4-0.45; MSE 0.2-0.3 <= 23.5\ngini = 0.26\nsamples = 19\nvalue = [5, 27]\nclass = Neutral", fillcolor="#5eafea"] ;
787 -> 788 ;
789 [label="Fst 0.6-0.65; MSE 0.3-0.4 <= 8.0\ngini = 0.18\nsamples = 18\nvalue = [3, 27]\nclass = Neutral", fillcolor="#4fa8e8"] ;
788 -> 789 ;
790 [label="Fst 0.35-0.4; MSE 0.1-0.2 <= 0.5\ngini = 0.2\nsamples = 17\nvalue = [3, 24]\nclass = Neutral", fillcolor="#52a9e8"] ;
789 -> 790 ;
791 [label="Fst 0.2-0.25; MSE 0.0-0.1 <= 40.0\ngini = 0.4\nsamples = 7\nvalue = [3, 8]\nclass = Neutral", fillcolor="#83c2ef"] ;
790 -> 791 ;
792 [label="Fst 0.1-0.15; MSE 0.0-0.1 <= 43.5\ngini = 0.48\nsamples = 4\nvalue = [3, 2]\nclass = SAS", fillcolor="#f6d5bd"] ;
791 -> 792 ;
793 [label="Fst 0.45-0.5; MSE 0.3-0.4 <= 3.5\ngini = 0.44\nsamples = 3\nvalue = [1, 2]\nclass = Neutral", fillcolor="#9ccef2"] ;
792 -> 793 ;
794 [label="gini = 0.0\nsamples = 2\nvalue = [0, 2]\nclass = Neutral", fillcolor="#399de5"] ;
793 -> 794 ;
795 [label="gini = 0.0\nsamples = 1\nvalue = [1, 0]\nclass = SAS", fillcolor="#e58139"] ;
793 -> 795 ;
796 [label="gini = 0.0\nsamples = 1\nvalue = [2, 0]\nclass = SAS", fillcolor="#e58139"] ;
792 -> 796 ;
797 [label="gini = 0.0\nsamples = 3\nvalue = [0, 6]\nclass = Neutral", fillcolor="#399de5"] ;
791 -> 797 ;
798 [label="gini = 0.0\nsamples = 10\nvalue = [0, 16]\nclass = Neutral", fillcolor="#399de5"] ;
790 -> 798 ;
799 [label="gini = 0.0\nsamples = 1\nvalue = [0, 3]\nclass = Neutral", fillcolor="#399de5"] ;
789 -> 799 ;
800 [label="gini = 0.0\nsamples = 1\nvalue = [2, 0]\nclass = SAS", fillcolor="#e58139"] ;
788 -> 800 ;
801 [label="gini = 0.0\nsamples = 2\nvalue = [4, 0]\nclass = SAS", fillcolor="#e58139"] ;
787 -> 801 ;
802 [label="Fst 0.15-0.2; MSE 0.0-0.1 <= 30.0\ngini = 0.42\nsamples = 23\nvalue = [10, 24]\nclass = Neutral", fillcolor="#8bc6f0"] ;
600 -> 802 ;
803 [label="Fst 0.7-0.75; MSE 0.4-3.6 <= 2.0\ngini = 0.5\nsamples = 8\nvalue = [6, 6]\nclass = SAS", fillcolor="#ffffff"] ;
802 -> 803 ;
804 [label="Fst 0.2-0.25; MSE 0.1-0.2 <= 2.5\ngini = 0.5\nsamples = 7\nvalue = [6, 5]\nclass = SAS", fillcolor="#fbeade"] ;
803 -> 804 ;
805 [label="gini = 0.0\nsamples = 2\nvalue = [0, 4]\nclass = Neutral", fillcolor="#399de5"] ;
804 -> 805 ;
806 [label="Fst 0.25-0.3; MSE 0.1-0.2 <= 9.5\ngini = 0.24\nsamples = 5\nvalue = [6, 1]\nclass = SAS", fillcolor="#e9965a"] ;
804 -> 806 ;
807 [label="gini = 0.0\nsamples = 3\nvalue = [5, 0]\nclass = SAS", fillcolor="#e58139"] ;
806 -> 807 ;
808 [label="Fst 0.4-0.45; MSE 0.2-0.3 <= 8.0\ngini = 0.5\nsamples = 2\nvalue = [1, 1]\nclass = SAS", fillcolor="#ffffff"] ;
806 -> 808 ;
